{"arch": "mlp", "activation": "relu", "layers": [{"w": [[-0.0069157155230641365, -0.13827188313007355, 0.0784299373626709, -0.08628050237894058, -0.16280916333198547, 0.03811145946383476, 0.010530175641179085, -0.07162173837423325, 0.0012168381363153458, 0.1208573430776596, -0.09575393050909042, 0.07463158667087555, -0.009975175373256207, 0.08221887052059174, 0.19227361679077148, -0.08805093914270401, 0.054460640996694565, 0.08845888078212738, 0.20786702632904053, -0.09502575546503067, 0.12189697474241257], [0.20938149094581604, 0.004684893414378166, 0.02278364822268486, -0.18245765566825867, 0.21495620906352997, -0.13847161829471588, -0.1242951899766922, -0.10070254653692245, -0.12714144587516785, -0.16974985599517822, -0.1901121437549591, 0.16762997210025787, -0.060509584844112396, 0.08836694806814194, 0.03692638501524925, 0.20891828835010529, 0.15764260292053223, -0.044908709824085236, 0.19830110669136047, -0.19388969242572784, -0.14072860777378082], [0.06931794434785843, 0.060559920966625214, -0.10303034633398056, -0.1515013575553894, 0.1722443699836731, 0.06978663057088852, 0.18780115246772766, -0.1491183042526245, -0.18864893913269043, 0.16570933163166046, 0.013297033496201038, 0.03518771380186081, -0.16450899839401245, 0.13539402186870575, -0.0515412911772728, -0.2063322812318802, -0.07196212559938431, 0.15055878460407257, 0.011368932202458382, 0.18290242552757263, 0.19780944287776947], [-0.12827521562576294, 0.058786001056432724, -0.13764511048793793, -0.0428428128361702, 0.06660863012075424, -0.013157913461327553, -0.1123480275273323, 0.07264872640371323, -0.06061951816082001, -0.21550370752811432, -0.04978974536061287, 0.03339243680238724, -0.21315819025039673, -0.1324625313282013, 0.04497527703642845, -0.0007696123793721199, 0.11560571193695068, -0.0641363263130188, 0.03952532261610031, 0.12444373220205307, -0.02089729718863964], [-0.027632374316453934, 0.16597236692905426, 0.06241237744688988, 0.10844211280345917, -0.21133457124233246, 0.10252100229263306, -0.17207780480384827, -0.15831218659877777, -0.03847375139594078, -0.15923205018043518, -0.08115296065807343, 0.18962083756923676, -0.025375980883836746, 0.12026290595531464, -0.13994671404361725, -0.10497291386127472, 0.1924755573272705, -0.11433947831392288, -0.03833158686757088, -0.02692771889269352, 0.21321381628513336], [0.10143262147903442, -0.02767399698495865, -0.041660938411951065, -0.014980530366301537, -0.07648403942584991, -0.131763756275177, 0.018271485343575478, -0.095029316842556, -0.04209083691239357, -0.0835813581943512, -0.13562437891960144, 0.21288500726222992, 0.2146262526512146, -0.21748560667037964, -0.204744353890419, 0.09653223305940628, 0.21221281588077545, -0.2140742987394333, -0.18355242908000946, 0.18847054243087769, -0.024086927995085716], [-0.07875396311283112, -0.0717644989490509, 0.12695378065109253, -0.11677585542201996, -0.21494176983833313, -0.15986904501914978, -0.09985487163066864, 0.2018090933561325, 0.02681250311434269, 0.1418123096227646, -0.08768156915903091, -0.03585110977292061, -0.07399893552064896, -0.21314264833927155, 0.21392512321472168, -0.03628109022974968, 0.17913925647735596, -0.19548341631889343, -0.1888066828250885, 0.15616057813167572, -0.21308887004852295], [-0.12112715095281601, 0.08772662281990051, 0.17623256146907806, -0.0582587830722332, -0.1873222440481186, 0.04629629850387573, 0.050085727125406265, -0.15504202246665955, 0.08142959326505661, -0.011072272434830666, -0.16212786734104156, 0.043796759098768234, -0.18729349970817566, -0.13918371498584747, 0.18667122721672058, 0.07329977303743362, -0.17722246050834656, 0.022108880802989006, 0.014846039935946465, -0.1946452558040619, 0.1110815554857254], [-0.07265286147594452, -0.14992256462574005, 0.13370543718338013, -0.06443805247545242, 0.04974869638681412, -0.037616681307554245, -0.17784364521503448, 0.1743037849664688, -0.14833126962184906, -0.013729666359722614, -0.05342818796634674, -0.0293277595192194, 0.13586105406284332, -0.15129609405994415, 0.03704060986638069, 0.1651487499475479, 0.07266927510499954, 0.00902997050434351, -0.06486459821462631, -0.015067389234900475, 0.05014412850141525], [-0.10381288826465607, 0.08591140061616898, -0.03831532597541809, -0.07377516478300095, -0.17506562173366547, -0.14187973737716675, -0.18155935406684875, -0.18316417932510376, 0.07687130570411682, 0.03854229673743248, 0.09680797159671783, 0.20534314215183258, -0.05218205973505974, 0.10135211050510406, -0.17335611581802368, -0.1754794716835022, -0.06777127832174301, -0.0879899114370346, -0.11329817771911621, -0.09522954374551773, 0.12253817915916443], [0.13320010900497437, 0.2146751582622528, -0.054979823529720306, 0.09754150360822678, -0.023642096668481827, -0.12193885445594788, -0.057684872299432755, 0.1310950368642807, -0.19163745641708374, -0.19152677059173584, 0.11349088698625565, 0.0020258610602468252, 0.05387294292449951, 0.06613432615995407, -0.041380979120731354, -0.02413039840757847, -0.07822708040475845, 0.15063750743865967, 0.07104085385799408, -0.15945608913898468, 0.0457560233771801], [-0.2131854146718979, -0.15875525772571564, -0.14753325283527374, -0.11816807836294174, -0.028367752209305763, 0.2086630016565323, 0.11817437410354614, -0.12760032713413239, 0.040589671581983566, -0.14375720918178558, -0.16145265102386475, 0.16701701283454895, 0.12836530804634094, 0.1952722817659378, -0.14196805655956268, -0.08938970416784286, -0.03096458688378334, -0.07195078581571579, 0.11905917525291443, 0.14089147746562958, -0.07337523251771927], [-0.09067152440547943, 0.11864862591028214, -0.11910867691040039, 0.18969154357910156, 0.07008998095989227, -0.12587416172027588, -0.17537537217140198, -0.04582059010863304, 0.20006364583969116, 0.1210864707827568, -0.08161382377147675, -0.0035784048959612846, -0.19541919231414795, 0.0789099633693695, 0.1266438066959381, -0.05068887770175934, -0.027859291061758995, -0.03790491074323654, 0.19698557257652283, 0.11532188206911087, -0.03513716906309128], [0.0504983551800251, -0.03340424597263336, -0.21646109223365784, -0.19829252362251282, 0.15865741670131683, 0.010455984622240067, -0.07451512664556503, -0.10712049156427383, -0.04335889592766762, 0.17196886241436005, 0.18612657487392426, 0.05848075821995735, -0.21387848258018494, -0.15220175683498383, -0.018249008804559708, -0.01738322339951992, -0.02895602397620678, -0.09287573397159576, 0.014335522428154945, 0.1683938056230545, 0.12779571115970612], [-0.004197684582322836, -0.0884229838848114, -0.20490910112857819, -0.18923039734363556, 0.09042587876319885, -0.030149215832352638, -0.006477334536612034, 0.08022711426019669, -0.12504149973392487, 0.06234198436141014, 0.028773434460163116, -0.20503664016723633, 0.17717061936855316, -0.15206760168075562, -0.09918465465307236, -0.0536176972091198, -0.16445598006248474, 0.017078345641493797, 0.2053546905517578, 0.16810834407806396, 0.20337750017642975], [-0.07948257774114609, -0.095115527510643, 0.20823179185390472, 0.11864063888788223, -0.1866104006767273, -0.05947541445493698, 0.09855827689170837, -0.10437556356191635, 0.06890789419412613, 0.13362625241279602, -0.14663782715797424, 0.08357387036085129, -0.16822876036167145, 0.041129220277071, 0.04164501652121544, 0.12895654141902924, -0.06975380331277847, -0.19086351990699768, -0.03284323588013649, -0.10529980063438416, 0.18478012084960938], [0.1557876020669937, -0.10819803178310394, -0.1921767145395279, 0.21110428869724274, 0.025702139362692833, -0.20890146493911743, 0.18200477957725525, 0.1080850288271904, 0.11856187134981155, -0.18996737897396088, -0.12932811677455902, 0.06338931620121002, -0.07214000821113586, 0.16600443422794342, 0.009654219262301922, -0.21572674810886383, 0.17528744041919708, 0.07551230490207672, 0.08173949271440506, -0.06297989189624786, -0.07061854749917984]], "b": [-0.027818892151117325, 0.09378935396671295, -0.17194001376628876, -0.1858857274055481, 0.17702926695346832, -0.18867217004299164, 0.20391018688678741, 0.14547871053218842, -0.07282330840826035, -0.0769425556063652, 0.1070772036910057, 0.17214466631412506, 0.10529670864343643, -0.11190091073513031, -0.19529229402542114, 0.076096311211586, -0.019504528492689133]}, {"w": [[-0.06387484818696976, 0.2387087047100067, 0.19413818418979645, -0.0363173671066761, 0.1312813013792038, 0.2253945916891098, -0.17144441604614258, -0.09622770547866821, 0.06202315166592598, 0.14627914130687714, 0.21617725491523743, -0.14211401343345642, 0.07105616480112076, -0.2174929976463318, -0.011960696429014206, 0.05524539574980736, -0.121649831533432], [-0.08772604167461395, -0.2280558943748474, 0.15893159806728363, -0.022054512053728104, 0.23668605089187622, 0.010222881101071835, 0.07740775495767593, 0.13633905351161957, 0.2009662687778473, -0.11630535870790482, -0.09870244562625885, -0.04958534240722656, -0.10476794093847275, 0.06849896907806396, -0.1525176465511322, -0.008295314386487007, 0.004151517059653997], [0.018223663792014122, 0.13572125136852264, -0.08067012578248978, -0.20148982107639313, -0.1491359919309616, 0.16920028626918793, -0.11986367404460907, -0.21765026450157166, 0.03176460042595863, -0.19131241738796234, 0.06730502843856812, 0.11052687466144562, -0.14058783650398254, -0.024505453184247017, 0.12092534452676773, 0.14879056811332703, 0.13214677572250366], [-0.19862863421440125, 0.13467702269554138, -0.1563674658536911, 0.15163828432559967, -0.1707051545381546, 0.04516863822937012, 0.22944678366184235, -0.21143390238285065, -0.19991260766983032, -0.14355029165744781, 0.11717493087053299, 0.21679410338401794, 0.06408559530973434, -0.14525124430656433, -0.010604150593280792, 0.16498000919818878, 0.22584684193134308], [-0.05218110606074333, -0.1621200144290924, 0.0840824618935585, -0.04345051199197769, -0.06861404329538345, 0.029366308823227882, 0.22894272208213806, -0.03133498877286911, 0.03514915704727173, 0.05926784873008728, 0.22410430014133453, 0.10550940036773682, 0.15041415393352509, 0.10332618653774261, -0.047886788845062256, -0.12545078992843628, 0.17587603628635406], [-0.08131926506757736, 0.23714309930801392, -0.14356449246406555, -0.15644636750221252, -0.04187319055199623, -0.11501241475343704, 0.14777126908302307, 0.19030843675136566, 0.023474983870983124, -0.20952671766281128, 0.2248181253671646, 0.15256357192993164, -0.22334980964660645, -0.20200029015541077, -0.008396131917834282, 0.08024490624666214, -0.05386066064238548], [-0.05544775351881981, -0.0203722957521677, -0.05148836225271225, 0.2285584807395935, -0.08156660944223404, -0.02759932167828083, 0.21262292563915253, 0.22402453422546387, 0.09926765412092209, -0.04684125632047653, -0.17955954372882843, -0.00028652287437580526, -0.11937814950942993, 0.19496941566467285, -0.13674843311309814, -0.06848841905593872, 0.09647086262702942], [0.19898968935012817, 0.1835249811410904, -0.10686458647251129, -0.17928718030452728, 0.037700105458498, -0.02348909340798855, 0.07208024710416794, 0.11336062103509903, -0.21971747279167175, -0.11315800249576569, 0.21185940504074097, 0.191517174243927, 0.10265767574310303, 0.16294945776462555, -0.06411445140838623, 0.0023909190203994513, 0.170942023396492], [-0.06286557763814926, 0.05365628004074097, 0.11047003418207169, -0.22906771302223206, -0.19019445776939392, -0.17694154381752014, 0.003648584010079503, -0.21682295203208923, 0.16173724830150604, 0.13476262986660004, 0.18463177978992462, -0.10659006237983704, 0.1931772083044052, 0.08874260634183884, 0.10279538482427597, -0.03271113708615303, -0.21539433300495148]], "b": [0.10123032331466675, -0.11582081019878387, 0.14558172225952148, -0.14169466495513916, -0.11808431148529053, 0.21872751414775848, 0.10692446678876877, -0.2065809965133667, 0.11950411647558212]}, {"w": [[-0.27430063486099243, -0.05351746082305908, 0.037225328385829926, 0.19048070907592773, -0.22892026603221893, 0.2389952391386032, -0.3327859342098236, -0.03553851693868637, -0.06957857310771942], [-0.0018802484264597297, 0.10845466703176498, -0.17771363258361816, 0.08166646957397461, 0.2622445821762085, 0.1808987557888031, -0.07760775089263916, -0.21848635375499725, -0.28770002722740173], [-0.06320782750844955, -0.11765317618846893, 0.2377174347639084, -0.07436692714691162, 0.024857839569449425, 0.18340572714805603, 0.0682762861251831, 0.0635429248213768, 0.2129737138748169]], "b": [0.2748425006866455, 0.06758694350719452, -0.004715283866971731]}]}