{"arch": "mlp", "activation": "relu", "layers": [{"w": [[0.10001298040151596, 0.06203947216272354, -0.03832598403096199, -0.00525246886536479, -0.040789101272821426, -0.009260565973818302, -0.008751500397920609, 0.11320795118808746, -0.11767267435789108, -0.03475572168827057, -0.0521467849612236, -0.07392264902591705, -0.07988549023866653, -0.015948159620165825, -0.012553618289530277, 0.015077426098287106, 0.06496161222457886, 0.04154713451862335, -0.039603784680366516, -0.03460719808936119, 0.11622384190559387, 0.13536792993545532, 0.022228943184018135, 0.07755059748888016, 0.024072276428341866, -0.01703021302819252, 0.07142481952905655, -0.1201116293668747, -0.02708122506737709, 0.0040542734786868095, 0.061402127146720886, 0.15605102479457855, -0.024371273815631866, 0.0070390887558460236, -0.004695666953921318, -0.013396483846008778, 0.03205924853682518, 0.13085271418094635, 0.12703602015972137, 0.06333228945732117, 0.006476777605712414, -0.00969009194523096, -0.01713688112795353, -0.012859959155321121, -0.018113695085048676, -0.03093906119465828, -0.03565576672554016, 0.015364587306976318, -0.06780331581830978, 0.07945282012224197, 0.14520055055618286, 0.1683412343263626, 0.0348423533141613, -0.02487329952418804, 0.049501050263643265, -0.08814706653356552, -0.007837682031095028, 0.018832996487617493, -0.03490404412150383, -0.1069263443350792, 0.07695730030536652, 0.028745148330926895, 0.03043559566140175, 0.022301049903035164, 0.033507026731967926, 0.014693553559482098, 0.03854687884449959, 0.0032526454888284206, 0.0910659208893776, 0.0017184567404910922, -0.04477348178625107, 0.011069893836975098, 0.030861515551805496, 0.14022104442119598, 0.17454086244106293, 0.04592973366379738, 0.06567014008760452, -0.09594840556383133, 0.06358972191810608, -0.017400691285729408, -0.10084627568721771, 0.05035857483744621, 0.10577242076396942, -0.10151977092027664, 0.03670503944158554, -0.03295145556330681, 0.07450253516435623, 0.018133454024791718, 0.08183998614549637, -0.050692118704319, 0.0944037213921547, 0.06373655050992966, 0.15903794765472412, 0.029393326491117477, 0.0269322469830513, 0.03514792025089264, 0.019634364172816277, 0.08475212752819061, -0.07667797803878784, 0.021685898303985596, 0.059458646923303604, 0.07360860705375671, -0.03410355746746063, 0.004055824130773544, -0.20809116959571838], [-0.013708972372114658, -0.006234966684132814, -0.07779258489608765, 0.002017244230955839, 0.026061085984110832, 0.05441199243068695, 0.15056918561458588, 0.01932535506784916, 0.18220974504947662, 0.10726092755794525, 0.08652760833501816, 0.07586650550365448, 0.06466609239578247, 0.035928431898355484, 0.047011036425828934, 0.11178334802389145, 0.01930287666618824, -0.05847378447651863, 0.0039306869730353355, -0.08845657855272293, -0.03811337798833847, -0.034208133816719055, 0.04718337580561638, 0.04674996808171272, -0.12201933562755585, -0.04488058388233185, -0.03819732740521431, -0.06879207491874695, -0.038781460374593735, 0.011700144968926907, -0.058265987783670425, -0.075433149933815, 0.17474931478500366, 0.09449213743209839, 0.17274267971515656, 0.12807424366474152, -0.00036165298661217093, 0.06907214969396591, -0.031304795295000076, -0.008640579879283905, -0.08614660799503326, -0.06906671822071075, -0.07481896132230759, -0.0388549380004406, -0.11359752714633942, -0.1543670892715454, -0.041682519018650055, -0.08593305200338364, -0.05161147564649582, -0.03341912478208542, -0.07409116625785828, -0.01704062707722187, -0.014456948265433311, 0.030776353552937508, -0.03808564320206642, -0.01420099288225174, -0.035958196967840195, -0.14485642313957214, 0.005940534174442291, -0.002319379709661007, -0.013150889426469803, -0.14419499039649963, 0.07351427525281906, -0.08773177862167358, 0.051429588347673416, 0.07835157960653305, 0.014834851957857609, 0.1293237954378128, -0.07665277272462845, -0.0889635682106018, 0.026146112009882927, 0.026797231286764145, -0.09888320416212082, 0.03563675656914711, 0.061489105224609375, 0.0438595786690712, -0.037122953683137894, 0.041199520230293274, 0.05277198180556297, 0.0016493346774950624, 0.07363997399806976, 0.04047580435872078, -0.003788987174630165, -0.06883901357650757, 0.14387615025043488, 0.06595958024263382, 0.08828696608543396, -0.06888198107481003, 0.0870252177119255, -0.0325142927467823, -0.0736747682094574, -0.0009247856214642525, -0.024149293079972267, -0.0044990177266299725, -0.06963226199150085, 0.014515559189021587, 0.08462893962860107, 0.005442579742521048, -0.09044869989156723, 0.016183380037546158, 0.08874282985925674, 0.028330378234386444, 0.018657635897397995, 0.09513241797685623, 0.032477088272571564], [0.06325720995664597, 0.026191754266619682, 0.045423638075590134, 0.019078431650996208, -0.003840513527393341, 0.03771935775876045, -0.08789261430501938, -0.03198344632983208, 0.10845611244440079, 0.027939295396208763, 0.023246532306075096, 0.09535340964794159, 0.011453422717750072, 0.038653574883937836, -0.07835205644369125, 0.05634549260139465, -0.04706965386867523, -0.004733880050480366, -0.09163407981395721, -0.005440275650471449, 0.046259570866823196, 0.0951388031244278, 0.03271226957440376, 0.11876479536294937, 0.07241090387105942, -0.005900202319025993, 0.006317819003015757, -0.011453581042587757, 0.020969243720173836, 0.07003577798604965, 0.01387833897024393, 0.04108633100986481, 0.02481776662170887, 0.04528174549341202, 0.07454990595579147, -0.06649994850158691, 0.04254841059446335, -0.126499742269516, -0.0467890165746212, -0.06958863139152527, -0.05470404773950577, -0.0742957815527916, 0.018580235540866852, -0.0663609728217125, -0.0715295672416687, -0.021679317578673363, -0.13169626891613007, 0.03159144148230553, -0.06806652247905731, -0.060410089790821075, -0.06786505877971649, 6.832513463450596e-05, 0.03804073855280876, 0.051023613661527634, 0.02582119032740593, 0.005289972294121981, 0.060229137539863586, 0.05637876316905022, 0.06996358931064606, 0.021474549546837807, -0.09390497952699661, 0.044185034930706024, -0.17235246300697327, 0.03828861936926842, -0.11553358286619186, -0.08659422397613525, 0.09869686514139175, -0.07335854321718216, -0.0242391899228096, 0.00916459783911705, -0.011607862077653408, -0.06289365142583847, -0.0660049170255661, 0.11265426874160767, 0.019903918728232384, 0.09405060112476349, -0.0445048026740551, 0.04276715964078903, 0.022245297208428383, -0.011340855620801449, 0.04313112050294876, 0.04834432154893875, 0.04437711089849472, 0.006502997595816851, -0.003946635406464338, -0.09746529906988144, 0.07703056186437607, -0.000291982083581388, -0.015429259277880192, -0.020644469186663628, -0.03707093372941017, 0.04694347456097603, -0.016199195757508278, 0.013007674366235733, 0.04375658184289932, -0.00891062244772911, 0.02252332866191864, 0.05802995711565018, 0.02664036862552166, -0.041917834430933, -0.03597564250230789, -0.018292665481567383, 0.027506744489073753, -0.008089735172688961, 0.09632421284914017], [0.0604858323931694, -0.08650816977024078, -0.024197310209274292, -0.004247394390404224, -0.057944368571043015, -0.05739957466721535, -0.09925635159015656, -0.06002739444375038, 0.16248005628585815, 0.15271957218647003, 0.18403750658035278, 0.1539197713136673, -0.059314604848623276, -0.026285680010914803, -0.13063617050647736, -0.07137496769428253, -0.10062741488218307, 0.08026139438152313, -0.028871877118945122, -0.060294147580862045, 0.12482263892889023, 0.09688573330640793, 0.10523881763219833, 0.14675191044807434, 0.05449404940009117, 0.022667383775115013, -0.05606074631214142, 0.07386977970600128, 0.059013690799474716, 0.027539152652025223, 0.017947811633348465, 0.06979136914014816, 0.11070157587528229, -0.0006432185182347894, 0.03764728456735611, 0.04234014078974724, 0.09786315262317657, -0.07171668112277985, -0.07584727555513382, 0.0296579971909523, -0.07155939191579819, -0.1176089346408844, 0.0009489745134487748, -0.1533774435520172, 0.05635559931397438, -0.10869278013706207, -0.10089156776666641, -0.10044930875301361, 0.009537328034639359, 0.025618037208914757, 0.04166561737656593, 0.0525943785905838, -0.05426758900284767, -0.09576523303985596, -0.00810672901570797, -0.007535161916166544, -0.02142573706805706, -0.15110738575458527, -0.11676965653896332, -0.08641713857650757, -0.12825195491313934, 0.06701269000768661, 0.03663073480129242, 0.08975367248058319, 0.09371235966682434, 0.0935383215546608, -0.07733882963657379, 0.023532254621386528, 0.07849062234163284, 0.022971007972955704, 0.13372358679771423, 0.08746402710676193, 0.05329880490899086, 0.024204380810260773, 0.022289765998721123, 0.04172278195619583, 0.007893814705312252, -0.007610587868839502, 0.057892221957445145, -0.11817679554224014, 0.06781980395317078, -0.003960613161325455, -0.05204803869128227, -0.04740326851606369, 0.1002182811498642, -0.01809776946902275, 0.007094112224876881, -0.005825960077345371, 0.034687697887420654, 0.026759926229715347, -0.03621465712785721, 0.11009181290864944, 0.047213099896907806, -0.004021263215690851, 0.06893304735422134, -0.06790850311517715, -0.009032700210809708, 0.03516111150383949, 0.008681339211761951, -0.052401479333639145, -0.048437826335430145, -0.06253065168857574, 0.006088193040341139, 0.03970402106642723, 0.14492489397525787], [0.0366659052670002, -0.052354637533426285, -0.002420566277578473, 0.02744930237531662, 0.011493715457618237, -0.10281425714492798, -0.09559217095375061, -0.12512733042240143, -0.08940836042165756, -0.05136457458138466, -0.055156104266643524, 0.051943618804216385, 0.06693992763757706, 0.006845604628324509, 0.0008071460179053247, 0.04161527752876282, 0.0646234005689621, 0.009353119879961014, -0.025483012199401855, -0.11957906186580658, 0.07089783996343613, -0.2147160917520523, -0.0031665980350226164, 0.13401152193546295, -0.083102747797966, 0.15644553303718567, -0.050478123128414154, 0.15242411196231842, -0.027463041245937347, -0.02951970137655735, 0.1756378710269928, 0.09383562952280045, 0.14135748147964478, 0.04879332706332207, -0.039077531546354294, 0.1741527020931244, 0.03719201683998108, -0.04902664199471474, -0.05628333240747452, 0.10408812761306763, -0.05460267513990402, -0.10160068422555923, 0.06022952124476433, -0.004713396541774273, -0.005786205176264048, 0.1220506951212883, 0.0655677542090416, 0.01902768202126026, -0.23805341124534607, -0.05705384537577629, 0.07240395247936249, 0.1492079645395279, 0.03943253308534622, -0.03322797268629074, 0.13477475941181183, -0.15211381018161774, -0.0949329137802124, 0.032386261969804764, -0.04222200810909271, 0.07793746143579483, 0.013347072526812553, 0.006748520769178867, -0.10778599977493286, 0.08106661587953568, 0.01741684228181839, -0.08620917052030563, 0.020858073607087135, 0.06235803663730621, 0.1399604231119156, -0.09253134578466415, 0.07841227203607559, -0.01025205198675394, 0.005964688491076231, -0.018280422315001488, 0.14582248032093048, 0.004318839404731989, -0.027073731645941734, -0.04805867001414299, 0.13546863198280334, 0.18505340814590454, -0.003771362826228142, 0.008101729676127434, 0.0396915078163147, 0.01827949658036232, 0.0807657539844513, -0.03747459873557091, 0.03270749747753143, 0.09697923809289932, -0.04736385494470596, 0.08920758217573166, -0.0029828851111233234, 0.09031509608030319, 0.015862146392464638, -0.08936884999275208, 0.006181325297802687, 0.11697927862405777, -0.08810455352067947, -0.07682495564222336, 0.09353559464216232, 0.02966756373643875, 0.02002161368727684, -0.0130139896646142, 0.06381126493215561, -0.007016689982265234, -0.1590726524591446], [-0.04585258290171623, 0.014232874847948551, 0.0019224639981985092, -0.10315707325935364, -0.08576688170433044, 0.1478298157453537, 0.06365934759378433, -0.14110034704208374, -0.12340729683637619, -0.10339486598968506, -0.025696083903312683, -0.11967778205871582, -0.10593197494745255, -0.013983204029500484, 0.03837805613875389, 0.004885373171418905, -0.040063802152872086, 0.012040150351822376, -0.08656828105449677, 0.004577488172799349, 0.04054921865463257, -0.08300720900297165, -0.0092350197955966, 0.02091335505247116, 0.04397423565387726, -0.15094442665576935, -0.1516159176826477, 0.08848249167203903, -0.07946208119392395, 0.12736831605434418, 0.12072789669036865, 0.016595780849456787, 0.033742934465408325, 0.10137895494699478, 0.05652488395571709, -0.07532022893428802, -0.06538286805152893, 0.026302902027964592, 0.07978431135416031, -0.004241586662828922, 0.12927962839603424, 0.03392714634537697, 0.050918642431497574, 0.04656601697206497, 0.08178830146789551, 0.053311437368392944, 0.12349482625722885, -0.020327363163232803, 0.028836999088525772, 0.04485500603914261, 0.12123572826385498, -0.11356113851070404, -0.06524737924337387, -0.0008531635976396501, -0.05265234038233757, -0.022982344031333923, -0.14455148577690125, -0.11989101022481918, 0.07999361306428909, 0.08754178136587143, -0.12348975241184235, 0.07465518265962601, 0.011152778752148151, 0.05208757147192955, 0.10757036507129669, -0.08068227767944336, -0.21839295327663422, -0.09235531836748123, 0.06863576173782349, -0.13703778386116028, -0.06605289876461029, -0.04250947758555412, 0.13907195627689362, 0.0657927542924881, 0.16589166224002838, -0.15693441033363342, 0.0364050455391407, -0.036490682512521744, 0.18959783017635345, 0.03996280953288078, -0.11207002401351929, 0.07255010306835175, -0.07031606882810593, -0.026377638801932335, 0.052594516426324844, -0.01471706759184599, -0.0389283113181591, 0.10706822574138641, -0.0238652303814888, -0.026567427441477776, 0.13925562798976898, -0.007447521667927504, -0.06782612949609756, 0.1925918310880661, 0.046072058379650116, -0.02609151229262352, 0.06347062438726425, 0.05494953691959381, 0.06412340700626373, 0.051616325974464417, -0.09560737013816833, 0.10783318430185318, -0.07051615417003632, 0.029055705294013023, -0.0734655112028122], [0.011537373997271061, -0.05619123950600624, 0.093190036714077, 0.017686868086457253, 0.005473194643855095, 0.011295031756162643, 0.0015158351743593812, -0.04794812574982643, -0.13628122210502625, -0.06923874467611313, -0.07073463499546051, -0.06494809687137604, 0.05473971366882324, 0.04757949337363243, -0.13159291446208954, 0.08468649536371231, -0.02893686667084694, 0.08842723071575165, -0.04722015932202339, -0.0026086647994816303, 0.03994949907064438, 0.036965664476156235, 0.1656818389892578, 0.023789994418621063, -0.06889107823371887, -0.016913045197725296, -0.01275647059082985, 0.06594418734312057, 0.008266270160675049, 0.0836302861571312, 0.003632256528362632, 0.033457182347774506, 0.11391502618789673, 0.01819625496864319, 0.06279394030570984, 0.10111366957426071, -0.0006842720904387534, 0.09243523329496384, 0.020260056480765343, 0.11327709257602692, -0.07584114372730255, 0.04677828773856163, 0.0036407290026545525, 0.057767223566770554, 0.09567388892173767, 0.04307259991765022, 0.0596592053771019, 0.0028279218822717667, 0.0954582616686821, -0.05442572757601738, 0.10695148259401321, 0.026290101930499077, 0.015443962998688221, -0.04600595682859421, 0.05300900340080261, 0.12250982969999313, -0.03458075225353241, -0.10580480843782425, 0.06834033876657486, 0.05002381280064583, 0.08109234273433685, -0.0710032731294632, 0.06567054241895676, 0.0891210213303566, 0.04106013476848602, -0.03314083069562912, 0.10173999518156052, -0.027287473902106285, -0.06723658740520477, -0.03893379867076874, -0.047487299889326096, 0.024357130751013756, -0.06818770617246628, 0.0412781648337841, -0.016147322952747345, -0.007577797397971153, -0.009377093985676765, 0.10462933778762817, 0.033212486654520035, 0.08876519650220871, 0.01390990149229765, -0.027017800137400627, 0.044620927423238754, -0.004566125571727753, 0.13085487484931946, -0.020465727895498276, 0.05213886871933937, 0.008197963237762451, 0.1062738299369812, 0.10687869042158127, 0.08611597120761871, -0.0912206619977951, -0.048204030841588974, -4.761823220178485e-05, 0.023015273734927177, 0.018016232177615166, 0.11570046097040176, -0.022632019594311714, 0.05169045925140381, -0.06956814974546432, -0.01578647829592228, 0.10860186815261841, -0.07129769772291183, 0.02476067654788494, -0.15266664326190948], [0.14203323423862457, 0.03905778378248215, -0.004479616414755583, 0.08519470691680908, -0.021575864404439926, -0.017858557403087616, 0.047261547297239304, 0.0902944952249527, 0.04880138114094734, 0.09642402082681656, 0.15057621896266937, 0.11280635744333267, 0.003530265064910054, -0.012676980346441269, -0.014730176888406277, -0.11480707675218582, 0.021040095016360283, 0.10600374639034271, 0.0994301438331604, 0.02744424156844616, 0.03937624394893646, -0.02630520984530449, 0.10026491433382034, 0.02278715930879116, -0.030903834849596024, 0.07377060502767563, 0.08038585633039474, -0.06590599566698074, 0.09593857824802399, 0.049096036702394485, -0.06815117597579956, 0.027946075424551964, 0.10001475363969803, -0.04300522059202194, -0.003424840746447444, 0.06644422560930252, -0.10869225859642029, 0.052208513021469116, 0.03536758944392204, 0.051923252642154694, -0.08723044395446777, 0.018263880163431168, -0.10772742331027985, 0.060013920068740845, -0.10336391627788544, -0.03858921676874161, 0.01902468316257, 0.020465636625885963, -0.0259338840842247, -0.057474490255117416, -0.019117003306746483, -0.04028356075286865, -0.09563537687063217, 0.016743570566177368, 0.011464031413197517, 0.01852232590317726, 0.0850931704044342, 0.09711817651987076, 0.03380393981933594, 0.015934091061353683, -0.02275698073208332, -0.011711489409208298, -0.09850815683603287, 0.013670293614268303, -0.06262615323066711, 0.05420171469449997, -0.025782521814107895, 0.07244139909744263, -0.06038220226764679, -0.022255197167396545, 0.08171240240335464, 0.1000257283449173, -0.013874240219593048, 0.010143888182938099, 0.0478590652346611, 0.008044900372624397, -0.04202035814523697, 0.04194537177681923, -0.03317708149552345, 0.03131408616900444, 0.09193498641252518, 0.001075497828423977, 0.08572662621736526, -0.006585502997040749, 0.07492590695619583, 0.14562688767910004, -0.006538560148328543, 0.04500367492437363, 0.020648883655667305, -0.0015179760521277785, 0.032834626734256744, -0.022914931178092957, -0.0241859070956707, 0.03523310273885727, 0.02796887420117855, 0.10121000558137894, 0.005600301083177328, 0.05890341475605965, 0.006843819282948971, -0.05523647367954254, 0.04499747231602669, 0.06810323148965836, -0.028200767934322357, -0.010242936201393604, 0.08902360498905182], [-0.010087498463690281, 0.0686686709523201, 0.04032490774989128, 0.08225733041763306, 0.09039979428052902, -0.06037595868110657, 0.07389044761657715, 0.05015718936920166, -0.03998671844601631, -0.01847190223634243, -0.01038628164678812, 0.1136695072054863, 0.04752465710043907, 0.01659485511481762, 0.06629997491836548, -0.06437664479017258, 0.016112929210066795, -0.0455339290201664, 0.05777735635638237, -0.08012644946575165, -0.00860112626105547, 0.162306547164917, 0.10485010594129562, -0.05889708921313286, 0.10909485816955566, -0.04108917713165283, -0.05400453135371208, -0.032291751354932785, 0.03474726900458336, 0.057195376604795456, 0.034173909574747086, -0.0303337424993515, -0.08154689520597458, 0.07436925172805786, 0.028653355315327644, 0.02690138667821884, 0.12464572489261627, 0.18748146295547485, 0.052567776292562485, -0.024300644174218178, -0.07216648012399673, -0.015452184714376926, 0.005368780344724655, 0.15577282011508942, -0.0023088203743100166, 0.038042083382606506, 0.036549072712659836, -0.05668938159942627, 0.01977449841797352, 0.11328742653131485, -0.027863968163728714, 0.13908341526985168, 0.07305034250020981, 0.07422039657831192, -0.03710336983203888, 0.0968601182103157, -0.03575402498245239, -0.07804697751998901, 0.1451566368341446, 0.027906764298677444, 0.1288023591041565, 0.12098239362239838, 0.08155444264411926, 0.07346666604280472, 0.11000263690948486, -0.08122354745864868, -0.0717853456735611, 0.006931628100574017, 0.051883917301893234, -0.13748739659786224, 0.025330033153295517, 0.09219395369291306, 0.004531259648501873, 0.010135139338672161, 0.10272987931966782, 0.09399845451116562, -0.10729653388261795, -0.050694264471530914, 0.10018692910671234, 0.02472449652850628, 0.07933073490858078, -0.09533188492059708, -0.033547986298799515, 0.06960342824459076, 0.052320677787065506, -0.13268893957138062, 0.03388966619968414, -0.07769308239221573, 0.08902402967214584, 0.04255112260580063, 0.11167868971824646, -0.07213640213012695, -0.013780130073428154, 0.07682500034570694, 0.08581414818763733, 0.07061120122671127, 0.12838247418403625, -0.01192155759781599, 0.1445261538028717, -0.08688907325267792, -0.026387231424450874, -0.07990964502096176, -0.002735980087891221, 0.04369647800922394, -0.11043460667133331], [-0.29854127764701843, -0.23645667731761932, -0.3980541229248047, -0.33870330452919006, -0.32307785749435425, -0.31705811619758606, -0.3190399706363678, -0.3014288544654846, -0.26283255219459534, -0.23750810325145721, -0.27715346217155457, -0.2517569959163666, -0.07235874235630035, -0.07728108763694763, -0.09128128737211227, -0.0800994485616684, 0.024886496365070343, 0.036954063922166824, 0.045476749539375305, 0.03229110315442085, 0.1442236453294754, 0.15731395781040192, 0.13685114681720734, 0.1585395485162735, 0.12787476181983948, 0.08855953812599182, 0.12545093894004822, 0.1486135870218277, 0.12988179922103882, 0.1078278198838234, 0.10652163624763489, 0.158390611410141, 0.09577303379774094, 0.10229643434286118, 0.07446228712797165, 0.0987185537815094, -0.0899895504117012, -0.07690156251192093, -0.07904726266860962, -0.0558665506541729, 0.024151615798473358, 0.02017052099108696, 0.007894044741988182, 0.01055041141808033, 0.06402761489152908, 0.05618014186620712, 0.11726730316877365, 0.09692871570587158, -0.00017230777302756906, -0.022234229370951653, -0.00713514955714345, -0.03915441036224365, 0.012880278751254082, -0.0020803180523216724, -0.017880719155073166, -0.018074283376336098, -0.01628711260855198, -0.0168093703687191, -0.028981102630496025, -0.007885557599365711, 0.03225761651992798, -0.028770554810762405, -0.024331267923116684, -0.04602464661002159, -0.026483813300728798, -0.06305856257677078, -0.0027492125518620014, 0.04275056719779968, 0.012054475024342537, 0.030023183673620224, -0.03243432566523552, 0.044681962579488754, -0.0037595913745462894, -0.03758172690868378, 0.05646596848964691, -0.010502353310585022, 0.01981188915669918, 0.009160293266177177, 0.00829361192882061, -0.03922911733388901, 0.00697450852021575, -0.021111201494932175, 0.021916978061199188, -0.021343199536204338, -0.025228431448340416, 0.03276002034544945, 0.013836628757417202, -0.011645299382507801, 0.028129668906331062, 0.0312776044011116, -0.0023149503394961357, -0.02531302534043789, 0.033737555146217346, -0.03994489088654518, -0.007823766209185123, -0.032909002155065536, 0.0014644250040873885, 0.019186070188879967, -0.0060333143919706345, -0.041006676852703094, -0.006268735509365797, -0.017801722511649132, 0.013714106753468513, -0.023728400468826294, 0.27086859941482544], [0.05236157029867172, 0.004027277231216431, 0.12667331099510193, 0.07660377770662308, -0.049393683671951294, 0.06358226388692856, 0.05649162456393242, 0.0072031160816550255, 0.11450615525245667, -0.029005615040659904, 0.0034183859825134277, 0.09148398041725159, 0.05873248353600502, 0.09188415110111237, -0.0319785438477993, -0.007196017540991306, -0.01983913592994213, -0.12200659513473511, 0.05908410996198654, 0.06864625960588455, 0.08919858187437057, 0.014972764067351818, 0.08427703380584717, 0.027183497324585915, 0.10246866941452026, -0.044961925595998764, -0.03217831626534462, 0.039783138781785965, 0.11684703081846237, 0.08196678012609482, 0.06542632728815079, -0.039245765656232834, 0.08848819881677628, 0.07408776134252548, 0.059725914150476456, 0.13235196471214294, -0.028917422518134117, -0.027699552476406097, -0.06733669340610504, -0.05741676688194275, -0.05018152669072151, 0.016548335552215576, -0.0998479351401329, -0.010852410458028316, -0.06916419416666031, -0.07047565281391144, -0.02412230148911476, -0.09207414090633392, -0.03846471756696701, -0.02512236312031746, -0.05732091888785362, -0.03350554406642914, 0.04551661014556885, 0.05335443094372749, -0.03455708548426628, 0.004129288252443075, -0.05392516776919365, -0.06200523301959038, 0.03291076794266701, 0.07343680411577225, -0.016689002513885498, -0.02943091280758381, -0.025479301810264587, 0.01990896835923195, -0.12381383031606674, -0.1129767894744873, 0.004524747375398874, -0.003597603878006339, -0.08452288806438446, -0.0935753807425499, -0.029344569891691208, -0.09906642884016037, -0.06967280805110931, 0.039454150944948196, -0.029968438670039177, -0.004158844240009785, -0.01503516174852848, -0.07420600950717926, 0.04645591229200363, -0.04084533452987671, -0.0087174316868186, 0.02806704305112362, 0.014625056646764278, 0.0764918178319931, 0.03316911309957504, -0.003650861093774438, 0.008934617042541504, -0.00464304955676198, 0.06661660224199295, -0.03754391521215439, 0.022840317338705063, 0.01727607101202011, -0.029450321570038795, -0.006221493240445852, 0.03976365178823471, -0.030474981293082237, 0.04034782946109772, -0.04270615056157112, 0.035738516598939896, -0.06159532070159912, 0.06973928958177567, -0.11976411193609238, -0.07431524991989136, 0.03886298090219498, 0.1410636603832245], [-0.09187635779380798, -0.11710840463638306, 0.050177041441202164, 0.003392148995772004, 0.013010695576667786, -0.015627296641469002, -0.00810848455876112, -0.11176246404647827, 0.1397644579410553, 0.09515941143035889, 0.05171935260295868, 0.08474341034889221, -0.02800551988184452, -0.04573609307408333, -0.0024232754949480295, -0.030212439596652985, 0.08869566023349762, -0.006431142333894968, -0.004259318578988314, -0.008059807121753693, 0.042153500020504, 0.048368144780397415, 0.041136108338832855, 0.07175177335739136, -0.07746727764606476, -0.017003316432237625, -0.034872766584157944, 0.03406550735235214, -0.142146036028862, -0.128669872879982, -0.09718872606754303, -0.040692392736673355, 0.08765866607427597, 0.0959145799279213, 0.020689988508820534, 0.056458085775375366, -0.034992869943380356, 0.029628369957208633, 0.04862426593899727, -0.036805883049964905, -0.02645384892821312, 0.04733574390411377, -0.04498197138309479, 0.08608656376600266, 0.032061442732810974, 0.06652543693780899, 0.11540339142084122, 0.09938499331474304, -0.060123737901449203, -0.07527070492506027, -0.0349649079144001, -0.07362473011016846, 0.07175936549901962, -0.01911894604563713, -0.07541054487228394, -0.07665111869573593, 0.0005353090818971395, 0.03780193254351616, -0.013027888722717762, -0.05057797208428383, -0.028401536867022514, 0.05900101736187935, 0.07202702760696411, -0.04544800519943237, 0.02632494457066059, 0.0966767743229866, 0.01142294704914093, -0.003343768185004592, -0.007621471770107746, -0.04002652317285538, 0.06210260093212128, -0.055548932403326035, 0.07287608832120895, 0.08708656579256058, -0.0012059940490871668, 0.08587159961462021, 0.10312920808792114, -0.02831193618476391, -0.02072800323367119, 0.030014999210834503, -0.009112409316003323, 0.0799657329916954, 0.03131258860230446, 0.047007590532302856, -0.025973407551646233, -0.029129311442375183, 0.08337429910898209, 0.07490067929029465, -0.04273061081767082, -0.03968219831585884, -0.09071079641580582, -0.06736911833286285, -0.03934181481599808, 0.06922399252653122, -0.0314781591296196, 0.048944901674985886, 0.06635435670614243, 0.02859964780509472, -0.05138125270605087, 0.03574398532509804, 0.03791920468211174, 0.07114515453577042, -0.03447757288813591, 0.01880549266934395, 0.15960954129695892], [-0.08016275614500046, -0.016340849921107292, 0.09057395160198212, -0.07967309653759003, 0.09609051048755646, 0.06418102234601974, 0.06667423248291016, 0.12691135704517365, 0.13732530176639557, 0.15701140463352203, 0.06480497121810913, 0.12629880011081696, -0.098020538687706, 0.024397242814302444, 0.015048538334667683, -0.021144047379493713, 0.08504796773195267, 0.05296393111348152, 0.030426232144236565, 0.09440678358078003, 0.05903594568371773, -0.06396207213401794, 0.06451885402202606, 0.05879945307970047, 0.0789153128862381, 0.030509168282151222, 0.00036539207212626934, 0.10523311793804169, 0.024687981233000755, -0.14298716187477112, 0.03866871818900108, 0.015360867604613304, -0.013155649416148663, 0.0012237932533025742, -0.09614922106266022, -0.04446062073111534, -0.025051647797226906, -0.12757274508476257, 0.006621874403208494, -0.1340494155883789, 0.007680336479097605, 0.01842823438346386, 0.03767367824912071, 0.04500948637723923, -0.01670210435986519, -0.004301891662180424, -0.0889163613319397, -0.04450223967432976, -0.05704938620328903, 0.03610283508896828, 0.06363953649997711, 0.003683039452880621, 0.0073182955384254456, -0.06683216989040375, 0.026460587978363037, 0.05348873510956764, -0.14611192047595978, -0.03855694457888603, 0.10319279134273529, 0.004107192158699036, 0.06801720708608627, 0.04125316068530083, -0.00400723097845912, -0.07329678535461426, -0.06845050305128098, 0.04561130329966545, -0.019130539149045944, 0.056236155331134796, -0.0016241476405411959, -0.08685728907585144, 0.013484137132763863, -0.0546414814889431, 0.036563314497470856, 0.08713506162166595, -0.008568786084651947, -0.006078348495066166, 0.12060414999723434, -0.02287524938583374, 0.02034158632159233, 0.03598041459918022, 0.03434448689222336, 0.035459913313388824, -0.007528492249548435, 0.08211167901754379, 0.02471170201897621, 0.02852657437324524, 0.11579630523920059, -0.10968213528394699, -0.06177057698369026, 0.04874115809798241, 0.01184098981320858, 0.0931243821978569, 0.10185926407575607, 0.07313011586666107, 0.01218189112842083, 0.07211527228355408, -0.022054772824048996, -0.07870882004499435, 0.04110805690288544, 0.04548712074756622, 0.04871794953942299, 0.08343615382909775, -0.059484511613845825, 0.02331378124654293, 0.09932643920183182], [0.1268601268529892, 0.0020511543843895197, -0.08573136478662491, -0.04526134952902794, -0.04349746182560921, -0.13502627611160278, 0.04821907356381416, -0.07212808728218079, -0.03678665682673454, -0.12530063092708588, 0.05688895657658577, 0.004041543696075678, 0.043533626943826675, -0.15155261754989624, 0.1432594507932663, 0.08304894715547562, 0.02393682859838009, -0.0020089284516870975, -0.04170944541692734, 0.036612432450056076, 0.06290432065725327, 0.05608004704117775, -0.07344550639390945, 0.040618401020765305, 0.12697649002075195, 0.08736585080623627, 0.03753897547721863, 0.019084298983216286, 0.17362158000469208, 0.15156778693199158, -0.06654059141874313, 0.13003718852996826, -0.004918016493320465, 0.11596418172121048, -0.08737088739871979, 0.02965855598449707, -0.2047056406736374, -0.024949822574853897, 0.038169488310813904, 0.016725877299904823, 0.05854864418506622, 0.11073512583971024, -0.038753800094127655, 0.02689950168132782, -0.06935109943151474, -0.06451049447059631, -0.07315752655267715, 0.11686243861913681, 0.15891939401626587, 0.08419866859912872, 0.036001332104206085, 0.13146080076694489, 0.009125151671469212, -0.06615913659334183, 0.0514179952442646, -0.06201263517141342, -0.2341098040342331, 0.02626807428896427, 0.014402918517589569, -0.07348386198282242, -0.02550540119409561, 0.09467807412147522, 0.06253525614738464, -0.01351161953061819, -0.22748398780822754, 0.0009006760665215552, -0.01898312382400036, -0.02484774962067604, -0.13672110438346863, 0.009728677570819855, 0.04054204747080803, 0.08454304933547974, -0.16230472922325134, -0.17809276282787323, 0.0966799408197403, -0.11853504925966263, -0.04430116340517998, -0.1323709785938263, 0.02810443565249443, -0.21288743615150452, 0.007012274581938982, 0.08043433725833893, -0.0893700122833252, 0.13275790214538574, -0.05045848339796066, 0.010719296522438526, 0.08190788328647614, 0.04300711303949356, -0.035645514726638794, -0.05011306330561638, -0.13170596957206726, -0.029600759968161583, -0.021151103079319, -0.04376743733882904, 0.11001475155353546, -0.10219479352235794, 0.06749510765075684, -0.06303798407316208, -0.06852184236049652, 0.05880185216665268, -0.037938013672828674, 0.07443226873874664, 0.1292591542005539, 0.17725948989391327, -0.15443739295005798], [0.0895552933216095, -0.02362142875790596, 0.11699357628822327, 0.14366431534290314, -0.07257054001092911, -0.07273587584495544, -0.1153578981757164, -0.09424309432506561, 0.08723243325948715, -0.030912289395928383, 0.10159201920032501, 0.029598960652947426, -0.030402377247810364, -0.03420809656381607, 0.05696193873882294, 0.0734901875257492, 0.01078048162162304, -0.07580331712961197, 0.03200724720954895, 0.006189550738781691, 0.08446139097213745, 0.08488056063652039, 0.12842141091823578, -0.06401374191045761, 0.023504801094532013, 0.053181201219558716, 0.055312514305114746, -0.037305913865566254, 0.06921633332967758, 0.02860514633357525, 0.06528537720441818, -0.1029142364859581, 0.029818609356880188, -0.02627452090382576, 0.0010741606820374727, -0.007052809465676546, -0.08518262952566147, 0.05811998248100281, -0.008694920688867569, 0.09997069835662842, 0.003992911893874407, -0.0032538927625864744, -0.02788676880300045, -0.020065689459443092, -0.00976388156414032, -0.13556858897209167, -0.06379394978284836, 0.04695672541856766, 0.010188410989940166, -0.04511324316263199, 0.11536289751529694, 0.09643153846263885, -0.04351109638810158, -0.021178187802433968, 0.06703583896160126, 0.09427066147327423, -0.06813649088144302, 0.04834581911563873, 0.02637086622416973, -0.06445442140102386, 0.10559368133544922, -0.06093820929527283, 0.06408188492059708, 0.0025470785330981016, 0.0303568784147501, -0.03377880901098251, -0.07187215983867645, -0.03901759907603264, 0.11377723515033722, 0.06339190155267715, 0.1037774458527565, -0.05639598146080971, 0.028223572298884392, 0.07669113576412201, -0.05311470106244087, 0.0575300008058548, -0.013502291403710842, -0.09431075304746628, 0.007267596200108528, 0.018407350406050682, -0.05071825906634331, -0.01835411973297596, 0.11075159162282944, -0.010519472882151604, 0.0011164904572069645, -0.022241488099098206, 0.05008557438850403, -0.13909806311130524, -0.01982531137764454, -0.035527635365724564, -0.042278289794921875, 0.017310243099927902, -0.019320134073495865, -0.0647713914513588, 0.03991343080997467, -0.05713992565870285, -0.06563927233219147, -0.017981400713324547, -0.012355615384876728, 0.048351168632507324, -0.04799402505159378, 0.03083106316626072, 0.06966397166252136, -0.07278354465961456, -0.13705961406230927], [0.016794780269265175, 0.11410660296678543, 0.007264968939125538, 0.14658524096012115, 0.08980739861726761, 0.018213288858532906, 0.0656338706612587, -0.05851942300796509, 0.1225166767835617, 0.08739784359931946, 0.05534311756491661, -0.17064312100410461, 0.08447617292404175, 0.06355588883161545, 0.02172251231968403, 0.01243462972342968, -0.028722601011395454, -0.01692005805671215, 0.06862057745456696, 0.06366867572069168, -0.08666475117206573, -0.08780442178249359, 0.0715503916144371, 0.07788480818271637, -0.03243277966976166, -0.0985962301492691, 0.14044179022312164, 0.0778936818242073, -0.08566241711378098, -0.0088329017162323, 0.049771104007959366, 0.022428525611758232, -0.07579629123210907, -0.05610130727291107, 0.014746539294719696, -0.013866100460290909, -0.12430819869041443, -0.004960655700415373, 0.04920632392168045, -0.20292535424232483, 0.03043137490749359, 0.04946742206811905, 0.00984941702336073, -0.11680600047111511, 0.002380817197263241, -0.10162125527858734, -0.01940716989338398, -0.04071877524256706, 0.08837132155895233, -0.046073514968156815, -0.02251793071627617, 0.0957602709531784, -0.006021391600370407, 0.0972580537199974, 0.12564201653003693, -0.05561857670545578, -0.015139313414692879, 0.0948387160897255, -0.08082157373428345, -0.13286207616329193, -0.04245971515774727, 0.09423776715993881, 0.057079724967479706, 0.1007501631975174, 0.05640444904565811, -0.011059455573558807, -0.07720676809549332, -0.052192870527505875, -0.005910652223974466, 0.10001172125339508, -0.10635717958211899, 0.04227248206734657, 0.06770990788936615, -0.017555825412273407, -0.052937742322683334, 0.10477955639362335, 0.005804185755550861, -0.12462840974330902, -0.1053333729505539, 0.05905163660645485, 0.041277773678302765, 0.04020191356539726, 0.012929204851388931, -0.02199421636760235, 0.07921096682548523, -0.009316192008554935, -0.08366105705499649, -0.04365808144211769, 0.06865446269512177, -0.03167843446135521, 0.032720375806093216, -0.0034537166357040405, 0.10730243474245071, 0.07747332006692886, 0.07777658104896545, 0.0731324851512909, 0.0635799840092659, 0.01569276675581932, 0.0040999045595526695, 0.044534578919410706, -0.06762267649173737, 0.07184232771396637, -0.1547785997390747, -0.06807424128055573, -0.07485868781805038], [0.039371851831674576, 0.08843535929918289, 0.061837006360292435, 0.03353073447942734, -0.11793506145477295, -0.19748330116271973, -0.1681499034166336, -0.12247692048549652, -0.21434105932712555, -0.07958377152681351, 0.06662098318338394, 0.03174533694982529, -0.007618284784257412, -0.204629048705101, 0.05553469806909561, 0.03197194263339043, 0.07720880955457687, 0.14216195046901703, -0.11082956939935684, 0.04209200292825699, 0.0024088439531624317, -0.09170785546302795, 0.05683278292417526, -0.12204595655202866, -0.03784026950597763, 0.017486125230789185, 0.09542050212621689, 0.03947935253381729, 0.03711489960551262, 0.10051929950714111, 0.16586855053901672, 0.05684331804513931, -0.0846540704369545, -0.11016954481601715, 0.08604610711336136, 0.12889254093170166, 0.12980657815933228, 0.1421542763710022, 0.06339304149150848, 0.060243964195251465, 0.08825584501028061, -0.03290608897805214, -0.06795676052570343, 0.03459163010120392, -0.08517735451459885, 0.017861848697066307, 0.054990578442811966, -0.038199879229068756, 0.10707304626703262, -0.06656230986118317, 0.019321328029036522, 0.12576088309288025, 0.018901603296399117, 0.04484856128692627, 0.11522256582975388, -0.010582054033875465, 0.07177860289812088, 0.004363201558589935, 0.1195489838719368, -0.0512332059442997, -0.029322896152734756, 0.1117272600531578, 0.058275189250707626, 0.04264107719063759, 0.02504866197705269, -0.029203778132796288, -0.003458905266597867, -0.10866928845643997, -0.18016690015792847, -0.03963260352611542, -0.032247938215732574, 0.22203510999679565, 0.07442959398031235, 0.059867046773433685, 0.055720653384923935, -0.022865168750286102, -0.1874154955148697, -0.05949706584215164, -0.03294612839818001, -0.10997092723846436, -0.02062930166721344, 0.01845696195960045, -0.08024919033050537, -0.029013879597187042, 0.1209033653140068, 0.12125582247972488, -0.07361821085214615, 0.04331136494874954, 0.05202217772603035, -0.09451185911893845, -0.045051299035549164, 0.05597476661205292, 0.05925174430012703, 0.08253911882638931, -0.1786729395389557, 0.07476552575826645, 0.05966358259320259, -0.044144757091999054, 0.008781945332884789, 0.01618010178208351, 0.09555977582931519, 0.11181805282831192, -0.012607085518538952, -0.027801044285297394, 0.1328422874212265], [-0.0512821264564991, 0.016272004693746567, -0.06033770367503166, -0.11997244507074356, -0.05046607553958893, -0.10134844481945038, 0.09478962421417236, 0.14123018085956573, -0.010981384664773941, -0.07668942213058472, -0.0994420126080513, -0.03532157465815544, 0.11646773666143417, 0.07047291845083237, -0.004158710595220327, 0.07881508767604828, -0.05523812770843506, -0.013909504748880863, -0.059130728244781494, -0.05335313454270363, 0.023479266092181206, -0.02935459092259407, 0.01372660230845213, 0.0019090863643214107, 0.05118945986032486, 0.00869697518646717, 0.11479230225086212, 0.07812541723251343, 0.10735088586807251, 0.14368808269500732, 0.17391632497310638, 0.13532784581184387, 0.06246408447623253, 0.0713733360171318, 0.0039533581584692, 0.07020879536867142, 0.0798327699303627, 0.08113536983728409, 0.00714600645005703, -0.17241689562797546, 0.022402174770832062, 0.11552056670188904, 0.06278839707374573, -0.09331835806369781, 0.05245077610015869, -0.04317396879196167, -0.10269051045179367, -0.04578090086579323, 0.019012028351426125, 0.005264082923531532, -0.11836864054203033, 0.07880605012178421, 0.07257457822561264, 0.11038371175527573, 0.11798045039176941, 0.0327596440911293, -0.05638212338089943, 0.05489889904856682, 0.021669624373316765, 0.006385643035173416, -0.07241350412368774, 0.024019259959459305, 0.0637507289648056, -0.00641162833198905, 0.062030255794525146, -0.07443706691265106, -0.02235281653702259, 0.0797024518251419, 0.09849211573600769, 0.06882739812135696, 0.10439035296440125, 0.030428919941186905, 0.011676493100821972, 0.04334866628050804, -0.010175216943025589, -0.020719660446047783, 0.042967457324266434, 0.09572356194257736, 0.08316510915756226, 0.03886881843209267, -0.06488986313343048, -0.010398048907518387, 0.12532970309257507, -0.044833954423666, 0.01529647596180439, 0.1028805524110794, 0.005519730970263481, -0.06415288895368576, 0.06965884566307068, -0.023084118962287903, -0.0049596824683249, 0.025879425927996635, -0.09534941613674164, -0.02478332817554474, -0.03351390361785889, 0.05917833000421524, -0.0045295716263353825, -0.017547983676195145, -0.09810636937618256, 0.06467797607183456, -0.024585092440247536, -0.008894558064639568, -0.1057625263929367, 0.08614853769540787, -0.1454090029001236], [0.07616638392210007, 0.14067184925079346, 0.1473444104194641, 0.09020677953958511, -0.18402613699436188, -0.11636830121278763, -0.0850483700633049, -0.01774713397026062, -0.0011299385223537683, -0.012252869084477425, 0.017893198877573013, 0.004242327995598316, -0.06532356888055801, -0.04169797897338867, -0.06491293013095856, -0.07525347918272018, 0.043325360864400864, 0.010192899033427238, 0.01669883355498314, 0.09868358075618744, 0.1307109296321869, 0.049640726298093796, 0.094449982047081, 0.08393846452236176, 0.1408805251121521, 0.19452181458473206, 0.12375342845916748, 0.09158487617969513, 0.08189468830823898, 0.05074324831366539, 0.02871847152709961, -0.03858242556452751, 0.06779050827026367, 0.1230914294719696, 0.022932184860110283, 0.09479562193155289, -0.0011184257455170155, 0.06208490952849388, -0.028294213116168976, 0.01436670683324337, -0.10585099458694458, 0.03636100888252258, -0.01575450412929058, 0.009209634736180305, 0.12847913801670074, -0.06752176582813263, 0.0391063466668129, 0.06106730177998543, -0.11394521594047546, 0.013439747504889965, -0.042986590415239334, -0.034468941390514374, 0.016237685456871986, -0.007503941655158997, -0.023268528282642365, 0.010991750285029411, 0.009421714581549168, 0.10510160028934479, 0.03593679890036583, -0.046963684260845184, 0.0002411284949630499, 0.010456133633852005, 0.023783836513757706, -0.05633367598056793, -0.04011813923716545, 0.004363234154880047, 0.026509085670113564, -0.135017991065979, -0.02055365778505802, 0.07926671206951141, 0.09306170046329498, -0.04963063448667526, 0.07974224537611008, 0.05068826302886009, 0.01851675845682621, -0.006168179214000702, -0.029849758371710777, 0.007559259422123432, -0.016099577769637108, -0.011370077729225159, -0.014818457886576653, 0.015934331342577934, 0.03881304711103439, -0.031253181397914886, 0.06649099290370941, 0.029214154928922653, 0.06624793261289597, 0.11006858944892883, -0.011250665411353111, -0.01511235162615776, 0.04354771599173546, -0.0019657453522086143, 0.08645050972700119, 0.009914767928421497, 0.06800917536020279, 0.06691719591617584, 0.0417986698448658, -0.024023734033107758, 0.04678405821323395, 0.16815121471881866, -0.07876260578632355, 0.01952511817216873, 0.07055877149105072, -0.024436000734567642, -0.16885259747505188], [0.05749133974313736, 0.040729373693466187, 0.004729996435344219, -0.1310807317495346, 0.11599057912826538, 0.11171908676624298, 0.10174623131752014, 0.11826001107692719, 0.11258374899625778, 0.11293144524097443, 0.02535535953938961, 0.07539257407188416, 0.041116662323474884, 0.019120443612337112, 0.0920526385307312, -0.0017968893516808748, 0.020877864211797714, 0.003631986677646637, -0.025673096999526024, 0.055932093411684036, -0.06117868050932884, -0.07587644457817078, -0.05135849490761757, -0.09324782341718674, -0.05321251228451729, -0.10420235246419907, -0.09470764547586441, -0.018571291118860245, -0.04770057275891304, -0.04049193114042282, -0.06668129563331604, -0.003208296140655875, -0.01829710602760315, -0.06282094866037369, 0.04567903280258179, -0.06743453443050385, -0.004373487085103989, -0.05915246531367302, 0.03323070704936981, -0.06276705116033554, 0.007585128303617239, 0.07007011771202087, -0.002966084750369191, 0.02487681247293949, -0.002447713864967227, -0.04933526739478111, 0.017695285379886627, 0.053466737270355225, 0.0487576387822628, 0.03094591572880745, 0.05343623086810112, -0.002618801547214389, 0.015096633695065975, 0.008200841024518013, -0.025555454194545746, -0.010280615650117397, -0.019270015880465508, 0.027448559179902077, 0.012371601536870003, 0.004732147790491581, 0.05518119037151337, 0.07233814150094986, 0.08907853811979294, -0.05542851239442825, 0.043802134692668915, 0.03546195104718208, 0.057965900748968124, 0.061805710196495056, 0.03710024431347847, 0.054375696927309036, 0.13817572593688965, -0.04122898355126381, -0.08211469650268555, -0.07024730741977692, -0.03208509460091591, 0.03617433086037636, 0.0967371016740799, -0.1550513505935669, -0.016476530581712723, 0.032881155610084534, -0.0573405995965004, -0.06273946166038513, -0.07417018711566925, -0.005390829872339964, -0.04491322860121727, -0.004125422798097134, -0.04712330549955368, -0.0609993115067482, 0.019512660801410675, -0.047608837485313416, -0.02910897508263588, -0.05104579031467438, 0.0025675867218524218, -0.010750765912234783, 0.026390422135591507, -0.13990549743175507, -0.07446806877851486, 0.03526224568486214, -0.06463482230901718, -0.00993114709854126, -0.03304114192724228, -0.024358218535780907, -0.008514732122421265, -0.10009123384952545, 0.16473720967769623], [-0.043924931436777115, 0.03204810246825218, 0.07102230191230774, -0.00800309143960476, 0.009459163062274456, 0.10998716205358505, 0.021669261157512665, -0.032977327704429626, 0.04915317893028259, 0.0026040449738502502, 0.02899337373673916, -0.09221456944942474, -0.008042882196605206, 0.07573818415403366, 0.05404810607433319, -0.0656118392944336, -0.07628634572029114, -0.033773064613342285, 0.054457422345876694, 0.020215952768921852, -0.056221164762973785, 0.040975961834192276, -0.01810150034725666, -0.04910210520029068, -0.01765827275812626, -0.010475987568497658, 0.1352982223033905, 0.11316385120153427, 0.11435183137655258, -0.02240152657032013, -0.04030698910355568, 0.07345720380544662, -0.06764546036720276, 0.020331857725977898, -0.030750920996069908, 0.05520717427134514, 0.14942309260368347, -0.04493347555398941, 0.12378623336553574, 0.12100151926279068, -0.07977041602134705, 0.10472074896097183, 0.005100972019135952, -0.00023723550839349627, -0.05921180546283722, -0.06227312609553337, 0.10160944610834122, -0.014222171157598495, -0.06669573485851288, 0.00790578406304121, 0.11047186702489853, 0.13867133855819702, 0.035405684262514114, 0.04642781615257263, 0.020732128992676735, -0.023387368768453598, 0.04938778281211853, -0.04878795146942139, -0.09138792753219604, 0.017616037279367447, 0.08192546665668488, 0.06295958161354065, -0.09074732661247253, 0.0640912801027298, -0.0611465759575367, -0.040987007319927216, 0.08235970884561539, -0.007260323967784643, -0.02859269455075264, 0.028743386268615723, -0.12889321148395538, -0.029881803318858147, 0.14095887541770935, 0.05325814336538315, -0.05910050868988037, 0.04001183807849884, 0.010854706168174744, -0.004881014581769705, -0.06174181029200554, -0.0022213601041585207, 0.10801400244235992, 0.09597276896238327, 0.083232581615448, -0.06416775286197662, -0.011603755876421928, 0.0980689600110054, -0.07988671213388443, 0.061576828360557556, 0.0682205781340599, -0.03031465783715248, 0.029652096331119537, 0.01809203252196312, -0.02405264973640442, 0.03733707591891289, 0.06022811308503151, 0.09030428528785706, -0.017887460067868233, -0.015420755371451378, -0.02216741070151329, -0.00042651459807530046, 0.06427456438541412, -0.058539487421512604, 0.04219796881079674, -0.020430441945791245, -0.1694614738225937], [0.07537483423948288, -0.07790546119213104, -0.01659376174211502, -0.09210509806871414, -0.05060860887169838, 0.0063462331891059875, -0.08759089559316635, 0.05890339985489845, -0.02878786437213421, 0.11229642480611801, 0.06536758691072464, 0.0776575431227684, -0.03671290725469589, -0.055337533354759216, -0.13647890090942383, 0.07868421822786331, -0.07723426073789597, -0.009772381745278835, -0.03846683353185654, 0.046760331839323044, -0.0758974626660347, 0.15290646255016327, -0.006825657095760107, 0.08084626495838165, -0.0909009724855423, -0.010732816532254219, 0.030864493921399117, 0.01446731947362423, 0.02191326767206192, -0.0793643519282341, 0.06943979114294052, 0.03916822373867035, 0.15036234259605408, 0.10074067860841751, 0.0761440098285675, 0.03815019130706787, -0.04337846487760544, -0.022670384496450424, -0.08718711137771606, 0.008512339554727077, 0.04648193344473839, -0.18220806121826172, 0.009633203037083149, 0.04307105392217636, -0.08527939766645432, -0.023374544456601143, 0.06357991695404053, 0.09785483032464981, 0.08518874645233154, 0.05601747706532478, -0.0015329010784626007, 0.04372918978333473, -0.00043545992230065167, -0.07988248020410538, 0.04433000832796097, 0.018036432564258575, -0.09210141748189926, 0.06159939616918564, 0.08817041665315628, 0.02866872400045395, -0.15288960933685303, 0.042268749326467514, 0.057706281542778015, 0.02234029397368431, -0.10032729059457779, 0.061193183064460754, -0.002001043176278472, -0.011146070435643196, 0.001425025868229568, 0.05168545991182327, 0.09910789877176285, 0.02565259486436844, -0.052845943719148636, 0.024261176586151123, 0.048891812562942505, -0.011283413507044315, -0.014233862981200218, -0.06071467697620392, -0.07944425195455551, 0.024844076484441757, 0.009453652426600456, -0.006365414243191481, 0.07718708366155624, -0.01212327554821968, 0.06599234789609909, 0.06386913359165192, 0.025432853028178215, 0.07544103264808655, 0.020000401884317398, -0.011783239431679249, 0.037553273141384125, 0.0022481868509203196, 0.020016955211758614, 0.08355576545000076, -0.08160505443811417, 0.006507550831884146, 0.030265429988503456, -0.025751639157533646, 0.054720211774110794, -0.07939159125089645, -0.11782915145158768, 0.030169300734996796, -0.01728690043091774, 0.05984371528029442, 0.08481296896934509], [0.04195724055171013, 0.10080364346504211, -0.08306179940700531, 0.06523357331752777, 0.0435335710644722, -0.07950939238071442, -0.004913048818707466, -0.03414221853017807, 0.02166023664176464, 0.040084414184093475, -0.039229847490787506, 0.13436494767665863, 0.06516380608081818, -0.039149221032857895, -0.05212769657373428, -0.00010261425632052124, -0.004150151275098324, 0.08639980107545853, 0.026806797832250595, 0.044724125415086746, 0.06204746663570404, -0.04026538506150246, -0.045734718441963196, -0.07291535288095474, 0.013161569833755493, 0.08237522095441818, 0.048347629606723785, 0.09862994402647018, 0.02348930574953556, 0.054826319217681885, 0.031116483733057976, 0.05718894302845001, 0.018506484106183052, 0.12053372710943222, 0.07296665757894516, 0.11349743604660034, 0.008951084688305855, -0.004281721543520689, 0.04672770947217941, -0.025908375158905983, -0.06419513374567032, -0.07514552026987076, -0.010091894306242466, -0.13843004405498505, -0.019660616293549538, -0.0557129941880703, 0.017281631007790565, 0.029262639582157135, 0.035758618265390396, 0.05212030187249184, -0.008802355267107487, -0.005087140016257763, 0.07404418289661407, -0.05288635194301605, -0.11084847152233124, 0.04331592097878456, 0.015455163083970547, 0.029224494472146034, 0.08507821708917618, 0.04159235209226608, -0.08756327629089355, -0.025943201035261154, 0.103995680809021, 0.0025538497138768435, 0.010307861492037773, 0.05151838809251785, 0.008615270256996155, -0.07945428788661957, 0.0318022258579731, 0.0756748616695404, 0.08406243473291397, 0.07793044298887253, -0.00672703143209219, -0.010109731927514076, 0.06646142899990082, -0.00967324711382389, 0.011003732681274414, -0.08147219568490982, 0.010198810137808323, 0.08704165369272232, 0.03615548461675644, -0.01419209036976099, -0.024947194382548332, 0.05924461781978607, -0.027882758527994156, -0.039253171533346176, 0.0638742670416832, 0.0605057030916214, -0.05087822675704956, -0.0162833072245121, 0.07554640620946884, 0.01227863971143961, -0.006704797502607107, 0.052823860198259354, -0.01493416354060173, 0.032301049679517746, -0.02551448531448841, -0.02895982377231121, -0.12524616718292236, -0.019849902018904686, -0.15099787712097168, 0.09619249403476715, -0.04554203152656555, -0.047114599496126175, 0.12562943994998932], [-0.19840654730796814, -0.09577694535255432, 0.08582976460456848, -0.1628427952528, -0.0662989541888237, -0.02904748171567917, -0.17521409690380096, -0.1466631442308426, -0.0020045831333845854, 0.0391203798353672, -0.08273312449455261, -0.10662258416414261, 0.07058247923851013, 0.07305290549993515, 0.021245792508125305, 0.03465661779046059, 0.10823367536067963, 0.11090191453695297, 0.15885265171527863, 0.21300356090068817, 0.11426155269145966, 0.07881087064743042, 0.11420917510986328, 0.05691724643111229, -0.02924874797463417, 0.0465981625020504, 0.09718230366706848, 0.029221611097455025, 0.010926630347967148, -0.09523620456457138, 0.1828487664461136, -0.014018329791724682, -0.14572560787200928, -0.09084408730268478, -0.060841597616672516, 0.09445765614509583, -0.013683613389730453, -0.12244810163974762, -0.05419483408331871, -0.09053188562393188, -0.10000061243772507, -0.08634059876203537, -0.07427496463060379, -0.10431086272001266, -0.09814662486314774, -0.09838716685771942, -0.050299517810344696, -0.07589559257030487, -0.14318783581256866, 0.027486439794301987, -0.13376913964748383, -0.0001178662059828639, 0.0011290133697912097, -0.052126094698905945, 0.11360971629619598, 0.07169601321220398, 0.0070988209918141365, -0.014247999526560307, -0.10218045115470886, 0.05430520698428154, 0.003193026641383767, -0.044748082756996155, -0.06223083660006523, 0.1089581623673439, 0.005707056727260351, -0.12217137962579727, -0.07907575368881226, -0.12189014256000519, -0.06830322742462158, -0.1191013976931572, -0.19483904540538788, 0.03268878906965256, -0.00784682109951973, -0.05652259290218353, 0.027776410803198814, -0.12041104584932327, -0.02075853757560253, 0.04755866155028343, 0.04275525361299515, 0.07101346552371979, -0.035616397857666016, -0.001980750821530819, 0.1272607296705246, -0.007774631958454847, -0.02324104681611061, -0.004906885791569948, 0.022830871865153313, -0.012997631914913654, 0.036071594804525375, 0.08863286674022675, -0.02491362951695919, -0.05800635740160942, 0.06154397130012512, 0.05467348173260689, 0.1129717156291008, 0.010667439550161362, -0.13197502493858337, 0.08379872143268585, -0.08173522353172302, -0.05697961524128914, 0.048619624227285385, -0.010016607120633125, -0.009392078965902328, 0.029569439589977264, -0.14357657730579376], [0.026089953258633614, 0.024158233776688576, -0.06683546304702759, -0.05056421086192131, 0.13745085895061493, -0.046666063368320465, 0.035856444388628006, 0.01215223129838705, -0.14473885297775269, 0.11332517862319946, 0.1216343492269516, -0.06541460007429123, -0.07249028235673904, 0.08250410109758377, 0.07691308110952377, -0.012031104415655136, -0.16066913306713104, 0.02876822091639042, 0.025528578087687492, -0.10317898541688919, -0.06312248855829239, -0.08600351214408875, 0.00801981519907713, -0.053484030067920685, 0.024342793971300125, -0.09002858400344849, -0.06467395275831223, 0.06834816932678223, -0.22219893336296082, -0.014068834483623505, -0.04292536526918411, -0.03068038448691368, 0.07964007556438446, -0.06274838745594025, 0.11013270914554596, 0.0387255884706974, -0.10523973405361176, -0.08283478766679764, -0.16910165548324585, -0.0541037991642952, -0.007640282157808542, -0.09927757829427719, 0.09812052547931671, -0.08655679225921631, 0.0062995972111821175, 0.050171803683042526, -0.04240995645523071, 0.09425805509090424, -0.15585877001285553, 0.016702301800251007, -0.01002256665378809, 0.02624971605837345, -0.03192102909088135, 0.05249607190489769, -0.0899495854973793, -0.0032109341118484735, -0.1305270493030548, -0.03118090145289898, 0.0805913656949997, -0.1418069452047348, -0.07464740425348282, -0.0860939547419548, -0.009358517825603485, -0.023270172998309135, -0.10716061294078827, 0.14606963098049164, 0.10685814917087555, -0.04343116655945778, -0.03669409453868866, 0.023325929418206215, 0.04481532424688339, 0.12237377464771271, -0.04911358654499054, -0.06659050285816193, -0.2409280240535736, 0.06885240226984024, 0.12286075949668884, 0.0483468621969223, 0.07639492303133011, -0.02613002620637417, 0.08424259722232819, -0.20250682532787323, -0.10576888918876648, -0.055327918380498886, 0.016471941024065018, 0.15353494882583618, 0.01928316429257393, 0.08052060753107071, -0.012308032251894474, -0.011719710193574429, -0.036450084298849106, -0.16755929589271545, 0.06914334744215012, 0.1174175962805748, -0.07232651859521866, -0.11919330805540085, 0.05204958841204643, -0.11502039432525635, 0.14233264327049255, 0.1268925815820694, -0.11365075409412384, -0.013188795186579227, 0.07903878390789032, 0.13457031548023224, 0.02345195971429348], [-0.08611518144607544, 0.03935646265745163, -0.12052043527364731, -0.053736649453639984, 0.008591534569859505, -0.011950788088142872, -0.005687381606549025, -0.06034542992711067, 0.0526878759264946, -0.005217540543526411, 0.10019664466381073, 0.02124992571771145, 0.07663024216890335, 0.010515470989048481, -0.028809640556573868, -0.0023835981264710426, 0.003714555175974965, 0.05574697256088257, 0.05360884591937065, 0.07841474562883377, 0.10745358467102051, 0.042589351534843445, 0.04159507900476456, 0.053392793983221054, 0.06159444898366928, 0.08002641797065735, 0.06996696442365646, 0.1079888716340065, -0.07691582292318344, 0.06209985539317131, 0.024741487577557564, 0.009184547699987888, 0.053653012961149216, 0.11073027551174164, 0.10909190028905869, 0.012975720688700676, 0.067071832716465, 0.07048379629850388, 0.005509868264198303, 0.03756037354469299, 0.08007227629423141, 0.01893008127808571, -0.04407213628292084, -0.009265049360692501, 0.041982460767030716, 0.03767741844058037, 0.008463630452752113, 0.07745557278394699, 0.0626622885465622, -0.06963633745908737, 0.04105456918478012, -0.002556650200858712, 0.059289734810590744, 0.023717988282442093, 0.07849928736686707, -0.03808586299419403, -0.003468157025054097, -0.030329806730151176, 0.09343662112951279, -0.027175895869731903, 0.02497638761997223, -0.052162691950798035, 0.047842033207416534, 0.03955449163913727, 0.004217979963868856, 0.10508022457361221, -0.01303684152662754, -0.05143488198518753, 0.024465959519147873, 0.0611482597887516, -0.019810544326901436, 0.08569687604904175, -0.06833896785974503, 0.06820032745599747, 0.07420908659696579, 0.03674174100160599, 0.03891703113913536, 0.05497444421052933, -0.04629133269190788, -0.06470318883657455, 0.01129831187427044, 0.02734093740582466, 0.0744343027472496, 0.08244884014129639, 0.07953159511089325, -0.031113602221012115, -0.04162386432290077, -0.07626810669898987, 0.03975479677319527, -0.0715007558465004, -0.013384944759309292, -0.0022559710778295994, -0.05386393144726753, -0.013251828029751778, -0.06538932770490646, -0.055083826184272766, 0.09184981137514114, -0.014617202803492546, 0.06762709468603134, 0.00701204314827919, 0.005781094077974558, 0.014976277016103268, -0.06003957986831665, -0.06235598772764206, 0.11837103962898254], [0.07782070338726044, -0.010866583324968815, 0.11527622491121292, 0.023412056267261505, -0.20362330973148346, -0.2378242313861847, -0.2250642627477646, -0.21488238871097565, 0.05055452883243561, -0.020716791972517967, 0.02182730659842491, -0.21365125477313995, -0.06838466227054596, -0.11931588500738144, -0.003278514603152871, -0.13213060796260834, 0.06375928968191147, 0.05039599910378456, 0.058266595005989075, 0.05767758563160896, 0.002815349493175745, -0.046223707497119904, -0.022382959723472595, 0.03831803426146507, 0.006435553543269634, 0.09898904711008072, -0.05215270817279816, 0.07560175657272339, -0.02246466651558876, 0.0841815397143364, 0.08632436394691467, 0.03269429877400398, 0.022169116884469986, -0.004894974175840616, 0.07431197166442871, -0.05042146518826485, 0.09487862139940262, 0.12154418975114822, -0.0062149264849722385, 0.028479330241680145, -0.11223094910383224, -0.0382886566221714, -0.13716799020767212, -0.01793510466814041, 0.10792402923107147, 0.08183269202709198, 0.06749626994132996, 0.0897185429930687, -0.06744471192359924, 0.05154339596629143, -0.07581780105829239, 0.08561830222606659, 0.023908618837594986, -0.0007858191966079175, 0.04210883006453514, -0.06300803273916245, -0.07656268775463104, 0.027553418651223183, -0.0010563082760199904, -0.004788096994161606, 0.03808014839887619, 0.04695401340723038, -0.039008889347314835, -0.10406657308340073, -0.025117354467511177, 0.10587186366319656, -0.0144111979752779, 0.027425654232501984, 0.06729740649461746, -0.045158907771110535, -0.02706289105117321, -0.055616747587919235, -0.03183038905262947, 0.048421166837215424, 0.07179753482341766, 0.029932381585240364, 0.04215932637453079, -0.03471243381500244, 0.07970750331878662, 0.003541637910529971, -0.0172891803085804, 0.05530235171318054, -0.10303079336881638, 0.025998376309871674, 0.0019294298253953457, -0.013168301433324814, -0.08708573877811432, -0.030775094404816628, 0.017096802592277527, -0.019164882600307465, 0.028859205543994904, 0.04207878187298775, -0.03670360893011093, -0.012045354582369328, 0.04564401134848595, -0.0844135656952858, 0.020053153857588768, 0.036201175302267075, 0.015411279164254665, -0.057335857301950455, -0.055403850972652435, -0.006070928648114204, 0.06972985714673996, 0.013597117736935616, 0.18946820497512817], [0.0548565648496151, 0.06257838010787964, 0.048960570245981216, 0.03972157463431358, 0.04143204540014267, 0.06755844503641129, -0.1573968529701233, -0.18560968339443207, 0.046059414744377136, -0.049912240356206894, 0.04798148572444916, -0.07019917666912079, 0.12690719962120056, 0.0681285634636879, -0.053024645894765854, -0.024806218221783638, -0.010922589339315891, -0.060115378350019455, 0.040699444711208344, 0.04818831384181976, 0.06717469543218613, 0.10352962464094162, 0.006285528186708689, 0.07789965718984604, 0.12373277544975281, 0.06514821201562881, 0.07488778233528137, -0.10380717366933823, -0.0639955997467041, 0.10174865275621414, -0.13945405185222626, 0.08529625833034515, -0.1497100591659546, 0.02465958520770073, -0.111423060297966, 0.01852504163980484, -0.09826121479272842, -0.09356951713562012, -0.009854367934167385, -0.052535995841026306, -0.0948239117860794, -0.025448335334658623, -0.10121560096740723, 0.03136647120118141, -0.07097591459751129, 0.016622815281152725, -0.03826507180929184, 0.056347645819187164, -0.0009696217603050172, 0.03067668341100216, 0.09140899032354355, -0.0790485292673111, 0.13622581958770752, 0.05819515138864517, -0.027918877080082893, 0.05236724391579628, 0.022048134356737137, -0.03960420936346054, 0.0721440389752388, 0.054218705743551254, 0.06388834118843079, 0.0767684057354927, -0.04757239669561386, 0.03079577535390854, 0.0675644651055336, 0.09078086167573929, -0.13243089616298676, 0.04756370186805725, 0.07758653163909912, 0.02141828089952469, -0.1343570500612259, 0.022344920784235, -0.009851230308413506, 0.028687000274658203, -0.029017554596066475, 0.08999575674533844, -0.06588717550039291, 0.0953575000166893, -0.06568261235952377, 0.12097525596618652, 0.10766053199768066, -0.013947195373475552, 0.1443152129650116, -0.08352925628423691, 0.015100034885108471, 0.08380173146724701, 0.05483291670680046, 0.041277509182691574, -0.03483886644244194, 0.024759341031312943, -0.11057166010141373, -0.07847410440444946, 0.08202943205833435, 0.059460125863552094, -0.030545657500624657, 0.07751632481813431, -0.08332265913486481, 0.13425220549106598, -0.028798123821616173, -0.08203724771738052, -0.06512782722711563, 0.09870144724845886, -0.029721101745963097, 0.11041122674942017, 0.0497494637966156], [-0.02042604424059391, 0.03228277713060379, -0.013387162238359451, 0.027199003845453262, 0.049786414951086044, -0.0021590697579085827, 0.11807174980640411, 0.09433907270431519, -0.005152473226189613, -0.04533618316054344, -0.020187264308333397, 0.018418820574879646, 0.09295079857110977, -0.049717165529727936, 0.08693253993988037, 0.06787892431020737, -0.036729596555233, -0.11063984781503677, -0.02701023407280445, -0.0872151106595993, 0.0689292699098587, -0.020186008885502815, 0.005577683914452791, -0.09665793925523758, 0.08718137443065643, 0.09534736722707748, 0.09091642498970032, 0.07637423276901245, 0.1305874139070511, 0.1013580784201622, 0.1879114806652069, 0.1471291482448578, -0.004170926287770271, 0.0032805423252284527, 0.03979502245783806, 0.009806901216506958, 0.08270451426506042, -0.007076125126332045, 0.016739897429943085, 0.07177074998617172, 0.06124819442629814, 0.09215731918811798, 0.037426963448524475, -0.012018424458801746, -0.07192572951316833, -0.009575866162776947, 0.034237779676914215, -0.026048099622130394, 0.06995345652103424, 0.13846275210380554, 0.059782009571790695, 0.02533615380525589, 0.03518622741103172, -0.035147715359926224, 0.040589019656181335, -0.029673919081687927, 0.07117012143135071, -0.057509250938892365, -0.021400485187768936, -0.06210729107260704, -0.019655507057905197, 0.03332604840397835, -0.014846871607005596, 0.06119661405682564, 0.1041877269744873, -0.124138243496418, 0.02664301171898842, -0.007598050870001316, 0.11236684024333954, 0.03884323686361313, 0.12568767368793488, -0.06243588775396347, -0.018466345965862274, 0.046956028789281845, -0.07095364481210709, 0.1261477768421173, 0.10162613540887833, 0.01963616907596588, 0.0522419735789299, 0.1441987305879593, 0.0350404754281044, 0.02232375741004944, 0.04878644645214081, -0.006714759860187769, 0.04782702028751373, -0.020984001457691193, 0.10005354136228561, -0.10246359556913376, 0.07584244757890701, -0.02050785720348358, 0.06483430415391922, 0.014229487627744675, 0.0823446586728096, 0.028947187587618828, -0.01910867542028427, 0.04958020895719528, 0.011794264428317547, -0.04069976508617401, 0.09728357940912247, -0.004284760914742947, -0.03935527056455612, -0.010808597318828106, -0.0023952655028551817, 0.020099353045225143, -0.10269755870103836], [0.018635032698512077, 0.12051394581794739, 0.060150712728500366, 0.040862295776605606, -0.06072063371539116, 0.04567304998636246, 0.04298888519406319, 0.03626010939478874, 0.05880214273929596, 0.06408146023750305, 0.08823838829994202, 0.07549543678760529, 0.09239746630191803, -0.03354060649871826, 0.04313909634947777, 0.13208803534507751, -0.07332343608140945, -0.028121402487158775, -0.07518190145492554, -0.034039635211229324, 0.06569075584411621, 0.12566925585269928, 0.011719614267349243, 0.10871239751577377, 0.09992693364620209, 0.10458140075206757, 0.08305305242538452, 0.13970310986042023, 0.09809024631977081, -0.0897899866104126, 0.058187223970890045, 0.11136730760335922, 0.012345771305263042, 0.0809461772441864, 0.020891563966870308, 0.08708474040031433, 0.0742620974779129, 0.03126636520028114, 0.11375594139099121, 0.022861072793602943, 0.10950202494859695, 0.020204536616802216, 0.06085874140262604, -0.02334175445139408, 0.11774733662605286, -0.06707566976547241, 0.03624476492404938, 0.0828867107629776, 0.050617944449186325, -0.05710267648100853, 0.06561677157878876, 0.048624176532030106, 0.04938897490501404, -0.02504095807671547, 0.09566465020179749, -0.018838072195649147, 0.019376317039132118, 0.03650336340069771, 0.018876729533076286, 0.10657219588756561, 0.025547316297888756, 0.0052699558436870575, 0.07306075841188431, 0.012113872915506363, 0.09909433126449585, 0.04043775051832199, -0.07845469564199448, -0.04293157160282135, 0.03239798545837402, 0.04145798832178116, -0.0406184196472168, 0.06781522184610367, 0.04128662124276161, 0.06629470735788345, -0.025880398228764534, 0.09759145975112915, -0.012748721055686474, -0.058174531906843185, 0.0017414026660844684, 0.12509623169898987, -0.07301979511976242, 0.058314234018325806, -0.027830444276332855, 0.09735740721225739, 0.06746650487184525, 0.0026571457274258137, 0.09753169864416122, 0.07076436281204224, -0.06184536591172218, 0.047652795910835266, 0.11919066309928894, 0.06649743020534515, 0.07246861606836319, -0.0019719211850315332, 0.03582046553492546, 0.027891933917999268, 0.1251554787158966, 0.12887850403785706, 0.06124066561460495, 0.03414629399776459, -0.08042435348033905, -0.047259021550416946, 0.10434751957654953, -0.05716296285390854, -0.17518095672130585], [0.026268519461154938, 0.08249229937791824, -0.04661336913704872, -0.1249954104423523, 0.06255932152271271, 0.05263867229223251, 0.051552824676036835, 0.010536872781813145, -0.06336288154125214, -0.10776335000991821, 0.052389297634363174, 0.054128941148519516, 0.024902820587158203, 0.042130522429943085, -0.05610096454620361, 0.05782062187790871, -0.0333825945854187, -0.058563780039548874, -0.032734207808971405, 0.0736372172832489, 0.014625098556280136, -0.015322955325245857, -0.038667887449264526, -0.031268954277038574, 0.07711619883775711, -0.02440907433629036, 0.06266496330499649, 0.07291174679994583, 0.003843656973913312, -0.01796645112335682, 0.008847219869494438, 0.08922366052865982, -0.0864868313074112, 0.013882191851735115, 0.04768121615052223, 0.14514397084712982, -0.032287146896123886, -0.015897931531071663, -0.12086080014705658, -0.04172496125102043, 0.06343287229537964, -0.10620836913585663, -0.010477128438651562, 0.13158074021339417, -0.011275681667029858, -0.009806526824831963, -0.017972994595766068, 0.04884989932179451, -0.002451172098517418, -0.14805877208709717, 0.007259867619723082, -0.03837902843952179, 0.053339436650276184, -0.12110190838575363, -0.03839482367038727, -0.03886980935931206, 0.04034380987286568, -0.12218408286571503, -0.04662499204277992, 0.027299324050545692, 0.11287203431129456, 0.14277571439743042, -0.031455282121896744, -0.04325169697403908, 0.019861530512571335, 0.008670025505125523, -0.0017538965912535787, 0.050169382244348526, 0.0588403046131134, 0.060161326080560684, -0.052756376564502716, 0.08691427111625671, 0.05377824604511261, -0.028599945828318596, -0.141826793551445, -0.1285790354013443, 0.032633282244205475, 0.05694030597805977, 0.05396636575460434, -0.0619686096906662, -0.011027995496988297, 0.0405363030731678, 0.09259751439094543, -0.10228066146373749, 0.030070194974541664, 0.018439272418618202, 0.04609621316194534, 0.06348660588264465, 0.07056308537721634, 0.031985294073820114, 0.020688030868768692, -0.05921076983213425, 0.0705186128616333, 0.06674020737409592, 0.05340233072638512, -0.022067714482545853, 0.025423813611268997, 0.10561087727546692, 0.009237696416676044, 0.05045267194509506, 0.02584003284573555, 0.02996877208352089, 0.015760233625769615, -0.024635320529341698, 0.07269442081451416], [0.0768594741821289, 0.04804510995745659, 0.0444328710436821, -0.021203981712460518, 0.11406124383211136, 0.05589236691594124, -0.0756523534655571, -0.1942913830280304, -0.1418333202600479, 0.05411260575056076, 0.010659266263246536, -0.004955317825078964, 0.06063958257436752, -0.15198077261447906, 0.027835607528686523, -0.0987163782119751, -0.15201696753501892, -0.16021990776062012, -0.21382465958595276, -0.14366739988327026, -0.03675154224038124, -0.04769269749522209, -0.08275377005338669, -0.09958777576684952, -0.12366864830255508, -0.01741233468055725, 0.09570145606994629, -0.06598367542028427, 0.07439462095499039, -0.23611345887184143, -0.10606855154037476, 0.002644439460709691, -0.040157098323106766, 0.01990862376987934, 0.03678523376584053, -0.035280585289001465, 0.10391208529472351, 0.06375250220298767, 0.10448244214057922, 0.11335670202970505, 0.16002076864242554, -0.10407121479511261, 0.13541650772094727, 0.019574958831071854, 0.15687865018844604, -0.0179649256169796, -0.040599849075078964, -0.02387900836765766, 0.05653640627861023, 0.06734485179185867, 0.17122608423233032, -0.013372841291129589, 0.010131150484085083, 0.07391680032014847, 0.06189490482211113, -0.09951546043157578, 0.07119840383529663, -0.08022581785917282, 0.11385568976402283, 0.12076830863952637, -0.07702173292636871, -0.0816846713423729, -0.03939642384648323, 0.0595594197511673, -0.09946326911449432, 0.06828120350837708, -0.04025337100028992, 0.0019290635827928782, -0.030411401763558388, -0.12500444054603577, -0.05643719434738159, -0.023204155266284943, -0.06892918050289154, -0.1137157753109932, -0.2247101217508316, 0.06836771965026855, 0.17801138758659363, 0.0990711972117424, -0.022521408274769783, -0.015559669584035873, 0.055027734488248825, 0.21060512959957123, -0.13868199288845062, 0.08019206672906876, -0.1462542861700058, 0.12254362553358078, -0.009870321489870548, -0.023287644609808922, -0.12135878205299377, -0.07378015667200089, 0.010816597379744053, 0.11764220148324966, -0.03607430309057236, -0.04150041937828064, 0.09792003780603409, -0.07522975653409958, 0.16630665957927704, -0.062409657984972, 0.020073529332876205, 0.029239358380436897, 0.06817707419395447, 0.07528819888830185, 0.002727427054196596, 0.01864563673734665, -0.014523978345096111], [-0.18166567385196686, -0.1699109673500061, -0.17505142092704773, -0.18313121795654297, -0.13170519471168518, -0.09039472043514252, -0.1448417454957962, -0.14687569439411163, -0.05768699571490288, -0.15103140473365784, -0.03221563994884491, -0.06786428391933441, 0.02385500818490982, -0.0020365563686937094, 0.02542904019355774, 0.0015432414365932345, 0.011258196085691452, -0.01283132005482912, -0.0019859876483678818, -0.03230368345975876, 0.04978252947330475, 0.0959000289440155, 0.15321846306324005, 0.04390164092183113, 0.11322905868291855, 0.17682033777236938, 0.13067682087421417, 0.10890933871269226, 0.1266586184501648, 0.18815647065639496, 0.13748684525489807, 0.1256316751241684, -0.04725300148129463, 0.016207603737711906, 0.07636279612779617, -0.08496295660734177, 0.10447856783866882, 0.1103435829281807, -0.03571556881070137, 0.00763734383508563, 0.04391254484653473, -0.18880797922611237, -0.03133922070264816, -0.12902364134788513, 0.11800049245357513, 0.045439932495355606, 0.027977801859378815, 0.10024359822273254, 0.0429069809615612, 0.07363690435886383, 0.035141199827194214, 0.010226168669760227, -0.0018454923992976546, 0.0642009750008583, -0.034172601997852325, 0.04198834300041199, 0.006872592959553003, -0.10017485171556473, -0.02943616546690464, 0.038675203919410706, -0.01796184666454792, -0.006613984704017639, 0.0803869217634201, -0.03352317959070206, 0.0528687909245491, -0.07453088462352753, -0.0066392007283866405, -0.01875300519168377, -0.04200315102934837, -0.0607551708817482, -0.0072353295981884, -0.006690401583909988, 0.16559840738773346, -0.004851275123655796, -0.001890294486656785, 0.027418682351708412, 0.11169440299272537, 0.07647953182458878, -0.2668120861053467, -0.04838116466999054, 0.09874030202627182, 0.1957271546125412, 0.008084665052592754, 0.06537940353155136, 0.09249021112918854, 0.09118613600730896, 0.0566239058971405, 0.13103699684143066, -0.13336917757987976, 0.03350940719246864, -0.049478303641080856, -0.03888966515660286, -0.054612886160612106, 0.0030153689440339804, -0.028714604675769806, -0.07677610963582993, 0.08735892176628113, -0.008826120756566525, -0.09504170715808868, -0.03962945193052292, -0.032699763774871826, -0.013776913285255432, 0.004790728911757469, -0.08083729445934296, -0.2603875398635864], [-0.10084346681833267, -0.15423421561717987, -0.18579977750778198, -0.06841307878494263, 0.0706293061375618, -0.20868052542209625, -0.017074527218937874, -0.0014578918926417828, -0.0712832659482956, -0.18128854036331177, -0.0561101920902729, -0.049991704523563385, -0.12964095175266266, 0.05248720943927765, 0.10762026160955429, 0.15926142036914825, 0.13857349753379822, 0.136383518576622, 0.11474109441041946, 0.19788195192813873, 0.022720400243997574, -0.01963685266673565, 0.028412438929080963, 0.02237854339182377, 0.10202185064554214, 0.02146458625793457, -0.01442738063633442, 0.04265077784657478, 0.08516217023134232, 0.06384635716676712, 0.01801764965057373, 0.050729744136333466, 0.02088025026023388, 0.021608352661132812, 0.05946385860443115, 0.01818353310227394, -0.06687405705451965, -0.12589414417743683, -0.09941746294498444, -0.07529349625110626, -0.01584039069712162, -0.3079287111759186, -0.024053042754530907, -0.19099542498588562, -0.06717389076948166, -0.16325341165065765, 0.007172475568950176, -0.11544179916381836, -0.17942823469638824, -0.15204668045043945, -0.10127360373735428, -0.14248716831207275, 0.07633145153522491, 0.04278821870684624, -0.006758449133485556, -0.00031610362930223346, 0.02335069701075554, 0.036264386028051376, 0.0240218136459589, 0.06475619971752167, 0.08121438324451447, -0.01618627831339836, 0.10542960464954376, -0.08646207302808762, -0.06648775935173035, 0.022277239710092545, -0.08329030871391296, 0.05258873850107193, -0.04810566455125809, 0.04205753281712532, -0.15912818908691406, 0.022854795679450035, 0.1369400918483734, -0.0019965176470577717, -0.009310510009527206, 0.006393357180058956, 0.0410877987742424, -0.01964334025979042, 0.09657220542430878, -0.020479818806052208, -0.025592822581529617, -0.015880651772022247, -0.007700236979871988, 0.001861787517555058, -0.08641054481267929, 0.03580722585320473, -0.018632860854268074, 0.08330964297056198, 0.0327620804309845, -0.056147076189517975, -0.028704214841127396, 0.04372657462954521, -0.03978715091943741, -0.03341132402420044, -0.033828359097242355, -0.02891148254275322, -0.14535731077194214, -0.06701534986495972, 0.10369370877742767, 0.0502409003674984, 0.02567676082253456, 0.0371960774064064, -0.016699878498911858, 0.021441517397761345, -0.15694086253643036], [-0.07274527847766876, 0.05278286337852478, 0.011352884583175182, -0.05735371634364128, -0.025267789140343666, -0.09843970090150833, 0.016452059149742126, -0.11129001528024673, 0.10016604512929916, 0.026124749332666397, -0.11610342562198639, 0.06263445317745209, -0.007747270632535219, -0.04545951634645462, -0.03789766505360603, -0.08979695290327072, 0.031751926988363266, -0.07295370101928711, -0.0041848961263895035, 0.014224333688616753, 0.08835788816213608, 0.06001447141170502, 0.07354757189750671, 0.11213283240795135, 0.10936697572469711, -0.022061139345169067, 0.00935076642781496, 0.09291732311248779, -0.06185862421989441, -0.048512548208236694, -0.031537801027297974, -0.0014365643728524446, -0.033591561019420624, 0.16368786990642548, 0.12501803040504456, 0.13905031979084015, 0.10816986113786697, 0.1505633294582367, -0.013555921614170074, -0.005249414127320051, -0.017783895134925842, -0.04646429419517517, 0.10080983489751816, -0.010219616815447807, -0.09406709671020508, 0.07432562112808228, -0.04745053872466087, 0.09519776701927185, 0.07935794442892075, 0.19885708391666412, 0.030723748728632927, 0.08889584988355637, -0.024864790961146355, -0.029675832018256187, 0.07563542574644089, -0.07545813918113708, -0.02112046629190445, 0.07863759249448776, -0.035772837698459625, 0.042786210775375366, -0.0823192372918129, -0.010203210636973381, 0.07392691820859909, -0.019718293100595474, 0.03917108103632927, 0.10617256164550781, -0.00777685409411788, 0.06534448266029358, 0.055007584393024445, -0.07394497096538544, 0.07461912930011749, 0.09400974959135056, -0.0523282065987587, 0.09412131458520889, 0.09789334982633591, -0.05142011120915413, 0.0904044583439827, 0.005311848130077124, 0.006337442900985479, 0.07579372078180313, -0.005937135312706232, -0.04628906399011612, 0.0708603486418724, -0.051411088556051254, -0.06763852387666702, 0.009695621207356453, 0.06814080476760864, 0.05645354464650154, 0.11267953366041183, 0.034620825201272964, 0.025050578638911247, 0.021643884479999542, -0.08587726950645447, 0.07531435787677765, -0.056429557502269745, 0.08917900919914246, 0.07183029502630234, 0.06359219551086426, 0.008065547794103622, 0.04655393585562706, 0.1075548380613327, -0.023531490936875343, -0.03091888688504696, 0.10734935104846954, -0.18461225926876068], [-0.1257023960351944, -0.0059652067720890045, -0.017366981133818626, 0.09460276365280151, -0.049946144223213196, 0.02324483171105385, -0.07126618921756744, -0.05015183612704277, -0.04764339327812195, -0.005589398089796305, -0.060561247169971466, 0.0036636905279010534, 0.05313749983906746, 0.0461590439081192, -0.014822671189904213, 0.004565729759633541, -0.014596739783883095, 0.004792138002812862, -0.0013177249347791076, -0.032057348638772964, 0.08608534932136536, 0.017339788377285004, 0.0041305203922092915, -0.03758563473820686, -0.13679131865501404, 0.02881391905248165, -0.04818946123123169, -0.0008053283090703189, 0.01533513143658638, 0.17417295277118683, 0.02554180845618248, 0.14980067312717438, 0.12816518545150757, 0.04189987853169441, 0.08332139253616333, 0.0030749349389225245, 0.1313215047121048, 0.03814776614308357, -0.06070515140891075, 0.03593796491622925, 0.046370021998882294, 0.005437552463263273, 0.08804535120725632, -0.10489291697740555, -0.006894543766975403, 0.13422518968582153, 0.1308060735464096, 0.06140340864658356, 0.03412304073572159, -0.04301558807492256, -0.054314881563186646, -0.004186091013252735, 0.06567180156707764, 0.007208583876490593, -0.012939336709678173, 0.12630929052829742, 0.0997060239315033, -0.06598019599914551, -0.025094173848628998, 0.02006414532661438, 0.04399232938885689, 0.0165282990783453, 0.03632519766688347, 0.06992699950933456, -0.05564884468913078, 0.058039553463459015, 0.03651319071650505, 0.006938446778804064, 0.06354678422212601, -0.0637352392077446, -0.10831215977668762, 0.06002219766378403, -0.05141468718647957, 0.07158554345369339, -0.03245823457837105, 0.08615724742412567, 0.02572629414498806, 0.017251593992114067, 0.08945626765489578, 0.06221557408571243, -0.0035794724244624376, -0.03791780024766922, 0.020071614533662796, 0.06610985845327377, 0.01945505477488041, -0.01803804747760296, 0.10210850089788437, 0.05103059858083725, 0.10156766325235367, 0.09669725596904755, 0.02947864681482315, -0.06125055253505707, -0.002905241446569562, 0.10674552619457245, -0.06716227531433105, -0.07818729430437088, -0.006002603564411402, -0.01952466182410717, -0.02896064706146717, 0.08797421306371689, 0.0360596738755703, -0.05693686753511429, -0.033246979117393494, -0.009536725468933582, -0.12116337567567825], [-0.035985276103019714, 0.05212195962667465, 0.00994573999196291, 0.09821589291095734, -0.0863976776599884, -0.11433469504117966, -0.02124440111219883, -0.0583149753510952, -0.010404018685221672, 0.03043961338698864, 0.01994289644062519, -0.12406554818153381, 0.05215921252965927, 0.07486730813980103, -0.026845628395676613, -0.019497757777571678, 0.054141849279403687, 0.06295512616634369, -0.06195172667503357, 0.08920671790838242, -0.016331147402524948, 0.04621293395757675, -0.0182701013982296, -0.035298313945531845, 0.0009681764640845358, 0.07789400964975357, 0.05710733309388161, 0.11680370569229126, 0.06272337585687637, 0.08450763672590256, 0.10602503269910812, 0.07672733813524246, -0.0014225495979189873, -0.030834157019853592, 0.09336001425981522, -0.02823985181748867, 0.025075800716876984, -0.008943024091422558, 0.02146623097360134, -0.06148507446050644, -0.008513127453625202, 0.08976691216230392, -0.021651146933436394, 0.0707894042134285, 0.00403428403660655, -0.07629567384719849, -0.04436318948864937, 0.05549384653568268, -0.009206676855683327, 0.08527529984712601, 0.04966922104358673, 0.08056722581386566, 0.001202697865664959, 0.07424771040678024, -0.07501686364412308, -0.042937491089105606, 0.053039684891700745, 0.023037023842334747, 0.002757880836725235, -0.01770927757024765, -0.04093037545681, -0.012696160934865475, -0.014100431464612484, 0.027285108342766762, 0.05426506698131561, 0.03888828307390213, -0.01023370772600174, 0.06481914967298508, 0.06749298423528671, 0.06558503210544586, -0.015512260608375072, 0.010752788744866848, 0.04025338962674141, 0.06807833164930344, -0.005648075137287378, 0.02565288357436657, 0.04414329305291176, 0.008273031562566757, 0.05176230147480965, 0.055128082633018494, 0.07375799119472504, -0.021228449419140816, -0.020441260188817978, 0.02547169104218483, 0.04903816059231758, 0.08491787314414978, 0.08953247964382172, 0.06245618686079979, 0.11477217823266983, -0.013807582668960094, 0.09684455394744873, 0.05386803671717644, 0.07559387385845184, 0.08206070214509964, -0.0077151767909526825, 0.08548497408628464, 0.1254955381155014, -0.050048112869262695, 0.030558543279767036, -0.00816424936056137, -0.01709488034248352, 0.0426086001098156, 0.0412556491792202, -0.04245475307106972, -0.1836538314819336], [0.04431094974279404, 0.03662871941924095, -0.08846354484558105, 0.15293262898921967, 0.03592267632484436, -0.0673200935125351, -0.11052291095256805, 0.03296111896634102, -0.012717405334115028, -0.11601334810256958, -0.09222009778022766, -0.054797541350126266, -0.037327319383621216, -0.04525015130639076, -0.05845712125301361, 0.05724493786692619, 0.03554625064134598, 0.09822572767734528, 0.09041602909564972, 0.04911607503890991, -0.02160666510462761, 0.05557956546545029, 0.057883452624082565, -0.007797142956405878, 0.1145438626408577, 0.11011697351932526, 0.11158286780118942, 0.11572827398777008, 0.06082369387149811, 0.10669312626123428, 0.14348414540290833, 0.07004854828119278, -0.0627075806260109, -0.038567155599594116, -0.023451803252100945, -0.08083470910787582, -0.014575290493667126, 0.03677322342991829, -0.0076758284121751785, 0.09212227910757065, -0.01771567016839981, 0.0789974182844162, -0.009310592897236347, 0.09246066957712173, 0.09837944805622101, 0.08560802787542343, 0.047054488211870193, 0.09706448018550873, 0.06628035008907318, 0.026190463453531265, -0.024200838059186935, 0.04165593907237053, 0.0854824110865593, 0.02878272719681263, -0.055636268109083176, -0.10300000756978989, 0.013785415329039097, -0.061256345361471176, -0.039240606129169464, 0.04012082517147064, -0.017136214300990105, -0.094576895236969, 0.05571334809064865, -0.10311370342969894, -0.03586241975426674, 0.08618342876434326, 0.05806764215230942, -0.019153010100126266, 0.11434051394462585, 0.03574194014072418, 0.04613994061946869, -0.0007802009931765497, 0.06741467118263245, -0.09480447322130203, -0.06442399322986603, -0.0303447637706995, -0.057741016149520874, -0.002596686128526926, -0.01945420354604721, 0.01431035902351141, 0.03632737323641777, 0.06037651374936104, 0.031383614987134933, 0.05082910507917404, 0.029422353953123093, 0.048234593123197556, -0.004730192478746176, -0.08048620820045471, -0.07045303285121918, 0.05727338045835495, -0.023785464465618134, 0.030167624354362488, 0.024586452171206474, 0.05431272089481354, -0.06916546076536179, -0.040763746947050095, 0.09453743696212769, -0.06797389686107635, 0.07003586739301682, -0.003892230335623026, 0.0018703078385442495, -0.013133860193192959, 0.0658579170703888, -0.033399105072021484, -0.14437782764434814], [0.04583645239472389, -0.16037827730178833, -0.003593156347051263, 0.004305415786802769, -0.03788897395133972, 0.08696627616882324, 0.11614695191383362, -0.09357032179832458, 0.0005110726924613118, -0.016543610021471977, 0.13162685930728912, -0.015661051496863365, 0.11720046401023865, -0.12396881729364395, 0.11349870264530182, 0.04347147047519684, -0.047471143305301666, -0.13045385479927063, 0.04933464154601097, 0.12700581550598145, 0.12434274703264236, -0.21473629772663116, 0.17000503838062286, 0.14843636751174927, 0.05010509490966797, 0.14423228800296783, 0.06970544904470444, -0.013588089495897293, 0.05418817698955536, -0.09318816661834717, -0.05931072682142258, 0.08550966531038284, 0.014896415174007416, -0.05936267226934433, -0.06652141362428665, 0.03739025443792343, -0.12791509926319122, 0.06575864553451538, 0.009275289252400398, -0.2027309536933899, -0.008148835971951485, -0.02585047110915184, 0.01607896015048027, -0.05133286863565445, 0.07187183946371078, -0.013413061387836933, 0.05594589561223984, 0.08774161338806152, -0.05314913019537926, -0.13005930185317993, -0.16540274024009705, 0.06474480777978897, 0.023488258942961693, 0.038706570863723755, -0.04028354212641716, -0.02114703319966793, -0.031883303076028824, 0.02082732878625393, 0.10349258035421371, -0.06207941472530365, -0.028522752225399017, -0.06771205365657806, -0.010784299112856388, 0.08225005865097046, -0.018233705312013626, -0.07573696225881577, 0.02437402680516243, 0.01681002788245678, -0.14129194617271423, -0.05812130495905876, -0.13533473014831543, -0.13196945190429688, 0.03803899139165878, 0.07220194488763809, 0.0912572368979454, 0.005114538129419088, -0.0015139012830331922, -0.09850078076124191, 0.013152542524039745, 0.005764424800872803, -0.13259148597717285, 0.0382993258535862, 0.0821671113371849, -0.04161308333277702, -0.05820993334054947, -0.11305773258209229, -0.015746083110570908, 0.12737466394901276, 0.05757848918437958, 0.03883931413292885, -0.06983792036771774, 0.07424149662256241, 0.03677003085613251, 0.10267428308725357, 0.07541782408952713, 0.05907461419701576, 0.12196339666843414, 0.0023184248711913824, -0.03871488198637962, -0.11576799303293228, 0.16554978489875793, -0.14487586915493011, -0.08647704869508743, 0.11982906609773636, 0.024057459086179733], [0.01868377812206745, 0.1438284069299698, 0.09614159166812897, -0.0036066619213670492, 0.05839211121201515, -0.06463053077459335, -0.04893388971686363, -0.04167114943265915, -0.08886193484067917, 0.055343132466077805, 0.11309067159891129, 0.08350615203380585, 0.047679390758275986, -0.03597432002425194, -0.03264326602220535, -0.16722775995731354, 0.028888950124382973, 0.06954032927751541, 0.07882197201251984, 0.09616424888372421, 0.12758657336235046, 0.03153413534164429, 0.1745355874300003, 0.06189088150858879, 0.0712893009185791, 0.04840582236647606, 0.08574797958135605, -0.0008598249405622482, 0.08764253556728363, 0.09128434211015701, 0.10133770108222961, -0.05784869194030762, 0.10300903022289276, -0.17866647243499756, 0.039413921535015106, -0.09547281265258789, 0.032708700746297836, -0.019481202587485313, -0.05593473091721535, 0.0002774326130747795, -0.01047731377184391, -0.09226277470588684, -0.10797875374555588, 0.053197141736745834, -0.02715691551566124, -0.036431070417165756, -0.11825834959745407, 0.021536044776439667, -0.10997791588306427, -0.09849012643098831, 0.07724038511514664, 0.013888810761272907, 0.03532946854829788, 0.07887392491102219, -0.013095268979668617, -0.05197019875049591, 0.12904506921768188, 0.10060347616672516, 0.10997168719768524, 0.012420395389199257, 0.16070374846458435, 0.03562984988093376, 0.02802908420562744, 0.039092060178518295, 0.04684272035956383, -0.0051388791762292385, -0.010872832499444485, -0.04702801629900932, -0.03665981814265251, 0.07926744967699051, 0.10492952167987823, -0.13470467925071716, -0.05211932212114334, -0.07396028935909271, 0.026672061532735825, -0.009172559715807438, -0.06214022636413574, 0.06505081057548523, 0.00010053146979771554, 0.05058732256293297, 0.082076795399189, 0.0023888456635177135, 0.09339843690395355, 0.034933723509311676, 0.10374224931001663, -0.026914868503808975, 0.07543186098337173, -0.08542495965957642, 0.009341571480035782, -0.1413065642118454, -0.0005858986987732351, -0.05654235929250717, -0.023390604183077812, 0.15515650808811188, -0.01200072467327118, 0.03307023644447327, 0.08062159270048141, 0.058635011315345764, 0.08047550916671753, -0.039176955819129944, -0.07154639810323715, -0.12322443723678589, 0.04700547084212303, -0.04683208093047142, -0.17082388699054718], [0.12767551839351654, -0.02165462262928486, 0.030251365154981613, -0.023236224427819252, -0.06590314954519272, -0.0008790222927927971, -0.0007097874768078327, 0.026356171816587448, -0.057906072586774826, 0.03707054257392883, -0.06608714163303375, 0.0009503202745690942, 0.06819651275873184, 0.009369193576276302, 0.05739212408661842, 0.012370827607810497, -0.13640815019607544, 0.05390440672636032, 0.06974618881940842, 0.05410725623369217, -0.005635430105030537, 0.10519251972436905, 0.0009989384561777115, 0.035948436707258224, 0.1104460135102272, 0.12566542625427246, 0.12257801741361618, 0.15603110194206238, -0.05112631618976593, 0.02190353535115719, -0.03324024751782417, 0.017271870747208595, 0.09686493873596191, 0.0834520235657692, -0.0805748775601387, 0.08078054338693619, -0.02585803158581257, 0.08512931317090988, 0.058491505682468414, -0.11126922816038132, -0.05625556781888008, 0.0616314634680748, -0.005448224954307079, 0.15337064862251282, 0.03180122748017311, -0.030427172780036926, -0.006272711791098118, -0.006821748334914446, -0.05165271833539009, 0.11216560006141663, 0.055675964802503586, -0.0819438025355339, -0.14036227762699127, -0.09575510025024414, 0.01441266667097807, 0.0712178573012352, 0.06052163615822792, 0.04736322537064552, 0.03603873401880264, -0.0001991681201616302, -0.10641437768936157, 0.006892438046634197, 0.05808814615011215, 0.05238485336303711, 0.04077001288533211, 0.0318039171397686, -0.10987775027751923, -0.04772099107503891, 0.017537329345941544, -0.037580206990242004, 0.058341216295957565, 0.02167317643761635, 0.019456174224615097, 0.09346461296081543, -0.14452531933784485, -0.08549873530864716, 0.003111399943009019, -0.17450571060180664, 0.05000912398099899, -0.0028659356757998466, -0.167182058095932, -0.030574707314372063, -0.18729285895824432, 0.03546150401234627, 0.05950174480676651, -0.012632791884243488, 0.09497977793216705, -0.030585162341594696, 0.0050300005823373795, 0.026962490752339363, 0.04241042211651802, -0.012557247653603554, 0.09949108213186264, 0.05870053172111511, 0.09558088332414627, 0.04660116508603096, 0.022540923207998276, 0.16623391211032867, 0.11609777808189392, 0.0696587935090065, 0.0359136201441288, -0.09423578530550003, -0.02620113082230091, 0.11954602599143982, -0.026880722492933273], [-0.006236995104700327, 0.08730048686265945, 0.02196602150797844, 0.049342114478349686, -0.12310093641281128, -0.09934333711862564, -0.003545855637639761, -0.042372144758701324, -0.04426722601056099, -0.005210177507251501, 0.03056756779551506, 0.014178468845784664, 0.008620710112154484, -0.02411733940243721, 0.037796761840581894, 0.06729632616043091, 0.04154357314109802, 0.03636704012751579, -0.06819815188646317, 0.004982058424502611, 0.1594100445508957, 0.1606103479862213, -0.04040272533893585, -0.009738646447658539, -0.07889809459447861, 0.12761357426643372, 0.03864957392215729, -0.00714155612513423, -0.04108645021915436, 0.14502926170825958, 0.09101258218288422, -0.16701005399227142, 0.17651870846748352, -0.016798360273241997, -0.05016709491610527, 0.007571000140160322, 0.06969885528087616, 0.1187041699886322, -0.0715760812163353, -0.06933043897151947, 0.007083935663104057, 0.06827811896800995, -0.19970670342445374, 0.07429195195436478, -0.05166659131646156, 0.04820945858955383, 0.1054147332906723, -0.07140635699033737, -0.049921665340662, 0.0766623467206955, 0.05696512386202812, -0.1470721811056137, -0.06166459992527962, -0.17501571774482727, -0.086754709482193, -0.024916911497712135, 0.03363830968737602, 0.07488872855901718, -0.0018793650669977069, 0.013991720974445343, -0.029418455436825752, -0.014928052201867104, 0.039006177335977554, -0.07550393044948578, -0.09473641216754913, -0.06376913189888, 0.01346580870449543, 0.09454791247844696, -0.04860736057162285, 0.0031943467911332846, 0.04129072278738022, -0.029479175806045532, 0.11586553603410721, 0.09858986735343933, -0.020081447437405586, 0.0369880385696888, 0.05294368043541908, 0.008716639131307602, -0.05176841467618942, 0.08186560869216919, -0.14125028252601624, 0.02481895498931408, 0.012851525098085403, -0.0796990692615509, -0.14433711767196655, 0.07260338962078094, 0.014872660860419273, 0.015197135508060455, -0.036174923181533813, 0.13764095306396484, -0.015629000961780548, -0.022968243807554245, -0.02339670993387699, -0.04909737408161163, 0.0233224555850029, 0.013213721103966236, -0.06702938675880432, 0.007895095273852348, 0.03950423374772072, 0.07405218482017517, 0.09930570423603058, 0.07860434055328369, -0.06125239282846451, -0.0227504875510931, -0.1400318145751953], [0.06949032098054886, -0.019439391791820526, -0.008794629015028477, -0.08552393317222595, -0.029198691248893738, 0.04706694185733795, 0.09357506781816483, 0.0996202751994133, -0.024310918524861336, -0.09389123320579529, -0.07684941589832306, -0.1131589412689209, -0.03418105095624924, -0.21517106890678406, 0.021120384335517883, -0.1873568594455719, -0.06944795697927475, 0.04984859377145767, -0.12216636538505554, 0.05742025375366211, 0.09570839256048203, 0.12552465498447418, 0.05551915243268013, -0.0031056345906108618, 0.08401317149400711, 0.0052119228057563305, 0.0038035463076084852, 0.052726440131664276, 0.08188626915216446, 0.06676870584487915, 0.08980254828929901, 0.07203491777181625, 0.08585859835147858, 0.03347962722182274, 0.08186282962560654, 0.08501312136650085, -0.09046918898820877, -0.0002720252377912402, -0.07484149932861328, -0.01882823370397091, 0.0055010332725942135, 0.00032915789051912725, -0.04792129248380661, -0.11593660712242126, 0.0281906109303236, 0.14556823670864105, 0.0874992161989212, 0.09979391098022461, -0.08188042789697647, 0.09435346722602844, 0.055089663714170456, 0.025490641593933105, 0.06157217174768448, -0.047698017209768295, 0.0004537906206678599, 0.02347680926322937, 0.07343233376741409, -0.080155149102211, 0.11081665754318237, 0.10446475446224213, 0.019971780478954315, -0.011191228404641151, 0.04427129030227661, 6.015886174282059e-05, 0.052168238908052444, -0.06887823343276978, 0.05717554688453674, 0.02482275664806366, 0.021625753492116928, 0.06479495763778687, 0.03959125652909279, -0.032742150127887726, -0.0637916550040245, -0.00029618191183544695, 0.11310005933046341, 0.08078047633171082, -0.02209177054464817, -0.02383582293987274, 0.008185047656297684, -0.08044754713773727, 0.07096610218286514, 0.04842967540025711, 0.043931744992733, 0.08838000893592834, -0.026890434324741364, 0.05097752436995506, 0.00467254500836134, 0.03646137937903404, 0.021128518506884575, -0.03300853073596954, 0.0951826348900795, -0.013795631006360054, 0.10826925188302994, 0.014468693174421787, 0.0875505805015564, -0.09717071056365967, 0.07959023118019104, 0.0190266240388155, 0.05449511483311653, 0.03508288040757179, 0.07862026989459991, 0.06385485082864761, 0.02834937907755375, -0.10843770205974579, 0.15707287192344666], [-0.07692423462867737, -0.11360221356153488, -0.025288991630077362, -0.007170034572482109, -0.062357328832149506, -0.08283480256795883, -0.13020212948322296, -0.12470723688602448, 0.23714640736579895, 0.27149486541748047, 0.23239588737487793, 0.18507392704486847, -0.020960703492164612, -0.033925384283065796, 0.11940358579158783, -0.010663637891411781, -0.03174876794219017, -0.06323032081127167, 0.028263520449399948, 0.017631439492106438, 0.03720716014504433, -0.07472731918096542, 0.024388331919908524, -0.039611998945474625, -0.09951327741146088, -0.10299530625343323, -0.12003330141305923, -0.07354436814785004, 0.002204478019848466, -0.17869745194911957, 0.0014983307337388396, -0.10333383083343506, -0.20437823235988617, 0.06303438544273376, -0.012079665437340736, 0.07998249679803848, -0.036100707948207855, -0.11799465119838715, -0.1304856389760971, -0.018356334418058395, -0.07601954787969589, -0.06935078650712967, -0.04253517463803291, 0.034399017691612244, -0.11087588965892792, 0.00951388943940401, 0.06609681248664856, 0.08325150609016418, 0.0023469075094908476, -0.32004624605178833, -0.13910947740077972, 0.04251894727349281, 0.019014693796634674, -0.06675086915493011, -0.08982914686203003, 0.003398112952709198, 0.03334898501634598, -0.026067296043038368, -0.12103671580553055, 0.1295245885848999, 0.06814209371805191, -0.013684735633432865, 0.05720566585659981, 0.15873128175735474, 0.05844665318727493, 0.10386661440134048, 0.02183762565255165, -0.028301294893026352, -0.003646702039986849, -0.09350772947072983, -0.04196862876415253, -0.24406512081623077, 0.09651787579059601, -0.12697122991085052, 0.046278055757284164, 0.01296218577772379, 0.019690867513418198, -0.047946661710739136, 0.013593155890703201, -0.09432579576969147, -0.132703959941864, -0.11105620861053467, -0.13226692378520966, -0.03133976832032204, -0.20620545744895935, 0.11624795943498611, 0.05929245799779892, 0.031136369332671165, 