{"arch": "mlp", "activation": "relu", "layers": [{"w": [[0.05501266568899155, 0.02490203268826008, 0.018884290009737015, -0.007976120337843895, 0.04001615196466446, 0.05455656349658966, 0.08996481448411942, 0.16876791417598724, 0.02632802724838257, -0.01683734357357025, 0.027700070291757584, 0.017920903861522675, 0.02613803930580616, 0.0922909751534462, 0.15626271069049835, 0.11822520196437836, 0.03890383616089821, 0.0200887992978096, 0.02325303852558136, 0.056288156658411026, 0.14429906010627747, 0.14918947219848633, 0.1369091123342514, 0.16101691126823425, 0.00454603461548686, -0.01555758435279131, 0.09445285052061081, -0.06533722579479218, 0.030446087941527367, 0.045514579862356186, 0.0936490148305893, 0.21257053315639496, -0.025839287787675858, -0.037662673741579056, -0.032100435346364975, -0.0915336161851883, 0.062194742262363434, 0.13895472884178162, 0.2012568563222885, 0.1557423621416092, 0.05886377394199371, -0.00028521314379759133, 0.1081516444683075, 0.03446418046951294, 0.04016217216849327, 0.04172472283244133, 0.15287300944328308, 0.12990158796310425, 0.12885168194770813, 0.15270493924617767, 0.25981882214546204, 0.2096482664346695, 0.11644680798053741, 0.09581133723258972, 0.11853639781475067, 0.049053486436605453, 0.15127241611480713, 0.09603456407785416, 0.07399909198284149, 0.0928230956196785, 0.1261344701051712, 0.09242944419384003, 0.04633679986000061, 0.0656423568725586, 0.07284259051084518, 0.018616914749145508, 0.04113048315048218, 0.050865136086940765, 0.18890640139579773, 0.1890854686498642, 0.0891842246055603, 0.11301160603761673, 0.041827473789453506, 0.028774704784154892, 0.0401962511241436, 0.0647738128900528, 0.03265710920095444, -0.01396893709897995, 0.03767542168498039, 0.003577462863177061, -0.014838123694062233, 0.09304732829332352, 0.07759649306535721, -0.008031640201807022, 0.02024104632437229, -0.02221475914120674, 0.04678502678871155, -0.09372904896736145, 0.09438111633062363, 0.05143618956208229, 0.08196365833282471, 0.10569828748703003, 0.13381297886371613, 0.14926041662693024, 0.0925329402089119, 0.038812220096588135, 0.08393602818250656, 0.07509950548410416, 0.019352832809090614, 0.03764014691114426, 0.15175457298755646, 0.11844129860401154, 0.047064412385225296, 0.08162349462509155, -0.048417605459690094], [0.015990039333701134, 0.016479065641760826, 0.01574077643454075, 0.017802847549319267, -0.011128398589789867, -0.009448852390050888, -0.009115905500948429, -0.009749188087880611, -0.001501690479926765, -0.0008477233350276947, -0.00037786742905154824, -0.0010934079764410853, -0.07546741515398026, -0.07628541439771652, -0.07601181417703629, -0.07627072930335999, 0.08025997132062912, 0.08129940927028656, 0.08029104769229889, 0.08148519694805145, -0.013769714161753654, -0.013619998469948769, -0.01186701562255621, -0.013657054863870144, 0.053370505571365356, 0.05294271931052208, 0.05316147953271866, 0.05310659855604172, -0.1118299663066864, -0.11167917400598526, -0.1096157357096672, -0.11053011566400528, 0.4181959331035614, 0.4211979806423187, 0.4225238561630249, 0.4247056543827057, 0.0921860784292221, 0.09481512755155563, 0.09241294860839844, 0.09374433010816574, -0.1438852995634079, -0.14691852033138275, -0.14592541754245758, -0.1449262499809265, -0.7936538457870483, -0.7882906794548035, -0.7934339046478271, -0.7802976369857788, -0.16911642253398895, -0.1682436317205429, -0.1695905178785324, -0.16784319281578064, 0.005772416014224291, 0.0058309705927968025, 0.005008844193071127, 0.00577173288911581, 0.007549925707280636, 0.004989086650311947, 0.004858407191932201, 0.005527996923774481, 0.0071136015467345715, 0.004762690048664808, 0.0032961347606033087, 0.0027961430605500937, 0.007365500088781118, 0.008033518679440022, 0.007152792066335678, 0.00850909948348999, 0.0058072395622730255, 0.00443279230967164, 0.006950709968805313, 0.004997363779693842, 0.007796770893037319, 0.006613326724618673, 0.007031869143247604, 0.007142800372093916, 0.0024978560395538807, 0.0028707575984299183, 0.0036594036500900984, 0.00250513874925673, 0.0070183007046580315, 0.007241945248097181, 0.009103890508413315, 0.007801713887602091, 0.005245532840490341, 0.0047684707678854465, 0.005472160410135984, 0.004932361654937267, 0.0027804255951195955, 0.0010978527134284377, 0.0013083521043881774, 0.0022561070509254932, 0.006106877233833075, 0.007159031927585602, 0.006088187452405691, 0.005151927936822176, 0.006267608143389225, 0.007437674794346094, 0.006828435231000185, 0.006353916600346565, 0.007409093901515007, 0.006104260217398405, 0.006424020044505596, 0.0067152827978134155, 0.0022251626942306757], [0.10629882663488388, -0.04321464151144028, 0.0807696282863617, 0.08353244513273239, 0.042031511664390564, -0.07386832684278488, 0.014974260702729225, 0.0455562062561512, 0.10892239958047867, -0.053266383707523346, 0.07290621846914291, 0.09455462545156479, 0.08724486827850342, -0.058958500623703, 0.09290637075901031, 0.12282636761665344, 0.11448860913515091, -0.048637453466653824, 0.08226235955953598, 0.09875474870204926, 0.1257227510213852, -0.04750223830342293, 0.13786503672599792, 0.15641377866268158, 0.11336056143045425, -0.05900012329220772, 0.09850677102804184, 0.07775065302848816, 0.058143652975559235, -0.06956177949905396, 0.04400576278567314, 0.04150458797812462, 0.043696071952581406, -0.09673808515071869, 0.05178917944431305, 0.07649359852075577, 0.08105742186307907, -0.08334275335073471, 0.06149664148688316, 0.061391375958919525, 0.05739351734519005, -0.07249901443719864, 0.06028883904218674, 0.038457244634628296, 0.02796054445207119, -0.0793890580534935, 0.017561739310622215, 0.023651903495192528, 0.00562878604978323, -0.09432071447372437, -0.00663791224360466, 0.027098873630166054, 0.041499678045511246, 0.02439510077238083, 0.03708246722817421, 0.033729188144207, 0.04475148394703865, 0.031328026205301285, 0.052807942032814026, 0.0523519404232502, 0.05415332689881325, 0.05006064474582672, 0.03816264867782593, 0.04691144451498985, 0.052263855934143066, 0.032815951853990555, 0.05229736119508743, 0.04553118720650673, 0.06343553960323334, 0.06262077391147614, 0.04716517776250839, 0.05230138823390007, 0.036051683127880096, 0.05446697399020195, 0.05389311909675598, 0.045247580856084824, 0.03668675944209099, 0.041285157203674316, 0.04545203223824501, 0.037979792803525925, 0.012318974360823631, 0.03128942474722862, 0.031647637486457825, 0.02787526696920395, 0.016901230439543724, 0.009451761841773987, 0.003846131032332778, 0.019193340092897415, 0.009060087613761425, -0.0024120749440044165, 0.00892388541251421, 0.021763956174254417, 0.03884232044219971, 0.030664650723338127, 0.025039399042725563, 0.024660170078277588, 0.03342963755130768, 0.015744566917419434, 0.01691683940589428, 0.03000137396156788, 0.024991493672132492, 0.03537494316697121, 0.012085110880434513, 0.019559616222977638, 0.09754972904920578], [-0.03138347342610359, -0.03153036907315254, -0.03109322302043438, -0.0320354662835598, -0.032140426337718964, -0.03200764209032059, -0.032280951738357544, -0.03204359859228134, -0.03203463554382324, -0.03197905048727989, -0.03177691623568535, -0.032057441771030426, -0.03174551948904991, -0.031629763543605804, -0.03239855915307999, -0.031496111303567886, -0.03160936012864113, -0.031519051641225815, -0.032515186816453934, -0.03159186989068985, -0.03193259984254837, -0.031518056988716125, -0.03162434324622154, -0.031577348709106445, -0.0319889597594738, -0.03200272098183632, -0.03189608082175255, -0.03205740079283714, -0.03148869425058365, -0.03166999667882919, -0.03217487782239914, -0.031799957156181335, -0.03220327943563461, -0.0323258601129055, -0.032442763447761536, -0.03247547149658203, -0.032388586550951004, -0.032533932477235794, -0.032510071992874146, -0.032873574644327164, -0.032402340322732925, -0.0319560244679451, -0.03304799273610115, -0.03239870071411133, -0.03224610537290573, -0.032485540956258774, -0.03224088251590729, -0.03154801204800606, -0.03186642378568649, -0.032439056783914566, -0.031382251530885696, -0.03181559592485428, -0.29250356554985046, -0.3153088688850403, -0.29145216941833496, -0.2902236580848694, 0.11322429776191711, 0.11365239322185516, 0.10514403134584427, 0.11471337825059891, -0.030210230499505997, -0.030741708353161812, -0.029675249010324478, -0.03160276263952255, -0.10933764278888702, -0.10892695188522339, -0.10987545549869537, -0.10991936177015305, 0.04124538600444794, 0.0392380990087986, 0.04457034543156624, 0.04243280366063118, 0.0317281074821949, 0.032457590103149414, 0.03246885910630226, 0.025767339393496513, -0.17294666171073914, -0.1717970222234726, -0.17525440454483032, -0.1754491925239563, -0.30371445417404175, -0.3191303014755249, -0.30900976061820984, -0.29816722869873047, 0.07676790654659271, 0.0766860768198967, 0.09566104412078857, -0.039531826972961426, 0.03733298182487488, 0.039325468242168427, 0.06567931175231934, 0.03847917169332504, 0.06406377255916595, 0.0634562224149704, 0.06543905287981033, 0.06341259926557541, -0.02978319488465786, -0.030223101377487183, -0.029661916196346283, -0.023607393726706505, -0.1424376517534256, -0.1426319032907486, -0.14186860620975494, -0.14286309480667114, 0.345340371131897], [0.1195773184299469, 0.11894943565130234, 0.11863087862730026, 0.1176377683877945, -0.056690964847803116, -0.05684647336602211, -0.0572478249669075, -0.05669179931282997, 0.13260746002197266, 0.13312549889087677, 0.131888747215271, 0.13283681869506836, -0.045062385499477386, -0.04449095204472542, -0.045632511377334595, -0.04425834119319916, 0.13915443420410156, 0.13890516757965088, 0.13894343376159668, 0.1373562067747116, -0.0917900875210762, -0.09183573722839355, -0.09166215360164642, -0.09269009530544281, 0.13831937313079834, 0.136841282248497, 0.1363237351179123, 0.1329008936882019, -0.08376973867416382, -0.08456733822822571, -0.0844256579875946, -0.08400391042232513, 0.2795351445674896, 0.2831994593143463, 0.2764703333377838, 0.30077165365219116, -0.11900646239519119, -0.11742803454399109, -0.11820349842309952, -0.11778806149959564, -0.1094687283039093, -0.10999420285224915, -0.11011110246181488, -0.11025480180978775, 0.10398175567388535, 0.10471262037754059, 0.10388778895139694, 0.1038178950548172, -0.02889338508248329, -0.030225133523344994, -0.028995849192142487, -0.030218377709388733, 0.04769688844680786, 0.04621429741382599, 0.04693993926048279, 0.04578409343957901, 0.04545080289244652, 0.04605155810713768, 0.04579043388366699, 0.046765394508838654, 0.04722381755709648, 0.04699196666479111, 0.04680943116545677, 0.04572640359401703, 0.04812958091497421, 0.04883037507534027, 0.04840604588389397, 0.04681156948208809, 0.04467425495386124, 0.04393423721194267, 0.04418357089161873, 0.04559560865163803, 0.04579107463359833, 0.04519355297088623, 0.046315573155879974, 0.04610823094844818, 0.04552744701504707, 0.04673466831445694, 0.045697376132011414, 0.045262712985277176, 0.046288084238767624, 0.04548676311969757, 0.046018872410058975, 0.04574166238307953, 0.047598887234926224, 0.04610699787735939, 0.04626945033669472, 0.04462825879454613, 0.05230014771223068, 0.05240314081311226, 0.04989594966173172, 0.05124912038445473, 0.05082310736179352, 0.050821077078580856, 0.05070153623819351, 0.04968398064374924, 0.04608893394470215, 0.04681380093097687, 0.046172965317964554, 0.04653824493288994, 0.04854939132928848, 0.04891837760806084, 0.04782994091510773, 0.04775126278400421, 0.0007581900572404265], [-0.16166472434997559, -0.1621038168668747, -0.15974697470664978, -0.16199898719787598, 0.24351781606674194, 0.24224112927913666, 0.2427954226732254, 0.24236056208610535, -0.10614053905010223, -0.1073419526219368, -0.10830695927143097, -0.10800256580114365, -0.4803832769393921, -0.4778130054473877, -0.4865573048591614, -0.47622811794281006, 0.09374423325061798, 0.09431695938110352, 0.0942288190126419, 0.09378813952207565, -0.09673531353473663, -0.09537545591592789, -0.09741366654634476, -0.09686256945133209, -0.5196190476417542, -0.5301060676574707, -0.5216531157493591, -0.5275377631187439, 0.08151400834321976, 0.08139900863170624, 0.08207187056541443, 0.08079751580953598, -0.3344523310661316, -0.3338293731212616, -0.3354773223400116, -0.3343283534049988, -0.07721256464719772, -0.0779922604560852, -0.07750047743320465, -0.07795923203229904, 0.10374145954847336, 0.10328805446624756, 0.10407646745443344, 0.1043318435549736, 0.05634463205933571, 0.057766564190387726, 0.05800876021385193, 0.05707787722349167, 0.05577725172042847, 0.05344884470105171, 0.05554890260100365, 0.055955883115530014, -0.011913268826901913, -0.010086720809340477, -0.009622735902667046, -0.011284125968813896, -0.019398532807826996, -0.01938832923769951, -0.020751677453517914, -0.01952052302658558, -0.013547766953706741, -0.01130068488419056, -0.013869295828044415, -0.012745938263833523, -0.010998040437698364, -0.011798628605902195, -0.011909020133316517, -0.011696109548211098, -0.017834456637501717, -0.019981348887085915, -0.01861749216914177, -0.0185705553740263, -0.00978799071162939, -0.011027350090444088, -0.009167947806417942, -0.011150766164064407, -0.014962401241064072, -0.015323922969400883, -0.014811038970947266, -0.0152311772108078, -0.016842611134052277, -0.018266264349222183, -0.01689065247774124, -0.018501970916986465, -0.009448866359889507, -0.011206614784896374, -0.01131181139498949, -0.01250376831740141, -0.014301384799182415, -0.014106029644608498, -0.015760857611894608, -0.015231247991323471, -0.014761875383555889, -0.01678490824997425, -0.014942330308258533, -0.017831595614552498, -0.016280321404337883, -0.01578284054994583, -0.018124213442206383, -0.01756240613758564, -0.01724168471992016, -0.016472967341542244, -0.01823982037603855, -0.017432603985071182, -0.0005084222066216171], [0.04591915383934975, -0.006559314206242561, 0.060810673981904984, 0.06441067159175873, 0.030246179550886154, -0.03002406284213066, 0.027847852557897568, 0.010911275632679462, -0.038153570145368576, -0.029152315109968185, -0.01907976157963276, 0.0004368775407783687, 0.125504732131958, 0.08502268046140671, 0.05924912914633751, 0.17057745158672333, -0.03674476593732834, 0.017794445157051086, 0.012056737206876278, 0.050685953348875046, 0.1418074071407318, 0.004864060319960117, 0.19199113547801971, 0.028651144355535507, -0.040205422788858414, -0.05321098864078522, -0.007204817607998848, 0.06475906819105148, 0.041928481310606, 0.050386276096105576, 0.09830363094806671, 0.10034254193305969, 0.0249747633934021, -0.04633045941591263, -0.021467752754688263, 0.046057283878326416, 0.06262533366680145, 0.08040350675582886, 0.08295051753520966, 0.12475366145372391, -0.009172714315354824, 0.0031030511017888784, 0.036393795162439346, 0.09885141253471375, 0.023451875895261765, 0.03730399161577225, -0.0027150653768330812, 0.023420123383402824, 0.1504921317100525, 0.0446120910346508, 0.21650177240371704, 0.04890796169638634, 0.0345040038228035, 0.01610577292740345, 0.06377649307250977, 0.09925444424152374, 0.08911365270614624, 0.06498656421899796, 0.11854992806911469, 0.10926739871501923, 0.08076202869415283, 0.009840255603194237, 0.11682774871587753, 0.11199986934661865, 0.007777382154017687, -0.030902262777090073, 0.05624574050307274, -0.007744576316326857, 0.01522494200617075, 0.0016496478347107768, 0.014222180470824242, 0.04755399376153946, -0.04447602480649948, -0.03226014971733093, -0.04775431379675865, -0.01836474798619747, -0.0327618271112442, 0.050504520535469055, -0.03867331147193909, 0.05545910820364952, 0.0035009211860597134, -0.01741107553243637, -0.023432228714227676, -0.005348802078515291, 0.07647617906332016, -0.014480034820735455, 0.06102227419614792, 0.0019970634020864964, 0.10629653930664062, 0.15041229128837585, 0.10464785993099213, 0.017155490815639496, -0.005804406013339758, 0.045023027807474136, 0.04216010868549347, 0.04858912155032158, 0.11625878512859344, 0.007860035635530949, 0.09818463772535324, 0.026151251047849655, 0.06708387285470963, 0.12492536753416061, 0.08260849863290787, 0.08918783813714981, -0.00169410090893507], [0.08604017645120621, 0.0876275897026062, 0.08729922771453857, 0.08759637176990509, 0.09385651350021362, 0.10052580386400223, 0.09961056709289551, 0.0900258868932724, 0.07681931555271149, 0.07663369923830032, 0.07912056893110275, 0.07821334153413773, -0.15633420646190643, -0.15463842451572418, -0.15422232449054718, -0.15846386551856995, 0.2050289511680603, 0.21803703904151917, 0.23259004950523376, 0.2317173331975937, 0.0402931310236454, 0.042317457497119904, 0.04109303280711174, 0.03922366723418236, -0.04678477719426155, -0.04480993375182152, -0.047071028500795364, -0.04833488538861275, 0.17248083651065826, 0.17190951108932495, 0.17963653802871704, 0.16467413306236267, -0.02484987862408161, -0.024728067219257355, -0.02321574091911316, -0.024149499833583832, 0.14002861082553864, 0.1355673223733902, 0.1353663206100464, 0.13811616599559784, 0.027041718363761902, 0.028612058609724045, 0.02922132983803749, 0.027194326743483543, -0.12826132774353027, -0.12826137244701385, -0.13051265478134155, -0.13003696501255035, -0.18992729485034943, -0.18714159727096558, -0.18910178542137146, -0.18727095425128937, 0.02861429750919342, 0.029650751501321793, 0.02910800278186798, 0.030608875676989555, 0.035718951374292374, 0.036445751786231995, 0.03691444918513298, 0.03653287515044212, 0.020442649722099304, 0.02239231951534748, 0.021011535078287125, 0.021779675036668777, 0.03301803767681122, 0.03636109456419945, 0.032700758427381516, 0.03229416534304619, 0.03460259363055229, 0.03290264308452606, 0.03480380028486252, 0.03338572382926941, 0.023418590426445007, 0.023114683106541634, 0.02390514500439167, 0.023920277133584023, 0.03346431627869606, 0.03290626034140587, 0.032052181661129, 0.03315982222557068, 0.028568744659423828, 0.029955849051475525, 0.026831822469830513, 0.03138231858611107, 0.02883657068014145, 0.029905781149864197, 0.029804501682519913, 0.030045580118894577, 0.02320200577378273, 0.02370375394821167, 0.02433103509247303, 0.023082083091139793, 0.023941295221447945, 0.025779440999031067, 0.025971898809075356, 0.028141889721155167, 0.029365671798586845, 0.03069675713777542, 0.03304383158683777, 0.02850409783422947, 0.028604675084352493, 0.029177948832511902, 0.03153378516435623, 0.03215440735220909, 0.007925123907625675], [0.028508078306913376, 0.02850642055273056, 0.02863043174147606, 0.029038069769740105, 0.02959437295794487, 0.02982376515865326, 0.02954147569835186, 0.02908353880047798, 0.028988229110836983, 0.0295253936201334, 0.02912123315036297, 0.029529273509979248, 0.02851356938481331, 0.029691793024539948, 0.028845874592661858, 0.02914787083864212, 0.03134278580546379, 0.03009171411395073, 0.031094636768102646, 0.030938873067498207, 0.030011478811502457, 0.030631864443421364, 0.03052505850791931, 0.030623337253928185, 0.028078200295567513, 0.02795787714421749, 0.028298432007431984, 0.028489496558904648, 0.02816355600953102, 0.02814117632806301, 0.02896484173834324, 0.02903047204017639, 0.030558042228221893, 0.029604576528072357, 0.030629148706793785, 0.03015897236764431, 0.03187780827283859, 0.03163645416498184, 0.03205578029155731, 0.031510669738054276, 0.029397329315543175, 0.030286293476819992, 0.03064871020615101, 0.030020499601960182, 0.03064991720020771, 0.030491415411233902, 0.030477182939648628, 0.030201679095625877, 0.02883150242269039, 0.029079081490635872, 0.029074272140860558, 0.02887667901813984, -0.0337664894759655, -0.033437248319387436, -0.03100533038377762, -0.03161633014678955, 0.048590000718832016, 0.049332864582538605, 0.043762415647506714, 0.050093162804841995, -0.0034508665557950735, -0.002024612156674266, -0.002751462161540985, -0.002413396956399083, 0.08910976350307465, 0.08977048099040985, 0.08977314829826355, 0.090416319668293, 0.09175784140825272, 0.09117758274078369, 0.11002496629953384, 0.0923181027173996, 0.05048951879143715, 0.04976027458906174, 0.05361923947930336, 0.05427716299891472, -0.3284267485141754, -0.3290330767631531, -0.3329928517341614, -0.330718457698822, -0.20257976651191711, -0.20285199582576752, -0.20074354112148285, -0.20151710510253906, 0.23115772008895874, 0.23123008012771606, 0.18404975533485413, 0.23116357624530792, 0.2698705494403839, 0.2535274624824524, 0.2162797600030899, 0.2618974447250366, 0.15796634554862976, 0.1558806598186493, 0.16328521072864532, 0.1570393294095993, 0.09941130876541138, 0.0986815094947815, 0.10152289271354675, 0.10151240229606628, -0.2058142125606537, -0.20593427121639252, -0.20378537476062775, -0.20571213960647583, 0.20409271121025085], [0.03229765594005585, 0.03311917930841446, 0.03706258907914162, 0.033605530858039856, -0.2734382450580597, -0.27239421010017395, -0.2781491279602051, -0.2723205089569092, -0.4713400900363922, -0.46832039952278137, -0.47616949677467346, -0.469844251871109, -0.29865336418151855, -0.29689061641693115, -0.29654935002326965, -0.3017881214618683, -0.33431917428970337, -0.3356624245643616, -0.33137476444244385, -0.33643075823783875, 0.2787363827228546, 0.27876049280166626, 0.27832406759262085, 0.2773798704147339, 0.181650310754776, 0.1815395951271057, 0.18171875178813934, 0.18035288155078888, 0.0786055400967598, 0.07850592583417892, 0.07713622599840164, 0.07737711817026138, 0.20230023562908173, 0.20273420214653015, 0.2032109498977661, 0.20158708095550537, -0.09050164371728897, -0.09226741641759872, -0.09238877892494202, -0.09003020823001862, -0.1615987867116928, -0.15942902863025665, -0.16402184963226318, -0.16424953937530518, -0.17741729319095612, -0.17633585631847382, -0.17599889636039734, -0.17469680309295654, -0.14919152855873108, -0.15206854045391083, -0.15176543593406677, -0.14933297038078308, -0.026270421221852303, -0.022882219403982162, -0.027046870440244675, -0.02295379713177681, -0.022819945588707924, -0.02355027012526989, -0.023429814726114273, -0.02043946646153927, -0.018504945561289787, -0.018773533403873444, -0.01910300739109516, -0.019180210307240486, -0.01667669415473938, -0.01404452882707119, -0.015452640131115913, -0.017613567411899567, -0.02204940840601921, -0.0223237331956625, -0.021759210154414177, -0.020554693415760994, -0.023668738082051277, -0.02439374290406704, -0.024661703035235405, -0.025230400264263153, -0.02411823906004429, -0.023761259391903877, -0.026536015793681145, -0.027926886454224586, -0.027152089402079582, -0.02677580900490284, -0.029041830450296402, -0.028140515089035034, -0.02391224354505539, -0.02612527832388878, -0.023335304111242294, -0.023749589920043945, -0.02352781407535076, -0.020585767924785614, -0.02245241217315197, -0.021144762635231018, -0.019594348967075348, -0.01869386062026024, -0.022241778671741486, -0.02001093327999115, -0.021637463942170143, -0.023022206500172615, -0.02324347384274006, -0.018546871840953827, -0.023281238973140717, -0.02383817359805107, -0.020878233015537262, -0.02038954570889473, 0.0010389109374955297], [0.10936056822538376, -0.05543593689799309, 0.08685380965471268, 0.08389604836702347, 0.10183899104595184, -0.05264587700366974, 0.08766944706439972, 0.09185968339443207, 0.13332802057266235, -0.05133935436606407, 0.10495558381080627, 0.10028740763664246, 0.1042039766907692, -0.05651006102561951, 0.0947861522436142, 0.09733927994966507, 0.11950045824050903, -0.04749980941414833, 0.10919980704784393, 0.11717826128005981, 0.11061789095401764, -0.053864579647779465, 0.08119744807481766, 0.08369455486536026, 0.10000000149011612, -0.06078653037548065, 0.0861552506685257, 0.09295561909675598, 0.08056428283452988, -0.06969849765300751, 0.05816250666975975, 0.0638931542634964, 0.11597949266433716, -0.06188572198152542, 0.08921213448047638, 0.08756836503744125, 0.08859538286924362, -0.06223858520388603, 0.0722162127494812, 0.07187093794345856, 0.11080712825059891, -0.05644677206873894, 0.09430751949548721, 0.0919138714671135, 0.10657720267772675, -0.0662631019949913, 0.08069173991680145, 0.09190384298563004, 0.09383385628461838, -0.059187956154346466, 0.06260430812835693, 0.08211464434862137, 0.027195019647479057, 0.03247592970728874, 0.023755276575684547, 0.024781182408332825, -0.0009192407596856356, -0.0011877688812091947, 0.0006723242113366723, 0.0011030395980924368, 0.03392662853002548, 0.030279595404863358, 0.036091674119234085, 0.035602085292339325, 0.03975086286664009, 0.04030828922986984, 0.03616398572921753, 0.049552567303180695, 0.011053855530917645, 0.015494103543460369, 0.026398589834570885, 0.017512371763586998, 0.02940993383526802, 0.02334688790142536, 0.024548061192035675, 0.03503752127289772, 0.025565726682543755, 0.01902182400226593, 0.02303793467581272, 0.01906845159828663, 0.028418315574526787, 0.029389210045337677, 0.028127945959568024, 0.028452089056372643, 0.040629975497722626, 0.043750643730163574, 0.024708399549126625, 0.0342898927628994, 0.004953788127750158, 0.007956326939165592, 0.009520179592072964, 0.011501229368150234, 0.009768045507371426, 0.0059690410271286964, 0.0047058830969035625, 0.008064253255724907, 0.02579689957201481, 0.02544701099395752, 0.02829589881002903, 0.03411107510328293, 0.0235280841588974, 0.023071186617016792, 0.025375157594680786, 0.02418339252471924, 0.24216751754283905], [0.09803036600351334, 0.07389090210199356, 0.06419715285301208, 0.05829135328531265, 0.07250917702913284, 0.04263884201645851, 0.04523251950740814, 0.05375901982188225, 0.020020870491862297, -0.018650267273187637, -0.020098209381103516, -0.007740437518805265, -0.053101908415555954, -0.06082286313176155, -0.08481010794639587, -0.07788403332233429, 0.17025449872016907, 0.1564416140317917, 0.137125164270401, 0.16893911361694336, -0.0014691714895889163, -0.03123616799712181, -0.025058209896087646, -0.04468116536736488, -0.05874727666378021, -0.06760989874601364, -0.07244910299777985, -0.07004780322313309, -0.04570547118782997, -0.051881931722164154, -0.059306900948286057, -0.048406995832920074, 0.006934788543730974, -0.02136961929500103, -0.05418984964489937, -0.05568097531795502, 0.1009252518415451, 0.07448703050613403, 0.053185977041721344, 0.05416636914014816, 0.0961984246969223, 0.08262057602405548, 0.07685551792383194, 0.0907580703496933, 0.13309647142887115, 0.0953957587480545, 0.09149888157844543, 0.10992668569087982, -0.15726958215236664, -0.17270314693450928, -0.1742761880159378, -0.17914000153541565, 0.04000074788928032, 0.03037727251648903, 0.023521430790424347, 0.03157291188836098, 0.0049208602868020535, -0.0026301543693989515, 0.007912961766123772, 0.003441054141148925, 0.05277528986334801, 0.041064031422138214, 0.052358146756887436, 0.059493761509656906, 0.027394099161028862, 0.006202142219990492, 0.024029480293393135, 0.021008359268307686, 0.009874889627099037, 0.0017747509991750121, 0.012126524932682514, -0.0006088375230319798, 0.02505611814558506, 0.02117392234504223, 0.02091125026345253, 0.025563523173332214, 0.027020873501896858, 0.030201006680727005, 0.03334125503897667, 0.03475210443139076, 0.02664151042699814, 0.028343141078948975, 0.030628887936472893, 0.030126528814435005, 0.03395339474081993, 0.030332425609230995, 0.049085572361946106, 0.05364830419421196, 0.00903510395437479, 0.011505824513733387, 0.0010411756811663508, 0.003382686758413911, -0.014328991062939167, -0.014249679632484913, -0.013020403683185577, -0.015547198243439198, 0.012083681300282478, -0.00208792625926435, 0.0024464516900479794, 0.00769455824047327, 0.0650719627737999, 0.06496385484933853, 0.05529581755399704, 0.06148631125688553, 0.16972887516021729], [-0.10081213712692261, -0.10191028565168381, -0.10416062921285629, -0.10405778884887695, 0.17795391380786896, 0.17377768456935883, 0.1740313470363617, 0.17444388568401337, 0.23510918021202087, 0.23351430892944336, 0.23281672596931458, 0.23602163791656494, -0.2043345868587494, -0.1996249258518219, -0.2047899216413498, -0.2040119171142578, 0.30643439292907715, 0.30303263664245605, 0.2937502861022949, 0.3098834753036499, 0.019597342237830162, 0.01955523155629635, 0.016179773956537247, 0.010788141749799252, 0.02668454870581627, 0.022245483472943306, 0.02161567471921444, 0.0205666646361351, 0.1564180701971054, 0.16515669226646423, 0.17015311121940613, 0.1701146364212036, -0.061650075018405914, -0.06457608193159103, -0.06150006130337715, -0.06572405248880386, 0.11337760835886002, 0.11451658606529236, 0.1096249669790268, 0.11142034083604813, -0.1891760379076004, -0.19044683873653412, -0.1869313269853592, -0.18667009472846985, 0.11733639240264893, 0.11566334217786789, 0.11082392930984497, 0.1037144884467125, 0.12864679098129272, 0.1264694482088089, 0.12324316054582596, 0.11919152736663818, 0.04034038633108139, 0.04567308351397514, 0.042620766907930374, 0.043294232338666916, 0.0417092964053154, 0.039116546511650085, 0.037277549505233765, 0.04056587442755699, 0.039707548916339874, 0.03756093606352806, 0.04075183719396591, 0.03849869593977928, 0.04915918782353401, 0.05636311322450638, 0.05059041827917099, 0.05081557109951973, 0.05226483196020126, 0.05304602161049843, 0.04824293032288551, 0.05310455337166786, 0.03671737015247345, 0.038362957537174225, 0.03817952424287796, 0.03659845516085625, 0.042967114597558975, 0.04444681107997894, 0.04387931898236275, 0.04372718557715416, 0.04414103180170059, 0.04395701736211777, 0.04067428410053253, 0.04389556497335434, 0.04694857820868492, 0.04325734078884125, 0.04719620570540428, 0.038076382130384445, 0.046751655638217926, 0.0468890443444252, 0.046424414962530136, 0.04600203037261963, 0.05384577810764313, 0.05217019096016884, 0.055662740021944046, 0.05452778562903404, 0.03943295776844025, 0.041424546390771866, 0.042093392461538315, 0.03945031389594078, 0.04047749191522598, 0.0432438887655735, 0.04317929223179817, 0.04297242686152458, -0.0005753324367105961], [-0.042185381054878235, -0.04219155013561249, -0.041106075048446655, -0.04135414958000183, 0.03660154715180397, 0.03578625246882439, 0.03597360476851463, 0.03634331375360489, 0.013951510190963745, 0.0143954548984766, 0.014518225565552711, 0.01447069551795721, 0.062000468373298645, 0.06056247651576996, 0.061025429517030716, 0.06150239333510399, 0.0655129924416542, 0.06593797355890274, 0.06515909731388092, 0.0656612291932106, 0.1067124754190445, 0.10771665722131729, 0.10702059417963028, 0.10848067700862885, 0.02002108469605446, 0.019038235768675804, 0.018794052302837372, 0.020797502249479294, 0.042546145617961884, 0.041422128677368164, 0.042587339878082275, 0.042063094675540924, -0.17509394884109497, -0.17513149976730347, -0.1753457635641098, -0.17482344806194305, -0.36190924048423767, -0.36155325174331665, -0.36071789264678955, -0.35968396067619324, 0.12466807663440704, 0.12431710958480835, 0.12417802214622498, 0.12525418400764465, -0.08394017070531845, -0.08462521433830261, -0.08321631699800491, -0.0840989276766777, 0.3050495386123657, 0.30517324805259705, 0.3057238459587097, 0.3059817850589752, -0.0024809371680021286, -0.0019136564806103706, -0.002600859384983778, -0.001781539642252028, -0.0030532865785062313, -0.0026894286274909973, -0.0030548616778105497, -0.002844384405761957, -0.003763236105442047, -0.0022219333332031965, -0.002246985211968422, -0.0026024552062153816, -0.004048976115882397, -0.003631290514022112, -0.005422365386039019, -0.003731036325916648, -0.004160844720900059, -0.00392553023993969, -0.004737495444715023, -0.0035703550092875957, -0.006161584053188562, -0.006375929806381464, -0.007176821585744619, -0.006852789781987667, -0.0037149200215935707, -0.0032825579401105642, -0.0035089515149593353, -0.002494050422683358, -0.0019471667474135756, -0.002728579333052039, -0.004146569408476353, -0.0029148932080715895, -0.0008621521992608905, 1.4830541658739094e-05, 2.8601629310287535e-05, -0.00041022535879164934, 0.0005678916350007057, -0.00013175256026443094, -7.318267307709903e-05, -0.0006036884733475745, -0.006740190088748932, -0.007495040539652109, -0.007766281720250845, -0.007595549803227186, -0.0008144140592776239, 0.00025752460351213813, 0.0014800922945141792, -0.0008634089026600122, -0.005985448136925697, -0.004857614636421204, -0.005514818709343672, -0.005917232017964125, 0.002609718358144164], [-0.0936085656285286, -0.09327585995197296, -0.09369175881147385, -0.09349988400936127, -0.3723330795764923, -0.3718472123146057, -0.37207943201065063, -0.3721861243247986, 0.3629983961582184, 0.36342930793762207, 0.3635295629501343, 0.3637905418872833, 0.16221925616264343, 0.16165588796138763, 0.16116167604923248, 0.1617611199617386, -0.005094214342534542, -0.004803553689271212, -0.003921281546354294, -0.00480220653116703, -0.14565524458885193, -0.14588306844234467, -0.14527592062950134, -0.1448972225189209, -0.42329761385917664, -0.42217200994491577, -0.4226461946964264, -0.42184901237487793, 0.15919989347457886, 0.1582738608121872, 0.15860053896903992, 0.15846453607082367, 0.06786146014928818, 0.0675971731543541, 0.06850697100162506, 0.0677490085363388, -0.0392279252409935, -0.03895799443125725, -0.038565196096897125, -0.03972726687788963, -0.022383665665984154, -0.022364133968949318, -0.02253701724112034, -0.023157188668847084, 0.010522693395614624, 0.01132363174110651, 0.010767088271677494, 0.010763414204120636, -0.01201252918690443, -0.011314610950648785, -0.01159034762531519, -0.01177279558032751, -0.002968676621094346, -0.002619783394038677, -0.0027355155907571316, -0.0028481909539550543, -0.00365551863797009, -0.0029630521312355995, -0.0032529402524232864, -0.003083801595494151, -0.010426164604723454, -0.010245495475828648, -0.010254583321511745, -0.010174352675676346, -0.007740331813693047, -0.007044849451631308, -0.007093026302754879, -0.007260482292622328, -0.00491354102268815, -0.005280796438455582, -0.004556500352919102, -0.00488855317234993, -0.005485632456839085, -0.005243856925517321, -0.005195616278797388, -0.0051247053779661655, -0.005982313305139542, -0.005317152012139559, -0.0050621251575648785, -0.006277661304920912, -0.009149362333118916, -0.007903910242021084, -0.008028657175600529, -0.007290013134479523, -0.006411139853298664, -0.007668840233236551, -0.007013585418462753, -0.0055495621636509895, -0.005715178791433573, -0.006292654667049646, -0.005495312623679638, -0.005491551943123341, -0.0066484990529716015, -0.006372940726578236, -0.00617342721670866, -0.006097895093262196, -0.005888336803764105, -0.006572607439011335, -0.005618158262223005, -0.006089808419346809, -0.005101723596453667, -0.0068253097124397755, -0.0050160582177340984, -0.0047052279114723206, -0.0012576666194945574], [-0.13607348501682281, -0.13594241440296173, -0.13565194606781006, -0.13460732996463776, 0.1258024126291275, 0.11921262741088867, 0.12254700809717178, 0.12302792072296143, -0.09334488958120346, -0.0950278639793396, -0.09504279494285583, -0.09554658085107803, -0.06280192732810974, -0.06653130799531937, -0.06666970252990723, -0.06397072970867157, 0.0839531198143959, 0.08188202977180481, 0.08049610257148743, 0.08197840303182602, -0.1579684168100357, -0.15540149807929993, -0.15587924420833588, -0.15546593070030212, 0.18682743608951569, 0.18381094932556152, 0.18732377886772156, 0.1882811337709427, 0.15699166059494019, 0.15394866466522217, 0.1553465723991394, 0.1577148735523224, -0.2973765432834625, -0.29668766260147095, -0.2954588532447815, -0.2959352135658264, 0.18434610962867737, 0.17902794480323792, 0.18704290688037872, 0.18532371520996094, -0.10386780649423599, -0.10475780814886093, -0.10266943275928497, -0.10381543636322021, 0.05163289234042168, 0.050843626260757446, 0.05123814940452576, 0.05099418759346008, 0.2133360654115677, 0.21290481090545654, 0.21806496381759644, 0.2201768308877945, 0.023632612079381943, 0.024864643812179565, 0.024151194840669632, 0.025447053834795952, 0.024100033566355705, 0.024280639365315437, 0.02341853454709053, 0.024177351966500282, 0.023842142894864082, 0.022903144359588623, 0.023540915921330452, 0.022907190024852753, 0.02281518094241619, 0.023268962278962135, 0.02214694581925869, 0.025362251326441765, 0.025086143985390663, 0.026753578335046768, 0.025976814329624176, 0.02450830675661564, 0.025265272706747055, 0.023837503045797348, 0.025208378210663795, 0.023053007200360298, 0.017713114619255066, 0.018168533220887184, 0.01885458454489708, 0.016232438385486603, 0.01686934195458889, 0.017745129764080048, 0.017885934561491013, 0.020490817725658417, 0.02000160701572895, 0.022612852975726128, 0.022648395970463753, 0.02001102641224861, 0.02007412537932396, 0.022098563611507416, 0.022026628255844116, 0.020970989018678665, 0.021887829527258873, 0.024646218866109848, 0.02142113447189331, 0.02195095270872116, 0.02241281419992447, 0.02311812713742256, 0.022057941183447838, 0.024211669340729713, 0.020142754539847374, 0.021306438371539116, 0.02215447835624218, 0.022377846762537956, 0.0036637240555137396], [-0.010273911990225315, -0.010742217302322388, -0.010368375107645988, -0.011002390645444393, -0.011412709951400757, -0.011375230737030506, -0.01068036537617445, -0.011065257713198662, -0.009764708578586578, -0.010159135796129704, -0.01034057978540659, -0.010286696255207062, -0.010990307666361332, -0.01088155061006546, -0.011327872984111309, -0.010715518146753311, -0.009963239543139935, -0.010665256530046463, -0.010285557247698307, -0.010504905134439468, -0.010740806348621845, -0.010253523476421833, -0.010505403392016888, -0.010963509790599346, -0.010790697298943996, -0.010722855105996132, -0.011606987565755844, -0.011216819286346436, -0.010602218098938465, -0.011104762554168701, -0.010952894575893879, -0.011164514347910881, -0.010829389095306396, -0.010366896167397499, -0.010756534524261951, -0.011328556574881077, -0.011360500007867813, -0.011271840892732143, -0.011238819919526577, -0.010924815200269222, -0.010935247875750065, -0.010780262760818005, -0.011597057804465294, -0.010609768331050873, -0.011062473058700562, -0.011089353822171688, -0.01114348229020834, -0.010423862375319004, -0.010062010958790779, -0.010041307657957077, -0.010528560727834702, -0.009782268665730953, 0.0703090950846672, 0.07193602621555328, 0.07154624909162521, 0.07153238356113434, -0.1899821162223816, -0.19097262620925903, -0.201442688703537, -0.19192273914813995, -0.2028510421514511, -0.2135792225599289, -0.20350074768066406, -0.20100678503513336, 0.059491973370313644, 0.0601014569401741, 0.060082219541072845, 0.06075407937169075, 0.027845732867717743, 0.027520406991243362, 0.024077394977211952, 0.02485426515340805, -0.10171496868133545, -0.1005227193236351, -0.10020172595977783, -0.10614333301782608, 0.03470916673541069, 0.034788694232702255, 0.03378288447856903, 0.03292219713330269, 0.027445614337921143, 0.0261540524661541, 0.02624189481139183, 0.02734358236193657, -0.06080934405326843, -0.059924591332674026, -0.06258416175842285, -0.044253360480070114, 0.10063163936138153, 0.10048095881938934, 0.09432940185070038, 0.0995776504278183, 0.047967277467250824, 0.04832003638148308, 0.04910293221473694, 0.04701519012451172, 0.10236462205648422, 0.10185997933149338, 0.10235537588596344, 0.1006195992231369, -0.20999592542648315, -0.20615382492542267, -0.2007445991039276, -0.20417392253875732, 0.29968252778053284], [0.00929907988756895, 0.009507736191153526, 0.009418544359505177, 0.00861893966794014, 0.010030901059508324, 0.009689223021268845, 0.009600303135812283, 0.009474335238337517, 0.008741050958633423, 0.009333557449281216, 0.009014188311994076, 0.008649623021483421, 0.008767380379140377, 0.00890375953167677, 0.008382117375731468, 0.00869031436741352, 0.009715832769870758, 0.009915413334965706, 0.010431685484945774, 0.010192136280238628, 0.010910176672041416, 0.01040853001177311, 0.011077631264925003, 0.010891416110098362, 0.010514412075281143, 0.01036687009036541, 0.010855302214622498, 0.010732199065387249, 0.011502471752464771, 0.011322889477014542, 0.01118457317352295, 0.011128089390695095, 0.009117178618907928, 0.009230145253241062, 0.009900473058223724, 0.009560026228427887, 0.010039497166872025, 0.009522841311991215, 0.01033400371670723, 0.00960278045386076, 0.009603292681276798, 0.009252840653061867, 0.010043755173683167, 0.0095556965097785, 0.010092785581946373, 0.009457969106733799, 0.0097725261002779, 0.009697670117020607, 0.009392199106514454, 0.009354274719953537, 0.009476741775870323, 0.009697181172668934, -0.3008659780025482, -0.2986595928668976, -0.29965418577194214, -0.2965334355831146, -0.2614190876483917, -0.25994518399238586, -0.24858413636684418, -0.2548503875732422, -0.21775144338607788, -0.21840085089206696, -0.21634401381015778, -0.21716009080410004, -0.4287959337234497, -0.4287518262863159, -0.4289810061454773, -0.42648592591285706, 0.1812022626399994, 0.18142084777355194, 0.1869870126247406, 0.18044298887252808, 0.20561550557613373, 0.2060958743095398, 0.20680637657642365, 0.21002799272537231, 0.2938316762447357, 0.2937960922718048, 0.29652056097984314, 0.2944797873497009, 0.19032184779644012, 0.19008438289165497, 0.19176334142684937, 0.18989470601081848, 0.3684346377849579, 0.36751192808151245, 0.3512478172779083, 0.3810761272907257, 0.08641228079795837, 0.08715856820344925, 0.08579327166080475, 0.0856587216258049, -0.08804959803819656, -0.08946522325277328, -0.08889254182577133, -0.08880919218063354, -0.16431443393230438, -0.1663324236869812, -0.16426321864128113, -0.15327255427837372, -0.11742577701807022, -0.11815040558576584, -0.11729869246482849, -0.11970381438732147, 0.12103231251239777], [0.05058349296450615, 0.05080142244696617, 0.05034506320953369, 0.05080127716064453, 0.05027766525745392, 0.04971057176589966, 0.050482310354709625, 0.05044490844011307, 0.05038288235664368, 0.05041056126356125, 0.05029638484120369, 0.05076127126812935, 0.05040415748953819, 0.0505392849445343, 0.05026349425315857, 0.050438929349184036, 0.049343038350343704, 0.04947972670197487, 0.04915300011634827, 0.04946661368012428, 0.051071442663669586, 0.05082119628787041, 0.051205385476350784, 0.051090825349092484, 0.05015788599848747, 0.04998532310128212, 0.050205957144498825, 0.04998217895627022, 0.05103510990738869, 0.05114969611167908, 0.051041848957538605, 0.05137468874454498, 0.050091587007045746, 0.04999692365527153, 0.05000637099146843, 0.05023171752691269, 0.049251753836870193, 0.04904147610068321, 0.049542251974344254, 0.049032725393772125, 0.04962668940424919, 0.04961221665143967, 0.04972761869430542, 0.049895841628313065, 0.04950850084424019, 0.04912582412362099, 0.049218934029340744, 0.04950586333870888, 0.049937229603528976, 0.04983537644147873, 0.05017571896314621, 0.04997318610548973, 0.024349788203835487, 0.024742646142840385, 0.025337286293506622, 0.02337256819009781, -0.01610853150486946, -0.01641121134161949, -0.011114195920526981, -0.01733945682644844, 0.18881632387638092, 0.18936215341091156, 0.18848130106925964, 0.18863989412784576, 0.10563325881958008, 0.10515495389699936, 0.10381074994802475, 0.10490768402814865, 0.31854212284088135, 0.3186835050582886, 0.31676533818244934, 0.31860920786857605, 0.05418594926595688, 0.05368896201252937, 0.053209975361824036, 0.0538041777908802, 0.005134748760610819, 0.00572611577808857, 0.0052139353938400745, 0.004920726642012596, 0.2428552657365799, 0.24224154651165009, 0.2426312416791916, 0.24262845516204834, -0.03976834565401077, -0.03998386114835739, -0.04436803609132767, 0.26715460419654846, -0.2767944633960724, -0.2772502303123474, -0.2859744727611542, -0.27712443470954895, -0.329039603471756, -0.33013296127319336, -0.3282730281352997, -0.32744300365448, -0.29813525080680847, -0.29869335889816284, -0.30083489418029785, -0.28891539573669434, -0.2757114768028259, -0.275033175945282, -0.2762439250946045, -0.27534088492393494, -0.393603652715683], [-0.028785403817892075, -0.028907563537359238, -0.02876994200050831, -0.029056454077363014, -0.029577944427728653, -0.0300997756421566, -0.029626954346895218, -0.03008653223514557, -0.030225250869989395, -0.030821533873677254, -0.030306313186883926, -0.03055063635110855, -0.029762117192149162, -0.02986789308488369, -0.030040236189961433, -0.029378388077020645, -0.028014466166496277, -0.02861016057431698, -0.028212444856762886, -0.028215521946549416, -0.028823861852288246, -0.028754036873579025, -0.028791973367333412, -0.029017090797424316, -0.029293667525053024, -0.02820376120507717, -0.02849043533205986, -0.028790079057216644, -0.030418328940868378, -0.03037819266319275, -0.03000005893409252, -0.030230972915887833, -0.028933759778738022, -0.0286483746021986, -0.02775559015572071, -0.028916293755173683, -0.02810855768620968, -0.027013950049877167, -0.026741884648799896, -0.026310546323657036, -0.02853861078619957, -0.028430424630641937, -0.027636583894491196, -0.02731390856206417, -0.02865370735526085, -0.028946595266461372, -0.029856475070118904, -0.028872735798358917, -0.0292770117521286, -0.029193218797445297, -0.029261240735650063, -0.0297844260931015, -0.3560869097709656, -0.35867083072662354, -0.36991167068481445, -0.3586512804031372, -0.056150466203689575, -0.05640001595020294, -0.048448074609041214, -0.05583065375685692, 0.1490662544965744, 0.1485276222229004, 0.14543671905994415, 0.14890199899673462, 0.03187539055943489, 0.030067026615142822, 0.03042585588991642, 0.03105137310922146, 0.016533374786376953, 0.01588243804872036, 0.01534959301352501, 0.017455482855439186, 0.0020649863872677088, 0.001047954661771655, 0.0022615669295191765, 0.00310198194347322, 0.08842362463474274, 0.08729448914527893, 0.08708052337169647, 0.08760126680135727, -0.09986303746700287, -0.10096288472414017, -0.10101727396249771, -0.10006596893072128, -0.25195279717445374, -0.25093337893486023, -0.36459141969680786, -0.2906119227409363, -0.3367311954498291, -0.3326079249382019, -0.3604481518268585, -0.33785387873649597, -0.20417678356170654, -0.2034877985715866, -0.20512211322784424, -0.20407092571258545, 0.019638722762465477, 0.02144654281437397, 0.022617969661951065, 0.007974445819854736, -0.0367112010717392, -0.037227608263492584, -0.037710048258304596, -0.03652346879243851, 0.2947971820831299], [-0.07713260501623154, -0.07808350771665573, -0.07970284670591354, -0.07918722182512283, 0.09630953520536423, 0.09465090185403824, 0.094114750623703, 0.09297654032707214, 0.07731161266565323, 0.06813753396272659, 0.06661750376224518, 0.0662284716963768, 0.1885034441947937, 0.19081410765647888, 0.19184747338294983, 0.16221514344215393, 0.12139742076396942, 0.11706838011741638, 0.12082713097333908, 0.12096226215362549, 0.1287883073091507, 0.12123937159776688, 0.11992962658405304, 0.11802923679351807, 0.11813200265169144, 0.11302415281534195, 0.12435093522071838, 0.11883632093667984, -0.09525416791439056, -0.10090786218643188, -0.10245873034000397, -0.10185546427965164, -0.041200533509254456, -0.04107154160737991, -0.04049796983599663, -0.042729370296001434, 0.16919639706611633, 0.13467034697532654, 0.1752016246318817, 0.15739941596984863, -0.10181105136871338, -0.09803400188684464, -0.10153362154960632, -0.10238921642303467, -0.09614825248718262, -0.09824837744235992, -0.0966738760471344, -0.09543213248252869, 0.1300608366727829, 0.13445228338241577, 0.1746998429298401, 0.13574887812137604, 0.047625910490751266, 0.04591849818825722, 0.04744245111942291, 0.043810177594423294, 0.039725687354803085, 0.03630129247903824, 0.03860274329781532, 0.040129777044057846, 0.0405060276389122, 0.038144439458847046, 0.03578567877411842, 0.039699092507362366, 0.038262154906988144, 0.03575945645570755, 0.03582625463604927, 0.03679336979985237, 0.034234508872032166, 0.03281938657164574, 0.030959589406847954, 0.0313577838242054, 0.040077392011880875, 0.03916187211871147, 0.040412142872810364, 0.041778385639190674, 0.03396790102124214, 0.03689923137426376, 0.03670378774404526, 0.038626302033662796, 0.04757913947105408, 0.047639548778533936, 0.048686832189559937, 0.04774697124958038, 0.04738530144095421, 0.05013226345181465, 0.04577772319316864, 0.049941591918468475, 0.03744740039110184, 0.0387258417904377, 0.0360078327357769, 0.03779231011867523, 0.04604806751012802, 0.04687900096178055, 0.0430249460041523, 0.0451698899269104, 0.048932820558547974, 0.049486931413412094, 0.048435721546411514, 0.047550249844789505, 0.04286561161279678, 0.043577130883932114, 0.04065050557255745, 0.0436805859208107, -0.0005792542360723019], [-0.25000864267349243, -0.311313271522522, -0.29845938086509705, 0.1257496029138565, -0.25161126255989075, -0.27417635917663574, -0.2623541057109833, 0.03812989965081215, -0.24659666419029236, -0.24973073601722717, -0.2357347011566162, 0.017312824726104736, -0.3030644357204437, -0.3096694052219391, -0.3034364581108093, 0.1842738538980484, -0.25772592425346375, -0.2235468029975891, -0.2523919939994812, 0.12165194749832153, -0.2676682770252228, -0.24352790415287018, -0.25059032440185547, 0.1771695464849472, -0.28887590765953064, -0.250699907541275, -0.27634674310684204, 0.05633868649601936, -0.2658117115497589, -0.25093552470207214, -0.25330013036727905, 0.0698777362704277, -0.13723991811275482, -0.11332856118679047, -0.10772095620632172, 0.22185690701007843, -0.26101624965667725, -0.26122263073921204, -0.27944207191467285, 0.11996852606534958, -0.28417736291885376, -0.2887345552444458, -0.2910468578338623, 0.1040133684873581, -0.22718723118305206, -0.23779447376728058, -0.23623476922512054, 0.15365645289421082, -0.25958701968193054, -0.20268584787845612, -0.2356225848197937, 0.10493316501379013, -0.07175100594758987, -0.07839521020650864, -0.07562566548585892, -0.09328435361385345, -0.07332509756088257, -0.06822321563959122, -0.06314463913440704, -0.0704716369509697, -0.0511171817779541, -0.07315541058778763, -0.09608450531959534, -0.10023301839828491, -0.06993837654590607, -0.09264238178730011, -0.07629789412021637, -0.0689098984003067, -0.06884577125310898, -0.06846793740987778, -0.07147521525621414, -0.06496309489011765, -0.07816027849912643, -0.09398069232702255, -0.09892579168081284, -0.08051950484514236, -0.07270917296409607, -0.08413316309452057, -0.06581268459558487, -0.0780273899435997, -0.07277941703796387, -0.09538669139146805, -0.10536662489175797, -0.07969802618026733, -0.08494847267866135, -0.07063941657543182, -0.06524910777807236, -0.0810062512755394, -0.08630343526601791, -0.06207980588078499, -0.05971452593803406, -0.06433650106191635, -0.07861761003732681, -0.05333538353443146, -0.05974329635500908, -0.05333511531352997, -0.07077201455831528, -0.07492304593324661, -0.07288195192813873, -0.07177696377038956, -0.07014389336109161, -0.07089857012033463, -0.08487338572740555, -0.06498748064041138, -0.015760520473122597], [-0.0021503670141100883, -0.0032017386984080076, -0.002606745110824704, -0.0033390766475349665, 0.0012775922659784555, 0.001725398120470345, 0.0020196139812469482, 0.0015166589291766286, -0.00013262407446745783, -0.0008034700294956565, -0.00029178697150200605, 0.001034785294905305, -0.004437884781509638, -0.005299468990415335, -0.004363538697361946, -0.006077609956264496, -0.0032020783983170986, -0.0034748679026961327, -0.0038284959737211466, -0.0035902259405702353, 0.0004959150101058185, -0.0021931049413979053, -0.0017205856274813414, -0.00039336635381914675, -0.005002385005354881, -0.0045879799872636795, -0.005298287142068148, -0.0058494326658546925, -0.006835253443568945, -0.008895202539861202, -0.006548237521201372, -0.007091355510056019, -0.0020893062464892864, -0.001961479429155588, -0.0034548649564385414, -0.003286015475168824, 0.00022771934163756669, 0.0004094713949598372, -0.001293950597755611, 0.0008249583188444376, 0.0013582732062786818, 0.0006818288820795715, -0.004699458833783865, 0.001203050254844129, -7.406514487229288e-05, 0.0009729772573336959, -0.000870811112690717, -0.0004376682045403868, -0.00380041915923357, -0.005232283379882574, -0.004773181863129139, -0.004894674755632877, -0.04084883630275726, -0.0378446988761425, -0.03821539878845215, -0.027601851150393486, -0.05135498195886612, -0.051188673824071884, -0.03410673514008522, -0.03353044390678406, 0.09845871478319168, 0.09912601858377457, 0.08416996896266937, 0.08731960505247116, -0.041186653077602386, -0.04192278906702995, -0.03228133171796799, -0.0410706102848053, 0.03686181455850601, 0.03144536167383194, 0.03197209909558296, 0.037627678364515305, -0.05022018775343895, -0.048795945942401886, -0.04745135083794594, -0.0545385479927063, 0.13876782357692719, 0.14004063606262207, 0.13098545372486115, 0.13558797538280487, -0.06996794044971466, -0.07449343800544739, -0.06859760731458664, -0.0696580559015274, -0.22330327332019806, -0.22369080781936646, 0.2254951149225235, -0.2570440471172333, -0.040344540029764175, -0.04232035204768181, 0.08054791390895844, -0.04277142137289047, 0.023863064125180244, 0.026505574584007263, 0.009127031080424786, 0.023631174117326736, -0.14028796553611755, -0.1383945345878601, -0.13043613731861115, -0.15240152180194855, 0.029875176027417183, 0.029887180775403976, 0.024478882551193237, 0.029494652524590492, 0.197461798787117], [-0.9315794706344604, -0.930854082107544, -0.9262176156044006, -0.9326382875442505, 0.029164062812924385, 0.029957978054881096, 0.028942251577973366, 0.02947591058909893, 0.010509341023862362, 0.010906528681516647, 0.011030897498130798, 0.010608174838125706, -0.10506812483072281, -0.1063113808631897, -0.1053469106554985, -0.1056317687034607, 0.3821013569831848, 0.38176968693733215, 0.38234004378318787, 0.3826479911804199, 0.12372050434350967, 0.12439952045679092, 0.12373105436563492, 0.12497029453516006, -0.06979752331972122, -0.07009045034646988, -0.06924154609441757, -0.07042723149061203, -0.09868026524782181, -0.09823437035083771, -0.09979599714279175, -0.09874415397644043, -0.22686389088630676, -0.22760741412639618, -0.22622895240783691, -0.22744356095790863, 0.05543821305036545, 0.05567744001746178, 0.05532633885741234, 0.05582159757614136, 0.007002642378211021, 0.00771570298820734, 0.007027736399322748, 0.0082823121920228, 0.08206789940595627, 0.08268219977617264, 0.0823117345571518, 0.0817892849445343, 0.05189358443021774, 0.05214908719062805, 0.052068524062633514, 0.05081278085708618, 0.007995018735527992, 0.007986767217516899, 0.007527233101427555, 0.008214681409299374, 0.004864848684519529, 0.005460687913000584, 0.004924231208860874, 0.0039483425207436085, 0.003721310291439295, 0.0034667516592890024, 0.005540167912840843, 0.004236874170601368, 0.008669355884194374, 0.00750932190567255, 0.008428382687270641, 0.008210108615458012, 0.004695272538810968, 0.0037661567330360413, 0.005440534558147192, 0.003962289076298475, 0.0017087443266063929, 0.0006353678763844073, 0.0023921860847622156, 0.0030804253183305264, 0.0056837149895727634, 0.005006209947168827, 0.005668051540851593, 0.0061868708580732346, 0.007128346245735884, 0.0064670792780816555, 0.007975434884428978, 0.006977396085858345, 0.0075749922543764114, 0.008160912431776524, 0.008329741656780243, 0.006596545688807964, 0.003065938362851739, 0.0033047429751604795, 0.0032641971483826637, 0.0039187585934996605, 0.005241832695901394, 0.004696827847510576, 0.004724498372524977, 0.004796761088073254, 0.005582064390182495, 0.004386061802506447, 0.0043411110527813435, 0.004337534308433533, 0.006435989402234554, 0.005211655516177416, 0.004993693437427282, 0.005177007056772709, 0.0007217525271698833], [-0.03993593528866768, 0.0209392998367548, 0.02200910449028015, 0.0689021497964859, -0.06298980861902237, -0.007114110980182886, 0.024223193526268005, 0.102252297103405, -0.06197958439588547, -0.028485549613833427, -0.0077056591399014, 0.0531516931951046, -0.03220454230904579, 0.030858097597956657, 0.03507690876722336, 0.1350516527891159, -0.08101216703653336, 0.0036281030625104904, -0.052400700747966766, 0.03209507837891579, -0.08754205703735352, -0.03592909127473831, -0.027370333671569824, 0.03449181839823723, -0.022285209968686104, 0.041463453322649, 0.04132577031850815, 0.1676691770553589, -0.02473914809525013, 0.0635458454489708, 0.03408307954668999, 0.1386546790599823, 0.00030444510048255324, 0.08606242388486862, 0.053011275827884674, 0.1302274465560913, -0.10273592919111252, -0.06885609030723572, -0.0051325419917702675, 0.0016348984790965915, -0.04181410372257233, 0.025588158518075943, 0.0668596550822258, 0.11383937299251556, -0.08372566103935242, -0.04024257883429527, -0.014428665861487389, 0.08035361766815186, -0.031261514872312546, 0.044835612177848816, 0.09937860816717148, 0.1507846862077713, 0.08547978103160858, 0.08684568852186203, 0.10258831828832626, 0.09108520299196243, 0.08335672318935394, 0.0755394697189331, 0.06089381128549576, 0.07173554599285126, 0.027047693729400635, 0.023508472368121147, 0.007841954939067364, 0.018470846116542816, 0.06396612524986267, 0.04716428369283676, 0.06515955179929733, 0.05511411651968956, 0.0057935030199587345, -0.0023471517488360405, -0.011360556818544865, 0.006128145847469568, 0.018867239356040955, 0.006894771009683609, 0.01273292489349842, 0.012987854890525341, 0.03137371689081192, 0.033976390957832336, 0.046372056007385254, 0.03465243801474571, 0.04347282275557518, 0.03996647149324417, 0.0450296550989151, 0.043196700513362885, 0.014542528428137302, 0.02328900620341301, 0.006096488330513239, -0.012967726215720177, 0.03784039244055748, 0.016799267381429672, 0.029152018949389458, 0.034596603363752365, 0.0214858315885067, 0.005346454214304686, -0.007493067532777786, 0.0051663597114384174, 0.03384274244308472, 0.0023914293851703405, 0.0033919401466846466, 0.008709575049579144, 0.05417494475841522, 0.06935057789087296, 0.03346508368849754, 0.03322918713092804, 0.039727628231048584], [0.06460282951593399, 0.03043246455490589, 0.02782175876200199, -0.00019110737775918096, 0.03048710897564888, 0.006984762381762266, 0.0041102576069533825, -0.03933082893490791, 0.08752976357936859, 0.07357979565858841, 0.024105506017804146, 0.01934169977903366, 0.13816355168819427, 0.07737065851688385, 0.09532357007265091, 0.04803481325507164, 0.06197382137179375, 0.02915755659341812, 0.031167423352599144, 0.001055933185853064, 0.03576988726854324, 0.03833931311964989, 0.007740238681435585, -0.009759501554071903, 0.04998106509447098, -0.006238835398107767, 0.001983129419386387, -0.03676997125148773, 0.2455669343471527, 0.17203646898269653, 0.21569491922855377, 0.18119224905967712, 0.1761654019355774, 0.1368909478187561, 0.1427236646413803, 0.08520296961069107, -0.10372781753540039, -0.1290440559387207, -0.12750016152858734, -0.13344226777553558, 0.05879942700266838, -0.005501259118318558, 0.002898100996389985, -0.0053663249127566814, -0.1384534239768982, -0.17484860122203827, -0.1618654429912567, -0.18420301377773285, 0.05441389977931976, -0.025693651288747787, -0.006688143592327833, -0.00932949036359787, 0.02725696563720703, 0.06447653472423553, 0.036121666431427, 0.03646241873502731, 0.09625813364982605, 0.11342468112707138, 0.09863107651472092, 0.09255263209342957, 0.005160253960639238, 0.029936116188764572, 0.013047590851783752, 0.025830943137407303, -0.009938115254044533, 0.01150844432413578, -0.021005863323807716, -0.0177007969468832, -0.021839888766407967, 0.008204399608075619, -0.0281087476760149, -0.007847324013710022, -0.03672153130173683, -0.02711694873869419, -0.01206346694380045, -0.04896910488605499, 0.014016509987413883, -0.0027428108733147383, -0.00048069044714793563, 0.005423803348094225, 0.05400734394788742, 0.054248880594968796, 0.05834132060408592, 0.04316437616944313, -0.013255449943244457, -0.002166429068893194, -0.0019467767560854554, -0.06463678181171417, 0.016157202422618866, 0.024818504229187965, 0.0173219945281744, 0.011258670128881931, -0.011321947909891605, -0.022739486768841743, -0.022820211946964264, -0.01958368346095085, -0.06281322985887527, -0.037533022463321686, -0.035728517919778824, -0.04205888882279396, 0.036801066249608994, 0.02318112552165985, 0.036815498024225235, 0.047889284789562225, 0.17323340475559235], [-0.12431994080543518, -0.12328546494245529, -0.1246316209435463, -0.12308581918478012, -0.03236110880970955, -0.03339946269989014, -0.0328710675239563, -0.031232833862304688, -0.012073876336216927, -0.013713370077311993, -0.011778566054999828, -0.011289217509329319, -0.0858847126364708, -0.08569774031639099, -0.08636773377656937, -0.08618677407503128, 0.08413062989711761, 0.08157593756914139, 0.07821685820817947, 0.08088910579681396, -0.03352583572268486, -0.03522840142250061, -0.033297810703516006, -0.032520122826099396, -0.03680818900465965, -0.03727011755108833, -0.03706543892621994, -0.03342244401574135, 0.008276551030576229, 0.008374955505132675, 0.00704216631129384, 0.007837037555873394, 0.059691961854696274, 0.0580037385225296, 0.059597477316856384, 0.06051688268780708, 0.016098929569125175, 0.015069950371980667, 0.01506182923913002, 0.01544580515474081, 0.02680298686027527, 0.027606017887592316, 0.025573432445526123, 0.027240056544542313, 0.06018392741680145, 0.061552613973617554, 0.061173271387815475, 0.061637796461582184, 0.07337921112775803, 0.07597307860851288, 0.07140210270881653, 0.07454246282577515, 0.005294593051075935, 0.006084164138883352, 0.006074803881347179, 0.0032696560956537724, -0.0005249709938652813, 7.031912537058815e-05, 0.00037748459726572037, 0.00029211901710368693, 0.0026451139710843563, 0.0031022580806165934, 0.0027357025537639856, 0.003946681972593069, 0.00565918767824769, 0.00559308473020792, 0.003935399930924177, 0.004322774708271027, -0.00017066241707652807, -0.0010248470352962613, 0.001163572072982788, -0.001129323267377913, 0.0010944441892206669, 0.0019116975599899888, 1.9490529666654766e-05, 0.00265036104246974, -0.0013198457891121507, -0.0001037394322338514, -0.0004890409763902426, -0.00031101121567189693, -0.0001947667624335736, -0.0005970402853563428, 0.0012339373352006078, -0.00043598085176199675, 0.002058464102447033, 0.00038710940862074494, 0.002600400010123849, 0.004827097989618778, -0.0059655169025063515, -0.007031766232103109, -0.0066996244713664055, -0.005529666319489479, -0.006265789270401001, -0.006614311132580042, -0.006729260552674532, -0.006584344431757927, -0.0022111607249826193, -0.00288636377081275, -0.0024622876662760973, -0.004672408569604158, 1.6137975762831047e-05, -0.0004980823723599315, 0.002025321125984192, -5.783464803243987e-05, 0.2627943456172943], [0.2187580168247223, 0.2187110334634781, 0.22177794575691223, 0.22097036242485046, -0.1323297917842865, -0.13226082921028137, -0.1304348260164261, -0.13130046427249908, 0.07421920448541641, 0.0738321840763092, 0.07559924572706223, 0.07491651177406311, -0.050074502825737, -0.049304261803627014, -0.0497945174574852, -0.053085990250110626, 0.10370883345603943, 0.10325287282466888, 0.10312001407146454, 0.10431169718503952, -0.2735523283481598, -0.2743266820907593, -0.2731761336326599, -0.2724350094795227, 0.05179198086261749, 0.051235467195510864, 0.051179639995098114, 0.053112052381038666, 0.2060157209634781, 0.2071712762117386, 0.2092353254556656, 0.20642195641994476, -0.08085072785615921, -0.08066733181476593, -0.08119378983974457, -0.07975076884031296, 0.033617053180933, 0.03168907016515732, 0.03113686665892601, 0.03412635251879692, -0.25147998332977295, -0.25449299812316895, -0.2537972033023834, -0.25368696451187134, 0.14677289128303528, 0.14792577922344208, 0.14722464978694916, 0.14417260885238647, 0.07256975024938583, 0.07401615381240845, 0.06573842465877533, 0.07032866030931473, 0.036458227783441544, 0.0363064780831337, 0.035064760595560074, 0.03415052220225334, 0.037513554096221924, 0.03857012465596199, 0.03999772295355797, 0.03950244560837746, 0.03497627004981041, 0.036047402769327164, 0.03669007867574692, 0.03709230199456215, 0.045804817229509354, 0.046740077435970306, 0.04461571201682091, 0.046319033950567245, 0.03629015013575554, 0.03746862709522247, 0.03562656417489052, 0.035698577761650085, 0.04272999241948128, 0.04558723047375679, 0.04487195238471031, 0.044904135167598724, 0.03692258149385452, 0.03626909852027893, 0.03540423512458801, 0.03494105488061905, 0.0332912802696228, 0.03422384336590767, 0.03204573690891266, 0.033088166266679764, 0.03978892043232918, 0.03935713693499565, 0.04050587862730026, 0.03978375717997551, 0.041249461472034454, 0.042300641536712646, 0.0434453971683979, 0.04305346682667732, 0.04309066757559776, 0.04293036088347435, 0.04180184751749039, 0.04384561628103256, 0.03449643775820732, 0.034390948712825775, 0.03691987320780754, 0.03620860353112221, 0.03840360417962074, 0.03688470274209976, 0.0365775041282177, 0.038032058626413345, 0.00596658606082201], [0.03760493919253349, 0.03710402548313141, 0.037775855511426926, 0.03792908415198326, 0.034712906926870346, 0.035034503787755966, 0.03459716960787773, 0.03441962972283363, 0.0326395258307457, 0.03259023278951645, 0.03313332423567772, 0.032521091401576996, 0.037854235619306564, 0.038168590515851974, 0.03832908347249031, 0.03836556896567345, 0.040143486112356186, 0.039600223302841187, 0.0393788106739521, 0.03971916809678078, 0.03830122575163841, 0.038448527455329895, 0.038110826164484024, 0.03901183232665062, 0.03911492973566055, 0.03931945189833641, 0.03874897211790085, 0.03951288387179375, 0.036443375051021576, 0.03670833632349968, 0.03626284375786781, 0.03643180429935455, 0.03818957135081291, 0.037572938948869705, 0.03798719868063927, 0.038515545427799225, 0.03820561617612839, 0.038441792130470276, 0.03851008415222168, 0.038139015436172485, 0.037906713783741, 0.03788676857948303, 0.03833894804120064, 0.03737951070070267, 0.03869495168328285, 0.03900782763957977, 0.03878215327858925, 0.03953858092427254, 0.03793010488152504, 0.03838125243782997, 0.038841892033815384, 0.03852767497301102, 0.1649768352508545, 0.16472671926021576, 0.1650528460741043, 0.16173329949378967, -0.5152995586395264, -0.5162540674209595, -0.514641284942627, -0.5190747380256653, -0.3196127414703369, -0.31990858912467957, -0.318499892950058, -0.3191085457801819, 0.23896826803684235, 0.23815171420574188, 0.23956558108329773, 0.24049012362957, 0.24272827804088593, 0.23869191110134125, 0.24190863966941833, 0.23900625109672546, 0.10003667324781418, 0.10105708241462708, 0.10212043672800064, 0.10181862115859985, 0.05716725438833237, 0.05796574428677559, 0.057578399777412415, 0.05896904692053795, -0.0873081386089325, -0.08786807209253311, -0.08920687437057495, -0.08685307949781418, -0.024339932948350906, -0.024188945069909096, -0.0680675283074379, 0.027154957875609398, -0.1344153732061386, -0.13349202275276184, -0.1443776786327362, -0.13362348079681396, 0.1143723800778389, 0.1135433092713356, 0.11132030934095383, 0.11400716006755829, 0.18472620844841003, 0.18488280475139618, 0.18411657214164734, 0.17389267683029175, 0.11805254220962524, 0.11831466108560562, 0.11771310865879059, 0.11906704306602478, 0.1530320942401886], [0.035682953894138336, 0.0351267047226429, 0.03584432229399681, 0.03527785837650299, -0.0199569184333086, -0.018158236518502235, -0.018783695995807648, -0.018772026523947716, -0.07081495225429535, -0.0714091882109642, -0.06988698244094849, -0.07111964374780655, 0.3198811411857605, 0.32957011461257935, 0.3402208685874939, 0.32427841424942017, -0.1864403784275055, -0.18585409224033356, -0.18577009439468384, -0.1876303106546402, -0.03699513524770737, -0.03861840069293976, -0.03406886011362076, -0.03733908385038376, 0.18547029793262482, 0.19543756544589996, 0.1990455687046051, 0.1970411241054535, 0.03215901181101799, 0.03214900568127632, 0.03272958844900131, 0.0323297381401062, 0.11464738845825195, 0.11456616967916489, 0.11440425366163254, 0.11542487144470215, 0.11925870180130005, 0.12274046242237091, 0.12453345209360123, 0.12091042846441269, 0.08315151184797287, 0.08533774316310883, 0.08430388569831848, 0.08724182099103928, 0.05072854459285736, 0.052666205912828445, 0.05377335473895073, 0.05376172438263893, 0.16464604437351227, 0.16631653904914856, 0.19545893371105194, 0.17220355570316315, 0.04765598848462105, 0.04366645961999893, 0.04420321062207222, 0.04254232347011566, 0.04502332583069801, 0.041129421442747116, 0.04464343190193176, 0.04418247565627098, 0.04686329513788223, 0.0429210402071476, 0.04522363469004631, 0.044420529156923294, 0.039133235812187195, 0.03838441148400307, 0.0418286994099617, 0.04281723126769066, 0.04388762637972832, 0.04259001091122627, 0.04496227577328682, 0.04043211042881012, 0.045327648520469666, 0.04250767454504967, 0.04257604852318764, 0.043456319719552994, 0.04284090921282768, 0.041817184537649155, 0.04201311245560646, 0.04269648715853691, 0.04312083497643471, 0.04272528365254402, 0.04433281347155571, 0.04208412766456604, 0.041684236377477646, 0.040583617985248566, 0.04387819394469261, 0.04627837613224983, 0.04194651171565056, 0.04118989408016205, 0.04179469123482704, 0.0416455939412117, 0.04095887392759323, 0.0421830415725708, 0.04183581471443176, 0.04083183407783508, 0.04636002331972122, 0.042670901864767075, 0.04377108812332153, 0.043116580694913864, 0.04542051628232002, 0.04362691193819046, 0.04382166638970375, 0.042826853692531586, 0.0006504732882604003], [-0.003520089900121093, -0.006049778778105974, -0.0056001413613557816, -0.007017176598310471, -0.0003661746741272509, -0.0014211805537343025, -0.002025105059146881, -0.0028602359816432, -0.008886078372597694, -0.009641806595027447, -0.006924716755747795, -0.006821384187787771, -0.0087020518258214, -0.010349285788834095, -0.008231873624026775, -0.006025517825037241, -0.023850465193390846, -0.027062155306339264, -0.02430613525211811, -0.022525252774357796, -0.0069231451489031315, -0.009225559420883656, -0.004363515414297581, -0.008959365077316761, -0.026123039424419403, -0.02546132728457451, -0.019270438700914383, -0.021414924412965775, -0.024182042106986046, -0.02808108553290367, -0.0276030246168375, -0.029593028128147125, -0.0215010903775692, -0.025506656616926193, -0.018826700747013092, -0.01672474853694439, -0.00926151592284441, -0.013700832612812519, -0.01232914812862873, -0.009655691683292389, -0.018674174323678017, -0.016081027686595917, -0.017416778951883316, -0.01540801115334034, -0.026498345658183098, -0.03352594003081322, -0.03055112436413765, -0.025217629969120026, -0.05038630589842796, -0.060398392379283905, -0.046928346157073975, -0.05106708034873009, -0.03693060576915741, -0.03374649956822395, -0.03307259455323219, -0.0291371401399374, 0.03505568578839302, 0.036287687718868256, 0.04232972487807274, 0.04150493070483208, -0.01893475092947483, -0.015871547162532806, -0.005298021249473095, -0.014911442063748837, -0.051558446139097214, -0.04974215850234032, -0.047294460237026215, -0.04830210655927658, -0.005070942919701338, 0.0006159800686873496, 0.010789504274725914, -0.008108017034828663, 0.039953358471393585, 0.0401325523853302, 0.038903605192899704, 0.042503032833337784, -0.024434082210063934, -0.027457378804683685, -0.022896049544215202, -0.024507656693458557, -0.00663178414106369, -0.0032154186628758907, -0.005082850810140371, -0.00019219258683733642, 0.03854375332593918, 0.03894154727458954, 0.042266834527254105, -0.04410572350025177, -0.004609269555658102, 0.005094537045806646, -0.015014265663921833, -0.006089806091040373, 0.003501433879137039, -0.001967740012332797, 0.00971710029989481, -0.0005837903590872884, -0.025889389216899872, -0.02986713871359825, -0.02098442055284977, -0.021067174151539803, 0.03632756695151329, 0.03609186038374901, 0.039131179451942444, 0.03938142582774162, 0.26332730054855347], [-0.030474981293082237, -0.030110735446214676, -0.02949512004852295, -0.029580743983387947, -0.029481984674930573, -0.029252635315060616, -0.029253844171762466, -0.02898249588906765, -0.028903283178806305, -0.02904680371284485, -0.029203781858086586, -0.028849445283412933, -0.029663247987627983, -0.03059297427535057, -0.030277954414486885, -0.02934020198881626, -0.03059597872197628, -0.030620569363236427, -0.031079767271876335, -0.030524473637342453, -0.030293945223093033, -0.02984796278178692, -0.03022870235145092, -0.02976505644619465, -0.03022349625825882, -0.029680389910936356, -0.030993960797786713, -0.03032573312520981, -0.030263952910900116, -0.030305994674563408, -0.02987232618033886, -0.02948141284286976, -0.029813570901751518, -0.029338035732507706, -0.02919144555926323, -0.02912975661456585, -0.029840905219316483, -0.02923189103603363, -0.029722237959504128, -0.02920253947377205, -0.02918071113526821, -0.029249481856822968, -0.02950368821620941, -0.03035452403128147, -0.02991466410458088, -0.030201280489563942, -0.030077507719397545, -0.030301591381430626, -0.030567074194550514, -0.030612602829933167, -0.030286772176623344, -0.02957354672253132, -0.12169884145259857, -0.12058713287115097, -0.12140356004238129, -0.12124712765216827, -0.22129634022712708, -0.2279009073972702, -0.22068633139133453, -0.22821952402591705, -0.12002070248126984, -0.11929678171873093, -0.11875224858522415, -0.11878915131092072, -0.11731991916894913, -0.11742927879095078, -0.11918190121650696, -0.11985870450735092, 0.1531164050102234, 0.1524222046136856, 0.15779003500938416, 0.15468226373195648, 0.053034376353025436, 0.052544038742780685, 0.05329408496618271, 0.05212666094303131, 0.10153179615736008, 0.10121342539787292, 0.0998724177479744, 0.10126247256994247, 0.031443554908037186, 0.03269461542367935, 0.0326380580663681, 0.032368868589401245, -0.22020223736763, -0.235072523355484, -0.20288020372390747, -0.16012711822986603, -0.11733397841453552, -0.11739186197519302, -0.12282155454158783, -0.11784465610980988, 0.00500018335878849, 0.00422812020406127, 0.0055639008060097694, 0.005173602141439915, 0.05764269828796387, 0.0567922443151474, 0.05692148953676224, 0.05653556436300278, 0.05737577751278877, 0.05786202475428581, 0.057955026626586914, 0.05770191177725792, 0.31561240553855896], [-0.17020143568515778, -0.1700204312801361, -0.17107351124286652, -0.17056399583816528, -0.14954431354999542, -0.14940612018108368, -0.1496315747499466, -0.14973242580890656, 0.0980435386300087, 0.09746725112199783, 0.09772804379463196, 0.09684095531702042, -0.11564319580793381, -0.11522862315177917, -0.11626369506120682, -0.11643443256616592, 0.30060791969299316, 0.2992652654647827, 0.2988588213920593, 0.29927846789360046, 0.2508472204208374, 0.25006726384162903, 0.2502903640270233, 0.2506076693534851, -0.13187479972839355, -0.13245734572410583, -0.13152828812599182, -0.1323740929365158, 0.2145073562860489, 0.2158101201057434, 0.21589650213718414, 0.21479173004627228, 0.1471179872751236, 0.1468568742275238, 0.14722169935703278, 0.14621135592460632, -0.0275246724486351, -0.027612781152129173, -0.027874257415533066, -0.028452247381210327, -0.006414987612515688, -0.006107531022280455, -0.007325830403715372, -0.006764710880815983, -0.03278239816427231, -0.032873768359422684, -0.03235844522714615, -0.032868098467588425, -0.04181426018476486, -0.04158565029501915, -0.04214385524392128, -0.04245707392692566, 0.03500412777066231, 0.03554023802280426, 0.035163357853889465, 0.03522327169775963, 0.030274847522377968, 0.030777083709836006, 0.03130915015935898, 0.030902361497282982, 0.032012034207582474, 0.03213990479707718, 0.03315044566988945, 0.032704275101423264, 0.03784690424799919, 0.037618815898895264, 0.03721671923995018, 0.03760587424039841, 0.025558456778526306, 0.026296349242329597, 0.027405284345149994, 0.027153192088007927, 0.02898993529379368, 0.028859324753284454, 0.02955995686352253, 0.029360510408878326, 0.03538092225790024, 0.03475683182477951, 0.03529231622815132, 0.03523145616054535, 0.028152262791991234, 0.028452930971980095, 0.02942659705877304, 0.027617858722805977, 0.03038008324801922, 0.03099871426820755, 0.030257660895586014, 0.03079741820693016, 0.03347169980406761, 0.03488502651453018, 0.033667273819446564, 0.03321978822350502, 0.03419265151023865, 0.03418344259262085, 0.034324947744607925, 0.034435585141181946, 0.03422259911894798, 0.03385342285037041, 0.03404681012034416, 0.033197931945323944, 0.03256865218281746, 0.033078569918870926, 0.03363628312945366, 0.034272272139787674, -0.00038491649320349097], [-0.2537386417388916, -0.2551306486129761, -0.2550573945045471, -0.2551754415035248, 0.16658779978752136, 0.16540303826332092, 0.1663067787885666, 0.16561080515384674, -0.09739063680171967, -0.09693171083927155, -0.09684036672115326, -0.09587029367685318, 0.35524165630340576, 0.35488834977149963, 0.35458487272262573, 0.3545343577861786, 0.008680405095219612, 0.008871249854564667, 0.008425874635577202, 0.009489582851529121, -0.7317898273468018, -0.7370099425315857, -0.7355523705482483, -0.7348829507827759, 0.07480789721012115, 0.07475882768630981, 0.07500185817480087, 0.0744168758392334, -0.2682517170906067, -0.26925766468048096, -0.2690992057323456, -0.26986902952194214, 0.13512346148490906, 0.1345067322254181, 0.13574163615703583, 0.13512039184570312, 0.018144957721233368, 0.01707768440246582, 0.017772234976291656, 0.017453093081712723, -0.05690409615635872, -0.0581580251455307, -0.05760759487748146, -0.057817477732896805, 0.024703476577997208, 0.02522909827530384, 0.025272972881793976, 0.02530827559530735, 0.008528887294232845, 0.006827813573181629, 0.007882997393608093, 0.007375720422714949, 0.005804804153740406, 0.007926998659968376, 0.006970361806452274, 0.006366997957229614, 0.0012311391765251756, 0.0011802511289715767, 0.0003229211433790624, 0.0011812279699370265, 0.007812648080289364, 0.007747485768049955, 0.0067538730800151825, 0.0077013117261230946, 0.0008745245868340135, 0.0009859951678663492, 0.0012468735221773386, -0.000350961898220703, 0.005280693992972374, 0.005220845341682434, 0.0048548211343586445, 0.00500438641756773, 0.005761357489973307, 0.006107432302087545, 0.00574685400351882, 0.00601743720471859, 0.0020975808147341013, 0.0031993743032217026, 0.0009032514062710106, 0.0013246561866253614, 0.007947715930640697, 0.0067036631517112255, 0.006423571612685919, 0.007276103366166353, -0.0002278414467582479, 2.4050041247392073e-05, -0.0004643545253202319, -0.001531564979813993, 0.005776069592684507, 0.006195863243192434, 0.006496361922472715, 0.006200513336807489, 0.007113296072930098, 0.006602997425943613, 0.00809885561466217, 0.00786737259477377, 0.00428785802796483, 0.004621174652129412, 0.005010965745896101, 0.004313628654927015, 0.0038514926563948393, 0.005795691162347794, 0.004966020118445158, 0.005656714551150799, -0.00011137015098938718], [-0.13523834943771362, -0.1341250091791153, -0.13416294753551483, -0.1346226930618286, 0.1547873616218567, 0.15403057634830475, 0.154607355594635, 0.15427851676940918, 0.08164533227682114, 0.07967013120651245, 0.08226736634969711, 0.08087362349033356, -0.05384862795472145, -0.05371730402112007, -0.05324308201670647, -0.05319571867585182, -0.17439062893390656, -0.1748332381248474, -0.17402713000774384, -0.17324665188789368, 0.24028782546520233, 0.23924200236797333, 0.2477053999900818, 0.2489532083272934, 0.012033894658088684, 0.011991490609943867, 0.011557966470718384, 0.013523236848413944, -0.08305005729198456, -0.0840044841170311, -0.08434179425239563, -0.08255186676979065, -0.09525501728057861, -0.0965743437409401, -0.09524081647396088, -0.09431751817464828, 0.2083701193332672, 0.20849275588989258, 0.21343691647052765, 0.21241067349910736, 0.09140325337648392, 0.09243053942918777, 0.09156566113233566, 0.0930107831954956, 0.021035227924585342, 0.02059462107717991, 0.02076161652803421, 0.020942699164152145, 0.1801786571741104, 0.1774873584508896, 0.18024612963199615, 0.17865166068077087, 0.02977079153060913, 0.030025172978639603, 0.028963811695575714, 0.029512761160731316, 0.025187335908412933, 0.025601891800761223, 0.024879535660147667, 0.02674710378050804, 0.022825749590992928, 0.023171670734882355, 0.02292698621749878, 0.02374129928648472, 0.03259531781077385, 0.032349493354558945, 0.032859403640031815, 0.032857272773981094, 0.030438527464866638, 0.030360614880919456, 0.03182533010840416, 0.03145374730229378, 0.02281338907778263, 0.02237643301486969, 0.022013617679476738, 0.02275743894279003, 0.027399767190217972, 0.02787133865058422, 0.0272732712328434, 0.027165008708834648, 0.02824999764561653, 0.029479650780558586, 0.027652906253933907, 0.029538504779338837, 0.027121232822537422, 0.027565790340304375, 0.029688021168112755, 0.02933431603014469, 0.024949099868535995, 0.02592906355857849, 0.02667095698416233, 0.024648992344737053, 0.028227612376213074, 0.029339216649532318, 0.02860124781727791, 0.02743876725435257, 0.028271973133087158, 0.026618171483278275, 0.027165042236447334, 0.026403341442346573, 0.026548920199275017, 0.025973090901970863, 0.0262376107275486, 0.02560749463737011, -0.0007950487779453397], [0.3013794720172882, 0.29898691177368164, 0.2976990044116974, 0.3000939190387726, -0.005673076491802931, -0.0052188183180987835, -0.004994690418243408, -0.008602923713624477, 0.029319340363144875, 0.024189351126551628, 0.027496855705976486, 0.028453687205910683, 0.17286451160907745, 0.18337252736091614, 0.1748744547367096, 0.1630176305770874, 0.0745689645409584, 0.06733675301074982, 0.07659398764371872, 0.07367020845413208, 0.008995601907372475, 0.0062926155515015125, 0.0009477957501076162, 0.003819451667368412, -0.37759265303611755, -0.3792506158351898, -0.38139772415161133, -0.3798602819442749, 0.06506965309381485, 0.06328583508729935, 0.06473283469676971, 0.06430254876613617, -0.07110052555799484, -0.07244618237018585, -0.0686691477894783, -0.06789126247167587, -0.08996149897575378, -0.09208344668149948, -0.0919923484325409, -0.09329346567392349, 0.06065978482365608, 0.0649719387292862, 0.05998726561665535, 0.062492020428180695, 0.20580607652664185, 0.2083205282688141, 0.20369155704975128, 0.20105041563510895, 0.05558612197637558, 0.05928296968340874, 0.06292983889579773, 0.055652279406785965, 0.04132671281695366, 0.04331418499350548, 0.04282405599951744, 0.044286392629146576, 0.04698561877012253, 0.04489266872406006, 0.04967916011810303, 0.04647021368145943, 0.04843483865261078, 0.047864772379398346, 0.050152488052845, 0.04881548136472702, 0.043449804186820984, 0.04367680102586746, 0.043270282447338104, 0.04460736736655235, 0.04540851712226868, 0.04661267250776291, 0.0444166325032711, 0.046757183969020844, 0.04136153310537338, 0.042665205895900726, 0.042569778859615326, 0.04116969183087349, 0.04662436619400978, 0.04915395379066467, 0.04717414081096649, 0.048042088747024536, 0.027895141392946243, 0.024350441992282867, 0.027442947030067444, 0.025559643283486366, 0.03999220207333565, 0.04258819296956062, 0.04176100343465805, 0.0458587110042572, 0.043377943336963654, 0.04359200596809387, 0.0431242361664772, 0.04253643751144409, 0.04057811200618744, 0.04151612147688866, 0.03982380032539368, 0.042676862329244614, 0.03630407154560089, 0.03594287857413292, 0.040966570377349854, 0.03722251206636429, 0.04033330827951431, 0.04186273366212845, 0.040513187646865845, 0.04019723832607269, -0.012748339213430882], [-0.050466809421777725, -0.014808300882577896, 0.011707725934684277, 0.08263515681028366, -0.042528290301561356, -0.027758430689573288, 0.049248918890953064, 0.0419013649225235, 0.021156255155801773, -0.0027104271575808525, 0.08429038524627686, -0.0025074018631130457, 0.14827097952365875, 0.16555365920066833, 0.14688391983509064, 0.14035142958164215, 0.03723583370447159, 0.03805474564433098, 0.030714288353919983, 0.15875588357448578, 0.057251475751399994, 0.08830353617668152, 0.08996523171663284, 0.0642620325088501, -0.05437041446566582, 0.00211253366433084, -0.009348350577056408, 0.06750287860631943, 0.0707886666059494, 0.06651203334331512, 0.124567911028862, 0.13761436939239502, -0.055454760789871216, -0.07153603434562683, 0.01253450009971857, -0.014213238842785358, -0.030633844435214996, -0.05658405274152756, 0.06601140648126602, 0.016030950471758842, 0.06160976365208626, 0.1073245108127594, 0.0797843337059021, 0.18323679268360138, -0.019852085039019585, -0.05196191370487213, -0.025307249277830124, 0.0871339663863182, 0.037477388978004456, 0.12485114485025406, 0.20938856899738312, 0.1702248603105545, -0.004828966222703457, 0.0654485747218132, 0.006078269332647324, 0.014315463602542877, 0.10108453035354614, 0.07615451514720917, 0.06410271674394608, 0.05937572196125984, 0.008167778141796589, 0.008003219030797482, 0.036734189838171005, 0.05789351090788841, 0.033939070999622345, 0.03387579321861267, 0.02644209936261177, 0.07466031610965729, 0.12909989058971405, 0.13462159037590027, 0.14360423386096954, 0.14023961126804352, 0.03849537670612335, 0.03756830841302872, 0.028083140030503273, 0.01936138980090618, 0.03225286677479744, 0.0230705626308918, 0.047356028109788895, 0.05256650969386101, 0.050999537110328674, 0.011064710095524788, -0.00022357542184181511, 0.030419014394283295, 0.04014018550515175, 0.07912710309028625, 0.06540334969758987, 0.0032176589593291283, 0.13641545176506042, 0.11271258443593979, 0.12074611335992813, 0.09599283337593079, 0.07331244647502899, 0.10018659383058548, 0.04429718852043152, 0.07818625122308731, 0.07487811148166656, 0.018921321257948875, 0.054301586002111435, 0.04237460717558861, 0.04571408033370972, 0.05814710631966591, 0.08715078234672546, 0.03857020288705826, -0.02976112626492977], [0.2534909248352051, 0.25371649861335754, 0.25290271639823914, 0.2532173693180084, -0.1853182464838028, -0.18591371178627014, -0.18732164800167084, -0.18841087818145752, -0.08242890983819962, -0.08202508091926575, -0.08242496848106384, -0.08355219662189484, 0.09766197204589844, 0.09877807646989822, 0.09699071198701859, 0.09740445762872696, 0.28521496057510376, 0.28738367557525635, 0.285952091217041, 0.28422385454177856, -0.078316830098629, -0.07836317270994186, -0.07772839069366455, -0.07857673615217209, 0.041320011019706726, 0.039717819541692734, 0.04089050740003586, 0.039605364203453064, -0.1501733362674713, -0.14931227266788483, -0.1510138213634491, -0.15140077471733093, -0.050027456134557724, -0.05051263049244881, -0.05078123137354851, -0.050630535930395126, -0.11196119338274002, -0.11080612242221832, -0.1089344173669815, -0.11129137873649597, -0.06762378662824631, -0.06747239083051682, -0.06893040984869003, -0.06785590201616287, -0.08231376111507416, -0.08106913417577744, -0.08262255042791367, -0.08458425104618073, -0.06869309395551682, -0.06762015074491501, -0.0669749304652214, -0.0679347962141037, -0.020098045468330383, -0.021763840690255165, -0.02140539139509201, -0.020161030814051628, -0.013818057253956795, -0.015341785736382008, -0.01435661967843771, -0.016010232269763947, -0.015679342672228813, -0.01656474731862545, -0.01652270369231701, -0.015373079106211662, -0.020630866289138794, -0.02075696364045143, -0.021081455051898956, -0.019847560673952103, -0.017076438292860985, -0.01643468253314495, -0.017695652320981026, -0.017115263268351555, -0.018971208482980728, -0.01692943274974823, -0.017667891457676888, -0.017723260447382927, -0.02025436796247959, -0.018430611118674278, -0.01972726359963417, -0.02041023224592209, -0.01779959723353386, -0.02037784643471241, -0.017995908856391907, -0.017720049247145653, -0.015693221241235733, -0.01686069183051586, -0.014866763725876808, -0.016383573412895203, -0.018423518165946007, -0.01716923899948597, -0.0182189904153347, -0.0179423987865448, -0.019575126469135284, -0.019384726881980896, -0.019999509677290916, -0.01917208544909954, -0.018705960363149643, -0.019568869844079018, -0.018102793022990227, -0.020543556660413742, -0.019836440682411194, -0.019875049591064453, -0.020429901778697968, -0.020297229290008545, 0.0006970438407734036], [0.11987724155187607, 0.11723239719867706, 0.11490525305271149, 0.11502356082201004, 0.1365284025669098, 0.13998951017856598, 0.1376568078994751, 0.13773971796035767, 0.12069482356309891, 0.11884194612503052, 0.11694752424955368, 0.11681992560625076, 0.16842705011367798, 0.16855204105377197, 0.16604773700237274, 0.1683199256658554, 0.06668907403945923, 0.06743165105581284, 0.08064623922109604, 0.06539858132600784, 0.13135764002799988, 0.13005536794662476, 0.12979139387607574, 0.1289009004831314, 0.10996129363775253, 0.10870464146137238, 0.10774870216846466, 0.10846137255430222, 0.13049261271953583, 0.1293453425168991, 0.1277029812335968, 0.13151471316814423, -0.09472091495990753, -0.09803710877895355, -0.1005382239818573, -0.10410013049840927, 0.07133796811103821, 0.07123531401157379, 0.07168549299240112, 0.07038022577762604, -0.21513159573078156, -0.21350260078907013, -0.21401257812976837, -0.21516795456409454, -0.1853836178779602, -0.18405061960220337, -0.18458060920238495, -0.18501736223697662, 0.16950774192810059, 0.16921907663345337, 0.16849227249622345, 0.1683087944984436, 0.04782773181796074, 0.048314664512872696, 0.050058092921972275, 0.04928741604089737, 0.0484791062772274, 0.04782753810286522, 0.0475793220102787, 0.0475662499666214, 0.04940493777394295, 0.05151115357875824, 0.04962536320090294, 0.051375824958086014, 0.04686758294701576, 0.04730642959475517, 0.04727259278297424, 0.04533643648028374, 0.05190235748887062, 0.05260453373193741, 0.05014451965689659, 0.04950864240527153, 0.0490504652261734, 0.04902041330933571, 0.05036161467432976, 0.04988224059343338, 0.04915650561451912, 0.046331074088811874, 0.04839777201414108, 0.047308892011642456, 0.04701016843318939, 0.04830700159072876, 0.04898252710700035, 0.04841122403740883, 0.05346528813242912, 0.05283898487687111, 0.05373396724462509, 0.05535963177680969, 0.05293285474181175, 0.05464069917798042, 0.05446695163846016, 0.05527760460972786, 0.0514499805867672, 0.05089649185538292, 0.050995659083127975, 0.04961549490690231, 0.049991630017757416, 0.050712596625089645, 0.0502382330596447, 0.05110299587249756, 0.05078165978193283, 0.05314460024237633, 0.05094053968787193, 0.05145185440778732, 0.02991950325667858], [0.013265984132885933, 0.014035388827323914, 0.01417276170104742, 0.013678611256182194, 0.013649321161210537, 0.013489451259374619, 0.013281342573463917, 0.013045699335634708, 0.01536376029253006, 0.015525774098932743, 0.015519512817263603, 0.015068970620632172, 0.014485498890280724, 0.014293712563812733, 0.014292729087173939, 0.013821384869515896, 0.014032671228051186, 0.014271902851760387, 0.015311527997255325, 0.014431364834308624, 0.01345804613083601, 0.013397131115198135, 0.013249816372990608, 0.013032831251621246, 0.016197968274354935, 0.01670250855386257, 0.01717943511903286, 0.01717485301196575, 0.017301149666309357, 0.017192797735333443, 0.01737300492823124, 0.017395608127117157, 0.013477724976837635, 0.014793767593801022, 0.014816700480878353, 0.014696696773171425, 0.01490880362689495, 0.015300516039133072, 0.015247687697410583, 0.01519050169736147, 0.014233320020139217, 0.014658989384770393, 0.01412865798920393, 0.014092015102505684, 0.015039670281112194, 0.014930766075849533, 0.014984261244535446, 0.015472600236535072, 0.014242948032915592, 0.014622428454458714, 0.015458949841558933, 0.014398065395653248, -0.12431519478559494, -0.12557072937488556, -0.12159861624240875, -0.12769080698490143, 0.03733611851930618, 0.03651529178023338, 0.0347602479159832, 0.036374595016241074, 0.20131883025169373, 0.20325426757335663, 0.20112033188343048, 0.1811114102602005, -0.05292214825749397, -0.05341446399688721, -0.051980406045913696, -0.05242273956537247, 0.1710730493068695, 0.16997896134853363, 0.1870499551296234, 0.170216366648674, -0.20230692625045776, -0.20436732470989227, -0.1991880089044571, -0.21003329753875732, 0.23646453022956848, 0.23661132156848907, 0.22966070473194122, 0.2202744483947754, 0.09331018477678299, 0.09173150360584259, 0.09089653193950653, 0.09342426806688309, -0.20549467206001282, -0.20695462822914124, -0.1734856814146042, -0.2546862065792084, -0.0933660939335823, -0.09307961165904999, -0.08057495206594467, -0.09409420192241669, 0.04044240340590477, 0.03952895104885101, 0.03981858864426613, 0.040770597755908966, 0.08085602521896362, 0.08068709075450897, 0.08110985159873962, 0.08003880828619003, -0.09855204075574875, -0.09842821210622787, -0.09954440593719482, -0.10115404427051544, 0.13960304856300354], [-0.318666011095047, 0.17703315615653992, -0.30438432097435, -0.30612871050834656, -0.3127347230911255, 0.18961504101753235, -0.3101970851421356, -0.312065452337265, -0.31137505173683167, 0.19709470868110657, -0.324564129114151, -0.31825798749923706, -0.344722181558609, 0.16830407083034515, -0.32088926434516907, -0.3163769245147705, -0.31659287214279175, 0.19749023020267487, -0.3138168752193451, -0.3015666902065277, -0.3120633661746979, 0.17811451852321625, -0.31589025259017944, -0.3215416967868805, -0.315763920545578, 0.20028097927570343, -0.29771918058395386, -0.3037015199661255, -0.31650838255882263, 0.1800423562526703, -0.33036431670188904, -0.3292284905910492, -0.30054986476898193, 0.23661157488822937, -0.3269956707954407, -0.33122342824935913, -0.3174087107181549, 0.17657442390918732, -0.32853394746780396, -0.3117581307888031, -0.33681371808052063, 0.18690922856330872, -0.3372075855731964, -0.3207957148551941, -0.33952170610427856, 0.18092818558216095, -0.3143756687641144, -0.3068636357784271, -0.3158462643623352, 0.1890338808298111, -0.33604133129119873, -0.3218746781349182, -0.11282715201377869, -0.11646895855665207, -0.10387357324361801, -0.11185264587402344, -0.11767755448818207, -0.132878839969635, -0.11873511970043182, -0.11872313171625137, -0.10831055790185928, -0.10859319567680359, -0.1028425469994545, -0.10411380976438522, -0.10519059002399445, -0.10329742729663849, -0.09904420375823975, -0.10022315382957458, -0.1025267019867897, -0.10966882109642029, -0.10418327897787094, -0.10304003953933716, -0.10452494770288467, -0.10857260227203369, -0.10639449208974838, -0.11279980093240738, -0.10951857268810272, -0.10766039043664932, -0.10680993646383286, -0.11449490487575531, -0.10572708398103714, -0.10267750918865204, -0.11103042960166931, -0.10693173855543137, -0.09930432587862015, -0.10704413056373596, -0.11743316799402237, -0.10316786170005798, -0.11394663155078888, -0.12167835235595703, -0.11241064220666885, -0.11318639665842056, -0.1085984855890274, -0.1180342435836792, -0.11628610640764236, -0.11298394948244095, -0.11116068065166473, -0.10907091200351715, -0.10712109506130219, -0.10765327513217926, -0.11180149763822556, -0.11493051797151566, -0.11006096005439758, -0.11093220114707947, 0.02430061250925064], [0.03491280972957611, 0.03568873554468155, 0.03569753095507622, 0.03649234026670456, 0.03680204227566719, 0.036532387137413025, 0.03642335161566734, 0.03706156462430954, 0.03427942842245102, 0.032346341758966446, 0.03314026817679405, 0.033602483570575714, 0.043722476810216904, 0.04316428676247597, 0.043257296085357666, 0.0434628389775753, 0.03800065070390701, 0.03516943380236626, 0.03633987903594971, 0.03871752694249153, 0.037356458604335785, 0.03696735203266144, 0.034598544239997864, 0.037270281463861465, 0.042084090411663055, 0.040246911346912384, 0.040811892598867416, 0.042625248432159424, 0.035786326974630356, 0.0336868092417717, 0.03457077220082283, 0.034906018525362015, 0.03155582770705223, 0.029056020081043243, 0.030161509290337563, 0.031182052567601204, 0.03246253728866577, 0.03169919177889824, 0.03313717991113663, 0.03427601233124733, 0.031969692558050156, 0.030505025759339333, 0.03601245582103729, 0.03672607243061066, 0.04033351317048073, 0.038506705313920975, 0.040162548422813416, 0.04005572572350502, 0.035862311720848083, 0.03458647429943085, 0.03427804633975029, 0.034331195056438446, 0.049228888005018234, 0.056319814175367355, 0.05630789324641228, 0.062074221670627594, 0.04292302951216698, 0.057484403252601624, 0.14794999361038208, 0.0693189725279808, 0.08694863319396973, 0.08810344338417053, 0.09742464125156403, 0.09427432715892792, 0.045794762670993805, 0.047003041952848434, 0.04686935991048813, 0.05107394978404045, -0.38694947957992554, -0.3754779100418091, -0.329689621925354, -0.38870808482170105, 0.12709878385066986, 0.12734784185886383, 0.1278703510761261, 0.11739220470190048, 0.050632644444704056, 0.051071200519800186, 0.03988409787416458, 0.05805604159832001, 0.07573211938142776, 0.07161665707826614, 0.09589553624391556, 0.08729114383459091, -0.3280544877052307, -0.32911255955696106, -0.27036139369010925, -0.2593042850494385, 0.08619728684425354, 0.08667704463005066, 0.1319366693496704, 0.08092477172613144, 0.10913555324077606, 0.10969175398349762, 0.10426309704780579, 0.10464990884065628, 0.082940474152565, 0.0949801579117775, 0.09102649986743927, 0.031313467770814896, -0.08363962173461914, -0.08163990080356598, -0.08113598823547363, -0.08421505987644196, -0.03983185812830925], [0.002587800147011876, 0.009344872087240219, 0.0071619232185184956, 0.00228086463175714, -0.015332093462347984, -0.009305409155786037, -0.014647512696683407, -0.015452136285603046, -0.02348693646490574, -0.020576147362589836, -0.024060774594545364, -0.031145090237259865, -0.034500934183597565, -0.026204705238342285, -0.029905829578638077, -0.028261449187994003, 0.01299754623323679, 0.03200361505150795, 0.024072660133242607, 0.009342432953417301, -0.030710596591234207, -0.032119642943143845, -0.026127051562070847, -0.021992448717355728, -0.03394952788949013, -0.027353595942258835, -0.031174877658486366, -0.03707554563879967, 0.0017947036540135741, 0.013046875596046448, 0.007601416669785976, 0.006655623205006123, 0.028561048209667206, 0.0909886434674263, 0.026065662503242493, 0.034509286284446716, -0.008330360054969788, -0.004523147828876972, -0.013517255894839764, -0.007286698557436466, 0.003408723743632436, -0.011269433423876762, -0.0030388119630515575, 0.0029470387380570173, -0.026107683777809143, -0.006317202467471361, -0.016355952247977257, -0.01812899485230446, -0.025345107540488243, -0.020392008125782013, -0.022274242714047432, -0.024429380893707275, 0.023204173892736435, 0.01952360011637211, 0.03430723026394844, 0.026825575157999992, 0.007408977951854467, 0.008587085641920567, 0.00427792314440012, 0.01277692336589098, -0.013104855082929134, -0.012333926744759083, -0.0164211206138134, -0.021227452903985977, -0.02939421683549881, -0.027740566059947014, -0.01603844203054905, -0.024199238047003746, 0.057935770601034164, 0.05552326887845993, 0.06038112938404083, 0.07267831265926361, 0.010025608353316784, 0.0110655901953578, 0.015320530161261559, 0.045609284192323685, -0.024925226345658302, -0.02673189714550972, -0.025590742006897926, -0.031033232808113098, 0.12704263627529144, 0.13970324397087097, 0.12233197689056396, 0.1570439636707306, 0.02085251361131668, 0.017957350239157677, -0.06385268270969391, -0.21564479172229767, -0.022276513278484344, -0.01478270348161459, -0.03585793450474739, -0.011003157123923302, -0.0322655588388443, -0.03320261463522911, -0.0205700621008873, -0.03182164207100868, -0.023223144933581352, -0.02085617557168007, -0.013638912700116634, 0.0015495677944272757, -0.02439936064183712, -0.023336119949817657, -0.022357109934091568, -0.024417804554104805, 0.22971957921981812], [-0.018570465967059135, -0.01888160966336727, -0.01885327696800232, -0.018511639907956123, -0.01858285628259182, -0.018552791327238083, -0.018856802955269814, -0.018263228237628937, -0.01859164610505104, -0.019294947385787964, -0.018408214673399925, -0.01882602460682392, -0.01826106198132038, -0.01878155767917633, -0.01827615313231945, -0.018579944968223572, -0.018213637173175812, -0.01877802610397339, -0.019256556406617165, -0.018834512680768967, -0.018949422985315323, -0.01882350631058216, -0.018947042524814606, -0.019034530967473984, -0.019202079623937607, -0.019587302580475807, -0.019565429538488388, -0.01963462494313717, -0.019409798085689545, -0.019438879564404488, -0.019889576360583305, -0.01993139088153839, -0.019445667043328285, -0.01914506033062935, -0.019548121839761734, -0.01892961375415325, -0.018893051892518997, -0.019092386588454247, -0.01892537996172905, -0.01930788718163967, -0.0193014033138752, -0.018584083765745163, -0.018950169906020164, -0.019044093787670135, -0.019243750721216202, -0.019377855584025383, -0.019237618893384933, -0.01883205771446228, -0.01852933131158352, -0.01922336034476757, -0.01867971196770668, -0.019271397963166237, -0.27804186940193176, -0.2690960764884949, -0.27730807662010193, -0.2837539613246918, -0.2773393392562866, -0.27631571888923645, -0.26862746477127075, -0.2603062391281128, -0.17829211056232452, -0.18029427528381348, -0.180927112698555, -0.1810661107301712, -0.19188542664051056, -0.1911165863275528, -0.19104547798633575, -0.19119203090667725, 0.19696477055549622, 0.19724193215370178, 0.1929483860731125, 0.19392016530036926, 0.02565838396549225, 0.025575105100870132, 0.025148535147309303, 0.0235975943505764, 0.13289913535118103, 0.13296952843666077, 0.133737713098526, 0.13235412538051605, 0.07748763263225555, 0.07811515778303146, 0.07674834877252579, 0.07759126275777817, 0.1780048906803131, 0.17774298787117004, 0.17307980358600616, 0.19397954642772675, 0.05165978521108627, 0.0515761636197567, 0.04690180718898773, 