{"arch": "mlp", "activation": "relu", "layers": [{"w": [[-0.006518688518553972, -0.052492786198854446, -0.0032942884135991335, 0.07619378715753555, 0.14906032383441925, 0.20363971590995789, 0.18008872866630554, 0.10539855062961578, 0.04150956869125366, -0.08172059059143066, 0.01862400397658348, -0.06546276807785034, -0.1702931970357895, -0.011845795437693596, -0.1709967702627182, -0.17217694222927094, 0.03499753773212433, 0.1106567457318306, -0.025147458538413048, -0.05630096048116684, -0.0824926421046257, 0.1826968491077423, 0.023434607312083244, 0.08630821108818054, 0.007834115996956825, 0.05595441535115242, 0.00878007523715496, -0.2040484994649887, -0.10557840019464493, -0.25800821185112, -0.1683904528617859, 0.0360112302005291, -0.08603562414646149, -0.03966720774769783, 0.05276411771774292, 0.008771603927016258, -0.2020861953496933, 0.042958494275808334, -0.029379500076174736, 0.09294699877500534, -0.13578350841999054, -0.13894113898277283, 0.11222890764474869, -0.345656156539917, -0.10798519849777222, -0.31347545981407166, 0.0630125030875206, -0.09432709962129593, -0.07483348250389099, -0.18003323674201965, 0.13852594792842865, 0.21908675134181976, -0.052296027541160583, -0.023898335173726082, -0.11000926792621613, 0.00606946274638176, -0.007198825478553772, 0.008145714178681374, 0.1653503179550171, -0.0493854284286499, -0.024255331605672836, 0.17399580776691437, -0.14701279997825623, -0.13371849060058594, 0.19717402756214142, 0.11322298645973206, -0.15741704404354095, 0.07878190279006958, 0.08435168117284775, 0.10517145693302155, -0.04444750025868416, 0.12387757748365402, -0.09120605885982513, 0.1659073680639267, 0.0004429707769304514, 0.01795213297009468, -0.05079531669616699, -0.11757112294435501, 0.013876897282898426, -0.03489847108721733, 0.05666022375226021, 0.1156158372759819, 0.01870780810713768, -0.15901610255241394, -0.0036731925792992115, 0.019251909106969833, -0.06428175419569016, -0.0038873644080013037, 0.056067872792482376, 0.11075498908758163, 0.06585976481437683, 0.10958907753229141, -0.1469128429889679, -0.016482332721352577, -0.38117340207099915, -0.24060282111167908, 0.22035785019397736, 0.16026639938354492, 0.09219054132699966, -0.33706504106521606, -0.09788057208061218, 0.007354810368269682, -0.09408728033304214, -0.0966021716594696, -0.2266373187303543, 0.08634033799171448, -0.1612844616174698, -0.072844497859478, -0.004870163276791573, 0.013271072879433632, 0.051414068788290024, 0.04231797531247139, -0.07015572488307953, 0.1206776425242424, 0.04396273195743561, 0.038680046796798706, -0.11113577336072922, -0.03052590787410736, 0.03280625119805336, 0.018204038962721825, 0.004652306437492371, 0.018703101202845573, -0.019714538007974625, 0.07960345596075058, -0.052778005599975586, -0.11569491773843765, 0.023421363905072212, 0.010819600895047188], [0.0972827896475792, -0.019646890461444855, 0.13827620446681976, 0.053301889449357986, 0.1523856371641159, 0.09597627073526382, 0.145768404006958, 0.16287067532539368, 0.02795705758035183, 0.08808818459510803, 0.19493623077869415, 0.22675608098506927, 0.16850318014621735, 0.07371224462985992, 0.18667161464691162, -0.08702492713928223, -0.008067674934864044, -0.2300693541765213, 0.1240435317158699, -0.07063037902116776, -0.28959921002388, 0.057207927107810974, -0.05358850955963135, -0.16903521120548248, 0.15733638405799866, 0.18904860317707062, 0.037740547209978104, 0.04365774244070053, 0.053702548146247864, -0.25111666321754456, 0.04004097357392311, -0.016502702608704567, -0.4476120173931122, -0.01170976459980011, -0.14715319871902466, -0.4325954020023346, 0.02335895597934723, -0.10767649859189987, -0.06979063898324966, 0.06743645668029785, -0.09742068499326706, 0.02782692201435566, 0.11007088422775269, 0.02758648805320263, 0.10821553319692612, 0.04009434953331947, -0.00985671579837799, 0.08938603103160858, 0.1213914006948471, 0.10917654633522034, 0.007240761071443558, 0.10143477469682693, -0.11874455958604813, -0.059443388134241104, 0.006414477247744799, -0.054696232080459595, -0.13237662613391876, 0.16975253820419312, 0.02672780491411686, -0.12883159518241882, -0.1943230777978897, 0.09652558714151382, 0.04251241683959961, 0.04372415319085121, -0.06496606022119522, 0.023892290890216827, -0.10076214373111725, -0.040237076580524445, -0.11867006868124008, -0.014948161318898201, 0.12426011264324188, -0.0351470410823822, 0.012751420959830284, 0.15321238338947296, -0.0068467771634459496, -0.04126064106822014, 0.003067650366574526, 0.04190670698881149, -0.01076860073953867, 0.06999523192644119, 0.1019938513636589, -0.011216898448765278, 0.11447446048259735, -0.047636136412620544, 0.018427591770887375, -0.10540603846311569, 0.051335979253053665, 0.05008654668927193, -0.0687207505106926, -0.11295738816261292, -0.08508127927780151, 0.18274973332881927, 0.19100356101989746, -0.06713560223579407, 0.06410092860460281, 0.014652015641331673, -0.007672683335840702, -0.020625973120331764, -0.13285663723945618, 0.046052269637584686, 0.021759212017059326, -0.15325158834457397, -0.16622595489025116, 0.11593321710824966, -0.24053318798542023, 0.007991068065166473, -0.02832946553826332, 0.10843634605407715, 0.03964253515005112, -0.06248137354850769, -0.1897919625043869, 0.05836253985762596, 0.014134854078292847, 0.08546332269906998, -0.026467354968190193, -0.06308750063180923, 0.04275628179311752, -0.05995042249560356, 0.009101789444684982, 0.02458810992538929, 0.09216564148664474, -0.08153439313173294, -0.016383102163672447, 0.06876509636640549, 0.06680452078580856, -0.014232615940272808, 0.047273650765419006, 0.046206578612327576], [0.08109351247549057, 0.06324698030948639, -0.10239894688129425, -0.04709678143262863, -0.0650920495390892, 0.17700940370559692, 0.30637526512145996, 0.28162428736686707, 0.3436504006385803, 0.21418046951293945, 0.26109206676483154, 0.18603701889514923, 0.24938233196735382, -0.11288991570472717, -0.12080798298120499, -0.200978621840477, -0.18726207315921783, -0.0163591131567955, -0.07412462681531906, 0.05094333738088608, 0.1818569004535675, -0.0372626930475235, -0.026985391974449158, 0.011463300324976444, 0.03615714982151985, -0.04708806425333023, -0.17070510983467102, 0.036989111453294754, 0.006634361110627651, -0.059017330408096313, -0.07893865555524826, 0.03762248158454895, 0.0212984848767519, 0.09356370568275452, 0.005609565880149603, -0.0005640488816425204, 0.014840410090982914, 0.01889881305396557, 0.07089042663574219, -0.09262198209762573, 0.053703438490629196, -0.0593683235347271, 0.04707102105021477, -0.21693290770053864, -0.12002941966056824, -0.025339018553495407, -0.008994742296636105, -0.02419104613363743, -0.18896335363388062, -0.07730113714933395, -0.06279976665973663, -0.023943239822983742, 0.024547817185521126, -0.09443646669387817, -0.09203522652387619, -0.1424388736486435, 0.02497975528240204, -0.09853077679872513, -0.08632397651672363, -0.04491554945707321, -0.10376402735710144, -0.09557147324085236, -0.13843949139118195, -0.011962245218455791, 0.05275101214647293, -0.0016441509360447526, 0.021672965958714485, 0.05591454356908798, -0.003138690022751689, 0.0034594680182635784, 0.1228727474808693, 0.09547244012355804, 0.18676336109638214, -0.04790487885475159, -0.10426190495491028, 0.12996163964271545, 0.11122700572013855, -0.0035417797043919563, 0.02528831921517849, 0.0006007017800584435, 0.058009665459394455, 0.08528201282024384, 0.10545358061790466, 0.06084056943655014, -0.060865867882966995, 0.03667084127664566, 0.10009786486625671, -0.1569756269454956, -0.13460949063301086, 0.0302423182874918, -0.06571952253580093, 0.07343018054962158, -0.022140273824334145, 0.005684183910489082, 0.023853585124015808, 0.11676739901304245, -0.06994038075208664, 0.05917515233159065, 0.0295721422880888, -0.020539456978440285, -0.06725985556840897, 0.21202929317951202, -0.005343770142644644, -0.009712028317153454, -0.3489333689212799, -0.030365414917469025, -0.23983003199100494, 0.08639135956764221, 0.04782124608755112, 0.08292733877897263, 0.1515657752752304, -0.05816192552447319, -0.0848393663764, 0.020435050129890442, -0.2299194186925888, 0.03838528320193291, -0.016373176127672195, -0.011486778035759926, -0.022512035444378853, -0.033317890018224716, 0.06354335695505142, 0.08245982229709625, 0.03361314907670021, 0.045648377388715744, 0.08798670768737793, 0.030651988461613655, 0.07320979982614517, 0.08687936514616013], [-0.10231204330921173, -0.013783060945570469, 0.11399999260902405, -0.16716662049293518, -0.16624589264392853, 0.015266947448253632, -0.21636590361595154, -0.09722187370061874, -0.1635124534368515, -0.16936101019382477, -0.21405668556690216, -0.17112098634243011, -0.14543794095516205, -0.3520025312900543, -0.39049461483955383, 0.15281756222248077, -0.3825221061706543, 0.08627994358539581, 0.10771916806697845, 0.17718227207660675, 0.09049368649721146, -0.004698448348790407, 0.09016256034374237, 0.15122336149215698, 0.0101530896499753, -0.13821713626384735, 0.05088591203093529, -0.09368731826543808, 0.37396588921546936, -0.18326586484909058, -0.11815579235553741, -0.07090385258197784, -0.11143175512552261, -0.13189509510993958, -0.12383471429347992, 0.02383045293390751, 0.09375942498445511, -0.27876222133636475, 0.17414222657680511, -0.047535207122564316, -0.05707355961203575, 0.0701853409409523, -0.10751961171627045, -0.08626051247119904, -0.08081676810979843, 0.02281535230576992, -0.15609464049339294, -0.041787222027778625, -0.10564246773719788, -0.13799692690372467, -0.1524544060230255, -0.07085466384887695, 0.06078518554568291, -0.021035445854067802, 0.08239851891994476, 0.012794469483196735, -0.08524153381586075, -0.02193874679505825, 0.053092826157808304, 0.09987562894821167, -0.10556117445230484, 0.05732571706175804, 0.09521070122718811, -0.0003177630715072155, 0.06315483152866364, -0.02217530831694603, -0.05553688108921051, 0.007027046289294958, -0.0048981718719005585, 0.028593311086297035, -0.06170542165637016, 0.07109687477350235, 0.02995414286851883, 0.0891583189368248, 0.16868959367275238, -0.037783123552799225, -0.0062162321992218494, -0.0565154105424881, 0.06626194715499878, -0.09868155419826508, 0.017153987661004066, 0.014110296033322811, -0.07530048489570618, -0.08151950687170029, -0.016872892156243324, -0.02931702323257923, 0.08262544125318527, 0.10860346257686615, 0.08419227600097656, 0.05721456930041313, 0.07133390009403229, 0.06131934002041817, -0.00841189082711935, 0.04606030508875847, -0.03913382440805435, 0.06011904403567314, -0.031882982701063156, -0.029480429366230965, -0.06808852404356003, -0.020894432440400124, -0.1282922923564911, -0.02637352980673313, -0.03207267075777054, 0.0690484493970871, 0.03753732889890671, -0.01677621901035309, -0.04019555076956749, -0.014025075361132622, 0.043814945966005325, -0.061923980712890625, -0.060440793633461, -0.03631868585944176, -0.019854912534356117, -0.05284077301621437, 0.14928920567035675, -0.0012370311887934804, -0.10320258885622025, 0.18665483593940735, -0.07125738263130188, 0.05587053671479225, 0.16292722523212433, -0.0010409433161839843, 0.11015673726797104, 0.10044649988412857, 0.06604645401239395, 0.01671767234802246, -0.014545183628797531, 0.10360849648714066], [-0.19410859048366547, -0.19797320663928986, -0.05708545818924904, -0.09047423303127289, -0.012771030887961388, -0.05360759049654007, 0.008254188112914562, -0.1139698252081871, -0.07685044407844543, -0.1274995058774948, -0.11624588817358017, -0.19372467696666718, -0.2168339192867279, -0.04070177674293518, 0.1284858137369156, 0.020417630672454834, 0.04159536212682724, -0.08065977692604065, 0.08263768255710602, 0.11080044507980347, -0.12631180882453918, -0.15619510412216187, 0.02655148319900036, 0.07859538495540619, 0.11537664383649826, -0.05249609053134918, -0.03681317716836929, 0.11469489336013794, 0.012104162946343422, 0.07429763674736023, -0.09425108134746552, -0.029923371970653534, 0.07295682281255722, 0.1374158412218094, 0.020407257601618767, 0.056052032858133316, 0.03709512576460838, 0.07819684594869614, 0.02350565977394581, -0.11188457906246185, 0.020728623494505882, -0.07497125118970871, 0.006009852979332209, -0.04427604749798775, -0.048213113099336624, -0.06407956033945084, -0.031099313870072365, -0.11927575618028641, -0.09474574029445648, -0.06076354905962944, -0.10677138715982437, 0.02413293719291687, -0.03160666301846504, 0.015899546444416046, 0.018297860398888588, -0.012429553084075451, 0.14594495296478271, 0.13918745517730713, 0.19122609496116638, 0.04943971335887909, 0.049753423780202866, 0.028023935854434967, 0.15641869604587555, 0.14129532873630524, 0.14175529778003693, -0.08112671226263046, -0.005002870224416256, -0.04088520258665085, 0.1695787012577057, -0.006535954773426056, -0.02348310314118862, -0.15318311750888824, -0.07251101732254028, -0.20126083493232727, -0.18595920503139496, 0.016620267182588577, 0.06770407408475876, -0.0038042746018618345, -0.04387543722987175, -0.12853825092315674, -0.045819807797670364, 0.050318293273448944, 0.03501354157924652, 0.06856091320514679, -0.2126040905714035, 0.05427169427275658, 0.052738673985004425, 0.06488937139511108, -0.015629006549715996, -0.12022507190704346, -0.11400991678237915, 0.24207021296024323, -0.08917591720819473, -0.05132822319865227, 0.14853821694850922, 0.07246354967355728, 0.057994965463876724, 0.018204737454652786, 0.09620486199855804, 0.022170335054397583, 0.0416848249733448, -0.03887983039021492, -0.049255020916461945, -0.06188633665442467, -0.05883790925145149, -0.04041065648198128, 0.14534533023834229, 0.1727667897939682, -0.04089345410466194, 0.08361533284187317, 0.044970087707042694, -0.3446905314922333, 0.002491777529940009, 0.0005329892737790942, 0.15186576545238495, 0.04449104145169258, 0.007578972261399031, 0.04430946335196495, 0.08191930502653122, 0.02588989958167076, 0.01930784061551094, 0.026508228853344917, 0.007804547902196646, 0.018008649349212646, 0.06339851021766663, -0.08206938952207565, -0.044232603162527084, 0.08756981045007706], [-0.06444817781448364, 0.058295395225286484, 0.04820512980222702, 0.035922348499298096, 0.1399957239627838, 0.030925726518034935, -0.0733167976140976, 0.049748655408620834, -0.05362129583954811, -0.1510687917470932, 0.11396443098783493, 0.13300663232803345, 0.10493171960115433, -0.025705236941576004, -0.26255732774734497, 0.042528849095106125, -0.008194943889975548, 0.10905873775482178, 0.08112012594938278, 0.1551491767168045, -0.1339423507452011, -0.16168369352817535, 0.1054658591747284, -0.11599437892436981, 0.09245049953460693, 0.2947164475917816, -0.19526346027851105, 0.2019307166337967, -0.20006489753723145, 0.013337180949747562, 0.0338844396173954, -0.18050438165664673, 0.16069813072681427, 0.030344370752573013, 0.04292596876621246, 0.06831139326095581, -0.15398555994033813, 0.03219243139028549, 0.0969608798623085, -0.05216721072793007, 0.09607504308223724, 0.06679515540599823, -0.034779783338308334, 0.0211749579757452, 0.03155507147312164, 0.10592379420995712, -0.22822853922843933, 0.0759538859128952, 0.18213190138339996, 0.22049303352832794, 0.02100139483809471, -0.023463424295186996, -0.0846744254231453, -0.034331973642110825, -0.0595356784760952, -0.06315616518259048, -0.048486337065696716, 0.00436608400195837, -0.1536269634962082, 0.034421857446432114, -0.09642304480075836, -0.03186322748661041, -0.07488971948623657, -0.10374530404806137, -0.19865620136260986, 0.051821909844875336, 0.04327039048075676, 0.20243866741657257, 0.03372632712125778, 0.1876041293144226, 0.05814769119024277, -0.019486036151647568, -0.024276932701468468, -0.04013863578438759, 0.2920505404472351, 0.08058426529169083, 0.01638360507786274, 0.06910601258277893, -0.012848892249166965, 0.08966359496116638, 0.04409405589103699, -0.05713619664311409, -0.04385735094547272, 0.06447573751211166, -0.25199419260025024, -0.05854841694235802, 0.30642861127853394, -0.012742024846374989, 0.04721204191446304, 0.0963742733001709, 0.07562538981437683, -0.06230488792061806, 0.012259057722985744, -0.14799721539020538, -0.10006973147392273, 0.07168011367321014, -0.05802255868911743, 0.04925182834267616, 0.06595203280448914, 0.0889975056052208, -0.14686335623264313, -0.07686207443475723, 0.16939280927181244, -0.005131692625582218, -0.07368287444114685, 0.05729129537940025, 0.12652309238910675, -0.05156388878822327, -0.009689117781817913, -0.027814475819468498, 0.1512119472026825, 0.08980340510606766, 0.026686115190386772, 0.08542778342962265, -0.09591061621904373, -0.0347830168902874, 0.020979398861527443, 0.008084415458142757, 0.015982557088136673, -0.015091820620000362, -0.03052412159740925, 0.10205941647291183, -0.09982211142778397, 0.09954915195703506, 0.06149270758032799, -0.004084990359842777, -0.040215879678726196, 0.07664225995540619], [0.05396633595228195, -0.126645028591156, -0.12588559091091156, -0.13148294389247894, 0.018954187631607056, 0.06741592288017273, 0.2577674090862274, 0.32402756810188293, 0.36142560839653015, 0.30815210938453674, 0.3372635245323181, 0.2936205267906189, 0.2447890341281891, 0.04567975550889969, -0.14799432456493378, -0.14567093551158905, -0.33956441283226013, -0.3299323320388794, -0.06723672151565552, 0.05043216049671173, 0.07341974228620529, 0.16035738587379456, 0.01468356791883707, 0.038307659327983856, 0.06117602065205574, 0.05405619740486145, 0.12922018766403198, -0.014260003343224525, 0.0082730483263731, 0.03559894487261772, -0.2362545281648636, 0.0073598832823336124, 0.10113613307476044, 0.0647103562951088, 0.13725802302360535, 0.08288338035345078, 0.08453096449375153, 0.0732521265745163, 0.09732227772474289, -0.09808668494224548, 0.012894710525870323, -0.0676024779677391, -0.10772532224655151, -0.06237775832414627, -0.10603288561105728, -0.04245741665363312, 0.046901267021894455, 0.046653132885694504, 0.03376990929245949, 0.04826202243566513, -0.0027716432232409716, 0.042839862406253815, 0.07746505737304688, 0.011124307289719582, 0.02507733926177025, -0.032402403652668, -0.1713084876537323, -0.053613029420375824, -0.06475912034511566, -0.02383027970790863, -0.09116178005933762, 0.007889707572758198, 0.02272927388548851, -0.09011738747358322, -0.12820690870285034, 0.06604152917861938, -0.03421563655138016, 0.026198456063866615, 0.12988223135471344, -0.022526534274220467, -0.0021800610702484846, -0.0400100015103817, 0.013453410007059574, 0.07463333010673523, -0.13077762722969055, -0.1305484026670456, -0.06121424585580826, -0.031785089522600174, 0.042083121836185455, 0.034039054065942764, -0.05513271689414978, -0.06442997604608536, -0.15211638808250427, -0.03228142857551575, -0.08975625783205032, -0.13140296936035156, -0.17791949212551117, -0.2952050566673279, -0.12245706468820572, 0.14567968249320984, 0.0597795806825161, -0.015707703307271004, -0.006327138282358646, -0.01643400266766548, 0.07105594128370285, 0.05792506784200668, 0.02228258177638054, -0.04658454284071922, 0.016283579170703888, -0.0064565022476017475, 0.0034855918493121862, 0.103571817278862, 0.0976562425494194, 0.14221633970737457, 0.03751369193196297, 0.21359296143054962, -0.0012735923519358039, 0.18128034472465515, 0.06772759556770325, 0.08591430634260178, -0.11667352169752121, -0.019739439710974693, 0.03180953487753868, -0.3426540791988373, -0.2573837339878082, 0.05088795721530914, -0.005458517000079155, 0.0010445058578625321, 0.003190221032127738, 0.02189141884446144, 0.01545754075050354, -0.009505213238298893, -0.006019820459187031, -0.006750570144504309, -0.0029861479997634888, -0.029385438188910484, 0.029232773929834366, 0.013666308484971523], [0.2551577389240265, 0.1879798173904419, 0.24035044014453888, 0.13553012907505035, 0.2658563554286957, 0.21889261901378632, 0.13011758029460907, -0.051329631358385086, -0.17362917959690094, -0.24421589076519012, -0.22440198063850403, -0.19516773521900177, -0.1673680990934372, -0.17405687272548676, -0.11579585075378418, 0.11834326386451721, 0.09189599007368088, 0.08944662660360336, 0.15027184784412384, 0.14459706842899323, 0.0367056168615818, 0.06763012707233429, -0.044055428355932236, -0.09105265885591507, -0.08724496513605118, -0.0924648568034172, -0.33744046092033386, -0.0671214833855629, 0.07461612671613693, 0.061243437230587006, -0.006670455448329449, -0.0025511193089187145, 0.03247587010264397, -0.030749088153243065, -0.08549288660287857, -0.15005998313426971, -0.08985845744609833, -0.14624586701393127, -0.17500673234462738, 0.05512281879782677, 0.1273013949394226, 0.09792923182249069, 0.0933515727519989, -0.011174185201525688, 0.03296441584825516, 0.06589913368225098, 0.04820637032389641, 0.04134433716535568, -0.013131125830113888, 0.03274613246321678, 0.07669589668512344, -0.019178925082087517, -0.07743414491415024, -0.0921800509095192, -0.030491802841424942, -0.031609781086444855, -0.10046698898077011, -0.12380733340978622, -0.04446908086538315, -0.04070106893777847, 0.026876335963606834, -0.10009270906448364, -0.09684484452009201, -0.07985302805900574, -0.09850923717021942, 0.031357716768980026, 0.05758864805102348, -0.0012298562796786427, -0.00508082564920187, -0.008583704009652138, 0.023511061444878578, 0.03884690999984741, 0.06996341049671173, 0.016256850212812424, 0.18232350051403046, 0.19403265416622162, -0.021443115547299385, 0.07019949704408646, -0.1880382001399994, 0.07698272913694382, 0.05201908200979233, 0.09884468466043472, -0.0922406017780304, 0.0691509023308754, -0.025941386818885803, 0.020278669893741608, 0.05531422793865204, -0.03965741768479347, 0.18474991619586945, -0.14204229414463043, -0.14040987193584442, -0.021004334092140198, -0.06298132985830307, -0.04509096220135689, -0.04255443066358566, 0.03366386890411377, 0.03860083967447281, -0.12566515803337097, -0.052598338574171066, 0.012490835040807724, 0.005721759051084518, -0.06976260244846344, 0.021789783611893654, -0.01206269208341837, 0.01209749560803175, -0.05792801082134247, 0.06091119721531868, -0.01006543543189764, -0.019015057012438774, 0.05122512951493263, 0.31508272886276245, -0.024866675958037376, 0.02854655310511589, -0.10468039661645889, -0.11574652791023254, 0.04704287275671959, -0.013754493556916714, -0.039461392909288406, 0.01645633578300476, 0.04577072337269783, 0.02953489124774933, -0.061300378292798996, -0.018018297851085663, 0.00202008499763906, -0.009311392903327942, 0.02975308522582054, -0.02998580038547516, 0.04239896684885025], [-0.09808258712291718, -0.1911739706993103, -0.043745484203100204, -0.004555322229862213, -0.1619967520236969, 0.15825723111629486, 0.009107328951358795, -0.15379267930984497, -0.07208433747291565, -0.2841472923755646, -0.10851386189460754, -0.1644730567932129, -0.18391220271587372, 0.07953936606645584, -0.06056671589612961, 0.09574512392282486, 0.06040903180837631, 0.029357774183154106, -0.11390139162540436, -0.08984092622995377, -0.005189410410821438, 0.01929090917110443, 0.02977343089878559, -0.014373144134879112, -0.022252744063735008, 0.07293818145990372, -0.00989876314997673, 0.030103029683232307, 0.19351248443126678, 0.1131877601146698, 0.02466741017997265, 0.07582394033670425, 0.23568427562713623, 0.11284758150577545, 0.15207451581954956, 0.11914700269699097, 0.09437840431928635, 0.15884922444820404, 0.05576198920607567, 0.05721976235508919, -0.10080070048570633, 0.01601850986480713, -0.011328018270432949, -0.06332873553037643, -0.05664326250553131, 0.05387160927057266, -0.011512122116982937, -0.043137405067682266, 0.02543187141418457, -0.03171766921877861, 0.042536742985248566, -0.028165679425001144, -0.09524720162153244, -0.061024077236652374, 0.11923308670520782, 0.06102379038929939, 0.0195753313601017, 0.030530080199241638, -0.00456157885491848, 0.08519434183835983, 0.11528671532869339, 0.1854373961687088, 0.09285259246826172, -0.001202176557853818, -0.04299788177013397, 0.09279777854681015, 0.05221951752901077, 0.05673879757523537, -0.05081455782055855, 0.09055040031671524, -0.17434430122375488, -0.09151232242584229, 0.09700705856084824, -0.05374245345592499, 0.15491777658462524, -0.08607549220323563, -0.0666782557964325, 0.05374796316027641, 0.14057746529579163, 0.04494212195277214, -0.20758852362632751, -0.04449289292097092, -0.013765433803200722, -0.26172614097595215, 0.09255588799715042, 0.05616219714283943, -0.3020254075527191, -0.0966394692659378, -0.05467505753040314, 0.08272676914930344, -0.18106615543365479, -0.06816480308771133, -0.1599452644586563, -0.14856430888175964, -0.023783855140209198, 0.07971186190843582, 0.1185612604022026, 0.052139345556497574, 0.11015535145998001, -0.03492346405982971, 0.05022386088967323, 0.0392795130610466, -0.05205872282385826, -0.10160858929157257, 0.1181696206331253, -0.060324203222990036, 0.011952540837228298, 0.1378038227558136, 0.016525642946362495, 0.0804964005947113, 0.12078648805618286, -0.2273939698934555, -0.04433569684624672, 0.1013040542602539, 0.1343531757593155, 0.039389874786138535, 0.06034776568412781, 0.1046009361743927, 0.04946892336010933, -0.10222617536783218, 0.06863867491483688, -0.04455920308828354, -0.03675147145986557, 0.02487669512629509, 0.05239666998386383, -0.05664648860692978, 0.08251301199197769, -0.03397974744439125], [0.1793009638786316, 0.1764860600233078, 0.13202399015426636, 0.0496743805706501, 0.10892628133296967, 0.11760144680738449, 0.0639459416270256, 0.11634091287851334, -0.006055700592696667, 0.08883091062307358, 0.09301349520683289, 0.19185829162597656, 0.17526431381702423, -0.20663338899612427, 0.1837790161371231, 0.06793540716171265, 0.19283221662044525, -0.43312782049179077, -0.005824063438922167, 0.06879366189241409, -0.19766931235790253, -0.09234685450792313, -0.06489802896976471, 0.017373690381646156, 0.10171952098608017, 0.06290751695632935, 0.09409734606742859, -0.11058540642261505, -0.19983680546283722, 0.013757854700088501, 0.2264188826084137, -0.3992904722690582, 0.0745779350399971, -0.26032981276512146, -0.026473427191376686, 0.08344975858926773, 0.043568674474954605, -0.0260965246707201, 0.036129117012023926, 0.04530959576368332, 0.15031294524669647, 0.053701251745224, 0.04131719842553139, -0.0418919138610363, 0.08345770090818405, 0.0323287770152092, 0.05318287014961243, 0.0019411316607147455, 0.06809184700250626, -0.017261600121855736, 0.04337361454963684, 0.04890110716223717, -0.13861346244812012, -0.10816541314125061, -0.0654030367732048, -0.11047117412090302, -0.1743570864200592, 0.0023551976773887873, -0.16477519273757935, -0.1496153622865677, -0.005189422983676195, -0.12065998464822769, -0.03285219520330429, -0.056486502289772034, -0.020163139328360558, 0.11351987719535828, 0.10521932691335678, 0.13367396593093872, -0.0010556289926171303, 0.06162586063146591, 0.03756721317768097, -0.06496186554431915, 0.19049665331840515, 0.19780421257019043, -0.01648787036538124, -0.12620335817337036, -0.007531322073191404, 0.07295837998390198, 0.05641099065542221, 0.13331729173660278, -0.10595723986625671, -0.09123831987380981, 0.0884765237569809, 0.056128572672605515, 0.060074467211961746, -0.005781293846666813, 0.06376642733812332, -0.12923140823841095, -0.10311517119407654, -0.11920712888240814, 0.036096252501010895, 0.18463250994682312, -0.015133025124669075, -0.0039840214885771275, 0.06807616353034973, -0.06028294563293457, -0.006694237235933542, -0.08511728793382645, 0.0855133980512619, 0.06794913113117218, 0.078360915184021, -0.13491714000701904, -0.08952143788337708, -0.13498955965042114, -0.06820539385080338, -0.04143611341714859, 0.06744767725467682, 0.182393878698349, -0.08223339915275574, 0.009247745387256145, 0.009243415668606758, -0.07005755603313446, 0.0340973325073719, 0.07577423006296158, -0.06354308128356934, 0.15388287603855133, 0.08451298624277115, 0.020372424274683, 0.08969748020172119, 0.12925955653190613, -0.041548244655132294, -0.022795680910348892, -0.029634570702910423, -0.041363537311553955, 0.015268271788954735, 0.010482345707714558, 0.020239215344190598, 0.09403450042009354], [-0.10075730085372925, -0.10109544545412064, -0.0833631232380867, -0.12117555737495422, -0.024018367752432823, -0.10447979718446732, -0.12427565455436707, -0.09370753914117813, -0.15969201922416687, -0.08481041342020035, -0.033907342702150345, -0.0502307154238224, -0.09841717034578323, -0.06654170155525208, -0.12255240976810455, -0.09412447363138199, 0.03221677988767624, -0.04742462560534477, 0.05741605907678604, -0.10387464612722397, 0.16830261051654816, 0.12468579411506653, -0.10699918866157532, 0.27801331877708435, 0.18814872205257416, 0.01956094056367874, 0.004319494590163231, 0.0030327271670103073, -0.07362730801105499, 0.059501707553863525, 0.13467848300933838, 0.029324224218726158, -0.0036886034067720175, -0.02355080656707287, -0.0054546440951526165, 0.09253939241170883, -0.11314810812473297, 0.016604959964752197, 0.11087248474359512, -0.034086018800735474, 0.03191090375185013, -0.018044617027044296, -0.09643838554620743, -0.08273471891880035, -0.09399500489234924, 0.02277335524559021, -0.019465483725070953, -0.040287259966135025, -0.10736711323261261, -0.09689470380544662, -0.10239728540182114, -0.037987902760505676, 0.1431860327720642, 0.09097976237535477, 0.03026002086699009, -0.0011734622530639172, 0.05683474615216255, 0.042884618043899536, 0.08340637385845184, 0.10653681308031082, -0.08203653991222382, 0.08734342455863953, 0.013325344771146774, 0.1257239282131195, 0.04392320662736893, -0.0862620398402214, 0.1257738173007965, -0.01371234841644764, 0.03949835151433945, 0.07911473512649536, -0.04885632544755936, 0.06202038750052452, 0.11220923811197281, 0.04021846130490303, -0.14010591804981232, 0.062046609818935394, 0.017161250114440918, 0.03194030001759529, 0.024104565382003784, -0.017056595534086227, 0.05811458081007004, 0.07932807505130768, -0.05878584459424019, 0.08238349854946136, -0.0027179019525647163, 0.11429605633020401, 0.10443626344203949, -0.04640807583928108, -0.0768161416053772, 0.17911741137504578, -0.162778839468956, -0.061444174498319626, -0.02899903431534767, 0.026256665587425232, 0.12037518620491028, -0.0842636302113533, 0.07884359359741211, 0.056561607867479324, 0.023568393662571907, 0.09847431629896164, 0.126538947224617, 0.0704268217086792, 0.02888777293264866, -0.044670313596725464, 0.018979812040925026, 0.19530244171619415, -0.0047712745144963264, -0.12238185107707977, -0.0546121671795845, 0.06324535608291626, -0.3077618479728699, 0.018271412700414658, 0.1131901890039444, 0.11119742691516876, 0.12066248804330826, 0.019445212557911873, 0.06856752932071686, -0.04535877704620361, 0.056692253798246384, 0.031518757343292236, 0.0199524387717247, -0.061907943338155746, -0.006378023885190487, 0.04573637992143631, 0.07518388330936432, 0.04381740838289261, 0.10715384036302567, -0.003880071919411421], [-0.02865641564130783, 0.07229746878147125, 0.22028382122516632, 0.14102301001548767, 0.063203826546669, 0.12020958214998245, 0.2584523558616638, 0.223270982503891, 0.2742357850074768, 0.19030487537384033, 0.16017572581768036, 0.21188746392726898, 0.24052655696868896, -0.05194197967648506, -0.08262144029140472, -0.160292387008667, -0.0728955864906311, 0.15738895535469055, 0.056303542107343674, -0.19566033780574799, -0.05169309303164482, -0.1874869018793106, -0.10353098809719086, 0.0065470002591609955, -0.014305287972092628, -0.019363898783922195, -0.16382521390914917, -0.07127523422241211, 0.09071797877550125, -0.07572075724601746, -0.2017998844385147, 0.2155713140964508, 0.03749297186732292, -0.28916049003601074, -0.27249017357826233, -0.1504020243883133, -0.10909145325422287, 0.022065425291657448, -0.06685275584459305, 0.08273570239543915, 0.0663967877626419, -0.08118627220392227, 0.038133569061756134, 0.13760481774806976, -0.042342931032180786, -0.11332684010267258, 0.01655806414783001, -0.04757803678512573, 0.018833020702004433, -0.10306067019701004, -0.027091702446341515, 0.07063616812229156, 0.1168871745467186, -0.010803818702697754, -0.024046773090958595, 0.016862917691469193, 0.029165998101234436, 0.06034505367279053, 0.014779249206185341, 0.0759807825088501, 0.04635956883430481, -0.033654335886240005, 0.12845438718795776, -0.035690534859895706, 0.25799188017845154, 0.337517112493515, 0.1565130203962326, 0.20369896292686462, 0.2996455729007721, -0.18445011973381042, 0.37289655208587646, 0.13568365573883057, -0.031858306378126144, 0.04584459960460663, -0.0031474169809371233, 0.13808532059192657, 0.005740849766880274, 0.017675328999757767, 0.0683307871222496, -0.06887681782245636, 0.023693524301052094, 0.036443546414375305, 0.022190365940332413, 0.1750303953886032, -0.07663285732269287, -0.0236043781042099, 0.008490980602800846, 0.123208187520504, -0.1408500224351883, 0.03260618448257446, 0.0014176717959344387, -0.22072716057300568, -0.04111778363585472, -0.23188474774360657, -0.02483656443655491, -0.02459152601659298, -0.05519650876522064, -0.07927731424570084, 0.015712304040789604, 0.09996996819972992, 0.021053476259112358, -0.026051754131913185, -0.07739532738924026, 0.042300160974264145, -0.061842434108257294, -0.09126491844654083, -0.04427921399474144, -0.07662249356508255, -0.016375767067074776, 0.0014446463901549578, -0.022745519876480103, -0.1910960078239441, 0.04066547378897667, 0.10792617499828339, -0.09719079732894897, -0.02870248630642891, -0.0007185038994066417, 0.05155650153756142, -0.03207555413246155, 0.0164943914860487, -0.02655807137489319, -0.059420060366392136, -0.042512115091085434, -0.009307613596320152, 0.05243879556655884, -0.03635727986693382, -0.03266046196222305, -0.08128827065229416], [-0.14678670465946198, 0.21263487637043, 0.24486908316612244, 0.2550066113471985, 0.41284510493278503, 0.17254793643951416, 0.04620642215013504, -0.05530165880918503, -0.22383740544319153, -0.20559658110141754, -0.08816935867071152, -0.15835866332054138, -0.1477389931678772, 0.015023008920252323, -0.09662815183401108, 0.04138203337788582, 0.19927074015140533, 0.05449133738875389, 0.11228769272565842, -0.0024388295132666826, -0.3046477138996124, -0.08402467519044876, -0.03899889066815376, -0.03781139478087425, -0.041465334594249725, 0.056088872253894806, -0.18751288950443268, -0.08619227260351181, 0.04689721018075943, -0.04108061268925667, 0.04176027327775955, -0.041984040290117264, -0.11442752182483673, -0.06900223344564438, -0.21399171650409698, -0.07163985073566437, 0.10094694048166275, -0.023121722042560577, 0.048719633370637894, 0.10659236460924149, 0.08766403049230576, 0.056591372936964035, 0.058713529258966446, 0.08023542910814285, 0.02115665003657341, -0.0010636260267347097, 0.04376637190580368, -0.0046464926563203335, 0.154185950756073, 0.030652664601802826, -0.012357768602669239, 0.05689384415745735, -0.07749020308256149, -0.1154952421784401, -0.06670992821455002, -0.033811964094638824, -0.08481504768133163, -0.07265792042016983, -0.01304739061743021, -0.04034202918410301, 0.004746968392282724, 0.07304750382900238, 0.04779553413391113, -0.06119038537144661, 0.022338181734085083, 0.11438921093940735, 0.09039011597633362, 0.03934956714510918, 0.003713031765073538, 0.009214110672473907, 0.04798683151602745, 0.05206076800823212, -0.06158505752682686, 0.028854820877313614, 0.07579232007265091, 0.10434199124574661, 0.08038657158613205, 0.10991206020116806, -0.07771759480237961, -0.015562021173536777, 0.10119156539440155, 0.06051862984895706, -0.04819818213582039, 0.04277428612112999, -0.01855817250907421, -0.08153075724840164, -0.1852089911699295, 0.1047128215432167, 0.030345255509018898, 0.006879620719701052, 0.1484236866235733, 0.058729637414216995, -0.008197009563446045, -0.1077895313501358, 0.06334498524665833, 0.10089036077260971, 0.03348303958773613, 0.014833335764706135, 0.13500626385211945, -0.1661405861377716, 0.06346211582422256, 0.00209206179715693, -0.004299669526517391, 0.048062514513731, 0.11411799490451813, -0.00485194381326437, -0.11549815535545349, 0.06896159797906876, 0.07121327519416809, -0.0007997890934348106, 0.17663130164146423, 0.056066371500492096, -0.07854311168193817, -0.08376797288656235, -0.025409329682588577, 0.0005288090906105936, -0.06824573129415512, 0.005414350423961878, 0.04829965531826019, 0.06428532302379608, 0.05501381307840347, -0.029957378283143044, 0.10558486729860306, 0.061757344752550125, -0.015817444771528244, -0.018184620887041092, 0.030962811782956123, 0.020178617909550667], [0.1804293990135193, 0.3479166328907013, 0.32740041613578796, 0.23743565380573273, 0.23989233374595642, 0.19071775674819946, -0.01166257169097662, -0.23967808485031128, -0.396510511636734, -0.21561607718467712, -0.13467608392238617, -0.13206125795841217, -0.11217841506004333, 0.02965850941836834, -0.06611013412475586, -0.03736124560236931, -0.02884943224489689, 0.0825546383857727, -0.08606643974781036, -0.04914069548249245, -0.041128359735012054, 0.008418122306466103, 0.033789895474910736, 0.15523898601531982, -0.034800201654434204, 0.01520401332527399, 0.05817946046590805, 0.06844156980514526, 0.0005408099386841059, -0.022066304460167885, 0.03272004798054695, -0.03284895792603493, -0.06091096252202988, 0.01017453707754612, 0.07088340818881989, 0.04529108107089996, 0.0980515405535698, 0.045905523002147675, 0.03214988112449646, 0.04508749768137932, -0.01431495975703001, 0.010340476408600807, 0.09382286667823792, 0.09102367609739304, 0.09270841628313065, 0.1367349773645401, 0.1002054437994957, 0.06691081821918488, 0.07960335165262222, 0.053064435720443726, 0.09109250456094742, 0.07811006903648376, 0.058347467333078384, 0.02209136076271534, 0.05170699954032898, -0.04812373220920563, 0.019027117639780045, -0.07483451813459396, -0.015634557232260704, 0.0033324186224490404, -0.0032191192731261253, -0.01998288929462433, 0.019348058849573135, -0.07844134420156479, 0.06869285553693771, -0.027079422026872635, 0.0554315410554409, 0.13840878009796143, 0.03652217239141464, 0.1231464296579361, 0.05371236428618431, 0.02548276074230671, 0.043553777039051056, -0.03423834219574928, 0.14809198677539825, 0.07331864535808563, -0.05508231744170189, 0.09030401706695557, -0.12149012833833694, 0.10764645040035248, -0.01844359003007412, 0.07986222207546234, -0.07218541204929352, 0.00627818051725626, -0.3652578592300415, -0.10981381684541702, -0.1316470503807068, 0.028779447078704834, 0.052710819989442825, -0.05536511540412903, -0.03270398825407028, -0.2821444869041443, 0.06842605769634247, 0.023112114518880844, 0.06039734557271004, 0.17188680171966553, 0.11953664571046829, 0.07979243248701096, 0.07991726696491241, 0.024573352187871933, 0.08365554362535477, -0.010160776786506176, -0.07115694135427475, 0.05351283773779869, 0.04357747361063957, -0.07494932413101196, 0.007165740244090557, -0.019673096016049385, -0.02767874114215374, 0.03848312795162201, 0.14623303711414337, 0.19722546637058258, -0.047470320016145706, -0.09365695714950562, -0.03017590008676052, 0.06549302488565445, 0.07361076027154922, 0.056151196360588074, -0.0014080882538110018, -0.0409754253923893, 0.07389229536056519, -0.010660833679139614, 0.02430293709039688, 0.04799611121416092, 0.000547082512639463, -0.0020633782260119915, 0.021893123164772987, 0.02070760913193226], [-0.016449838876724243, -0.029420524835586548, -0.05771820992231369, -0.005531725008040667, 0.2895248234272003, 0.14432764053344727, 0.29127365350723267, 0.17141088843345642, 0.07975687086582184, 0.07500573992729187, -0.0030726329423487186, 0.0819559097290039, 0.0808757096529007, -0.09599389135837555, -0.2669532895088196, -0.12705782055854797, -0.12414147704839706, 0.00029519505915232003, -0.035411715507507324, 0.16013891994953156, 0.14582538604736328, 0.1544094979763031, 0.0454852320253849, -0.01813497766852379, 0.09761782735586166, 0.010520340874791145, -0.040268827229738235, -0.006461462005972862, 0.2183944582939148, 0.09323205798864365, -0.01732685975730419, -0.07500652968883514, 0.01594471000134945, 0.04846610501408577, 0.08743949234485626, 0.0811004564166069, -0.11107036471366882, 0.05921197310090065, -0.03589073196053505, -0.02488231100142002, -0.08569138497114182, -0.08124883472919464, 0.07205898314714432, -0.03363371640443802, 0.057213664054870605, 0.08658269047737122, -0.01216678787022829, 0.01685653254389763, -0.005745472852140665, -0.0499768890440464, 0.04159676283597946, -0.013227266259491444, 0.00030975963454693556, 0.03856750577688217, 0.16566216945648193, 0.010118636302649975, 0.10930061340332031, 0.00991260726004839, 0.0633428767323494, 0.10500269383192062, -0.10911495238542557, 0.03865688294172287, 0.020603377372026443, 0.14172481000423431, -0.01766427792608738, 0.12404060363769531, 0.08879917860031128, 0.11947886645793915, 0.0311400406062603, 0.1333443820476532, 0.07644402980804443, 0.061200354248285294, -0.01074506901204586, 0.029715027660131454, 3.157579340040684e-05, 0.05189163237810135, -0.07954417914152145, 0.0757642462849617, 0.04610104486346245, -0.033953502774238586, -0.08386455476284027, 0.015981726348400116, -0.01842443272471428, -0.006757204886525869, 0.10839151591062546, -0.08651861548423767, -0.05432049185037613, -0.04059753939509392, -0.08340296894311905, -0.20703861117362976, -0.22382287681102753, -0.32128000259399414, -0.1863439679145813, -0.049187835305929184, 0.042469777166843414, -0.21386796236038208, -0.012074504047632217, 0.03490042686462402, 0.07525203377008438, 0.13864435255527496, 0.16292056441307068, 0.16182821989059448, 0.17393383383750916, 0.11775559931993484, 0.022411417216062546, -0.0011157395783811808, 0.19027481973171234, -0.05774346739053726, 0.039189159870147705, 0.025249743834137917, -0.005615440662950277, 0.04198278486728668, -0.008721337653696537, -0.045667581260204315, -0.14273451268672943, 0.05331459268927574, -0.04144258797168732, 0.124110646545887, -0.015030337497591972, -0.07771895825862885, -0.0001803021295927465, -0.05759735405445099, 0.04435243457555771, 0.018390484154224396, 0.010809986852109432, -0.005187074188143015, -0.03771338239312172, 0.0858214721083641], [0.1475709080696106, 0.010034401901066303, 0.15265238285064697, 0.1823006421327591, 0.06296749413013458, 0.0972001701593399, -0.0001877287868410349, 0.12858866155147552, 0.09346364438533783, 0.13810089230537415, -0.08098248392343521, 0.012819665484130383, 0.08215513825416565, 0.019213847815990448, 0.08776958286762238, 0.006636836566030979, -0.013684961944818497, 0.02159278653562069, -0.23048394918441772, -0.08566543459892273, -0.126482293009758, 0.13730370998382568, 0.06581367552280426, -0.2239104062318802, 0.06278365105390549, 0.2687966525554657, -0.02479097805917263, 0.06212087720632553, 0.06470334529876709, 0.006398077122867107, -0.21471747756004333, -0.0428633838891983, -0.06437535583972931, -0.012935363687574863, 0.03531257063150406, -0.35039404034614563, 0.0909462496638298, -0.2552395164966583, 0.0024876228999346495, 0.04779940843582153, 0.12758482992649078, 0.06614875793457031, -0.025473760440945625, 0.1647556573152542, -0.008303905837237835, -0.009524608962237835, 0.15486137568950653, 0.09423061460256577, -0.04976740851998329, -0.02051387168467045, -0.025587856769561768, 0.1414688676595688, -0.005179564468562603, -0.19034485518932343, -0.07851970195770264, -0.1166677325963974, 0.050323326140642166, 0.038061197847127914, -0.14043143391609192, 0.009505446068942547, -0.24117976427078247, -0.11807822436094284, -0.07577316462993622, 0.0029280665330588818, -0.0317789763212204, 0.050849251449108124, 0.1274154633283615, 0.07417066395282745, 0.14445066452026367, 0.12210094183683395, 0.08245328813791275, 0.08145954459905624, 0.029641594737768173, 0.06384671479463577, -0.0019153424073010683, 0.12277799099683762, 0.12352900207042694, 0.10390617698431015, -0.06697791069746017, 0.04129070043563843, 0.12377239018678665, 0.015989620238542557, -0.05174233391880989, 0.07967639714479446, 0.19873474538326263, -0.004805007018148899, -0.13884836435317993, -0.06548970937728882, -0.02925991266965866, 0.12092319875955582, -0.235395148396492, -0.0078094592317938805, 0.08167347311973572, 0.11666905879974365, -0.014197118580341339, -0.11245594918727875, 0.024585500359535217, 0.028624368831515312, 0.014701765030622482, 0.13168662786483765, -0.03724488615989685, -0.06956512480974197, -0.23396062850952148, -0.213089257478714, -0.007537831086665392, 0.09156306087970734, 0.15540547668933868, 0.11485429853200912, -0.024180099368095398, 0.05845952033996582, -0.18725177645683289, 0.1498163938522339, -0.05334910377860069, -0.004149041138589382, -0.09834455698728561, 0.042184073477983475, -0.048539672046899796, -0.06991986185312271, 0.06166566163301468, -0.014885750599205494, 0.017576685175299644, 0.018737563863396645, 0.1154940277338028, 0.09718818962574005, 0.06790410727262497, 0.0054465788416564465, 0.09294794499874115, -0.039564598351716995], [-0.23244233429431915, -0.18735970556735992, -0.24523016810417175, -0.001748621929436922, -0.06456423550844193, -0.14862991869449615, -0.06389956921339035, -0.10563172399997711, 0.018474474549293518, -0.06043454632163048, -0.1251460760831833, -0.028585249558091164, -0.10453610122203827, -0.08724754303693771, -0.08143740892410278, 0.004264662507921457, 0.0725974440574646, 0.18640772998332977, 0.0468352735042572, -0.09133166074752808, 0.010149099864065647, -0.09992606937885284, 0.116291344165802, 0.1231444925069809, -0.10779508203268051, 0.16894985735416412, 0.09840250015258789, -0.003541326615959406, 0.0013530290452763438, -0.04951251670718193, 0.11123442649841309, 0.0309324711561203, 0.05697067081928253, -0.002274111844599247, 0.05659275874495506, 0.029514912515878677, -0.022810103371739388, 0.07994792610406876, -0.04463784769177437, 0.06855249404907227, -0.20250461995601654, -0.12531039118766785, -0.12372495234012604, -0.151760071516037, 0.025220466777682304, -0.08836713433265686, -0.010926172137260437, -0.06198254972696304, 0.054930754005908966, 0.05989518761634827, -0.09108687937259674, 0.06398899853229523, 0.023360880091786385, 0.06029173359274864, -0.025988778099417686, 0.02871275693178177, 0.07889948785305023, 0.11582619696855545, 0.004814811982214451, 0.0045130494982004166, 0.19435431063175201, 0.1264345943927765, 0.11442962288856506, 0.009849508292973042, 0.09767849743366241, 0.05147654563188553, -0.06097213178873062, -0.06643330305814743, -0.14307698607444763, -0.265989750623703, -0.08735886961221695, -0.0608460009098053, 0.10559473931789398, -0.023445554077625275, -0.011176149360835552, 0.0746442973613739, -0.1751255989074707, 0.02632942795753479, 0.05192818492650986, 0.05066042020916939, -0.03045881725847721, -0.0406021922826767, 0.004082920961081982, 0.1031726747751236, -0.07385553419589996, -0.02836230769753456, -0.16825130581855774, 0.171330526471138, 0.12107396125793457, -0.27083680033683777, 0.24302254617214203, 0.02996612712740898, -0.14220808446407318, 0.04891040548682213, -0.029018525034189224, -0.018822241574525833, -0.04356032982468605, 0.054173748940229416, 0.04922212287783623, 0.10254817456007004, -0.03353995084762573, -0.007684413343667984, 0.06174294278025627, 0.2058056890964508, 0.035335034132003784, -0.015417107380926609, 0.08235939592123032, 0.1124919205904007, 0.03579193726181984, -0.08796724677085876, -0.18381167948246002, -0.12940330803394318, 0.13524597883224487, 0.044239792972803116, -0.02320423349738121, 0.00943850725889206, -0.0591876395046711, -0.03066156432032585, 0.0868803933262825, 0.01721114106476307, 0.02888673171401024, 0.1126924380660057, -0.003670630045235157, 0.021227026358246803, 0.09983056783676147, 0.02735489048063755, 0.054377876222133636, 0.04991721734404564], [0.13747866451740265, 0.06447239965200424, 0.1252257525920868, 0.19021569192409515, 0.4632493853569031, 0.2992987334728241, 0.16123723983764648, -0.0027106888592243195, -0.05498669296503067, -0.08891094475984573, -0.07710657268762589, -0.10549173504114151, -0.17401926219463348, -0.0021837595850229263, 0.009377460926771164, 0.13509565591812134, -0.18013788759708405, 0.03835148736834526, -0.12396003305912018, 0.06943152844905853, -0.01695575937628746, -0.0034779144916683435, 9.764381684362888e-05, 0.094737209379673, 0.07768958806991577, 0.040434692054986954, 0.1094539612531662, -0.0415782704949379, -0.025822410359978676, 0.12369620054960251, -0.4166707396507263, -0.06935840100049973, -0.010907746851444244, -0.06367603689432144, 0.03157861903309822, 0.019133148714900017, -0.010653745383024216, -0.03810001164674759, -0.0020548710599541664, 0.062206462025642395, 0.0004116087220609188, -0.02903790958225727, 0.1053740456700325, 0.00977504625916481, 0.037546440958976746, -0.01465449295938015, -0.09046714007854462, -0.10885048657655716, 0.061145905405282974, 0.1668437123298645, 0.13160091638565063, 0.15288549661636353, 0.0900878980755806, -0.03333786129951477, -0.04534005746245384, 0.0003041735908482224, -0.05652244761586189, -0.10894130915403366, -0.21565331518650055, -0.01490970142185688, 0.08938794583082199, 0.06682635843753815, 0.054959941655397415, 0.022425008937716484, -0.017305027693510056, -0.23799853026866913, -0.14728255569934845, -0.16939426958560944, -0.044804587960243225, -0.023939099162817, 0.0008957828395068645, -0.012369183823466301, -0.018377654254436493, -0.0788610652089119, 0.024157574400305748, 0.06882138550281525, 0.09911679476499557, 0.05948978289961815, -0.09875757247209549, 0.041074760258197784, 0.02928224764764309, -0.008766921237111092, 0.03412635996937752, 0.13010014593601227, 0.0007550857262685895, -0.010896114632487297, 0.14349116384983063, 0.06987692415714264, 0.05446518585085869, -0.27264899015426636, 0.11915134638547897, 0.16342467069625854, 0.0768628641963005, -0.1286037713289261, 0.0474739670753479, 0.07516395300626755, -0.007405167445540428, 0.02722017467021942, 0.0845218375325203, 0.18122953176498413, -0.04657580703496933, -0.2611805498600006, 0.06714364886283875, -0.1537385731935501, -0.10583116114139557, -0.11116141825914383, 0.0735514909029007, 0.08040393143892288, 0.023306479677557945, -0.0678255632519722, 0.04661162570118904, 0.13125596940517426, -0.10759612172842026, 0.02175014093518257, 0.031026843935251236, 0.04566061124205589, 0.0357610285282135, 0.08188000321388245, 0.0659160241484642, 0.05228004604578018, 0.0764453113079071, 0.09825745224952698, 0.077512226998806, -0.0004533251922111958, -0.021800555288791656, -0.07191012799739838, -0.03711779788136482, 0.07737308740615845], [-0.46139538288116455, -0.24757686257362366, -0.1373550295829773, -0.31130820512771606, 0.0011680222814902663, 0.04120519384741783, -0.0034716599620878696, 0.06981171667575836, 0.04489752650260925, 0.11397569626569748, 0.151285782456398, 0.1222120001912117, 0.18687836825847626, 0.026738736778497696, 0.0432777963578701, 0.09208948165178299, 0.0808822512626648, 0.015975721180438995, 0.04543465003371239, -0.1112593412399292, -0.14856456220149994, 0.0010002725757658482, 0.019753064960241318, 0.05361133813858032, 0.041827231645584106, 0.057256754487752914, 0.06145273149013519, 0.017355766147375107, 0.043938957154750824, -0.0366213321685791, 0.07637392729520798, 0.12303145229816437, 0.07178470492362976, 0.14038027822971344, 0.11838464438915253, 0.12023910880088806, 0.16321969032287598, 0.11432178318500519, 0.138825923204422, 0.017312895506620407, 0.046546027064323425, 0.07897868007421494, 0.08950749784708023, 0.06290771812200546, 0.08759410679340363, 0.07324180006980896, 0.0030811037868261337, 0.00927529763430357, 0.0245437640696764, -0.03663868084549904, 0.04218772426247597, 0.029324688017368317, 0.13565264642238617, 0.10548025369644165, 0.1294555962085724, 0.1373562067747116, 0.14297470450401306, 0.12534141540527344, 0.09302007406949997, 0.04656486585736275, 0.009733418002724648, 0.10863635689020157, 0.027448764070868492, 0.05881917476654053, 0.11567890644073486, 0.14038312435150146, 0.11936334520578384, 0.07860468327999115, 0.10572902858257294, -0.02597624622285366, 0.12813539803028107, 0.08101692795753479, 0.008581551723182201, 0.04902132973074913, 0.08951189368963242, 0.09378594905138016, 0.09891986846923828, 0.059159014374017715, -0.1106569841504097, -0.14256800711154938, -0.05730922892689705, -0.1347845494747162, -0.026141133159399033, -0.14827895164489746, -0.10992656648159027, -0.14534270763397217, -0.16240286827087402, -0.1621895730495453, -0.0981343686580658, -0.020269736647605896, -0.048146020621061325, -0.036950115114450455, 0.17598746716976166, 0.11869346350431442, 0.06551551818847656, 0.14857985079288483, 0.17599719762802124, 0.11815845221281052, 0.1119249239563942, 0.14540401101112366, 0.08207755535840988, 0.044412124902009964, -0.013200626708567142, -0.09524769335985184, -0.206843763589859, 0.16213728487491608, 0.031085122376680374, 0.006673865485936403, 0.0009566385997459292, -0.03383786976337433, -0.06856439262628555, -0.35828492045402527, -0.12794017791748047, 0.17793045938014984, -0.09728136658668518, -0.0028601395897567272, 0.017112893983721733, 0.03345508500933647, -0.05761285126209259, 0.02349553443491459, 0.02245226874947548, -0.052872780710458755, -0.007157128304243088, 0.03158910199999809, 0.031612809747457504, 0.030175378546118736, 0.026019973680377007, 0.013412054628133774], [-0.0688243880867958, -0.18124917149543762, -0.09628632664680481, 0.04888204112648964, 0.1682857871055603, -0.13309916853904724, 0.0679919570684433, -0.008347545750439167, -0.022880421951413155, -0.1125502660870552, -0.14831802248954773, -0.16085156798362732, -0.12439337372779846, 0.04421384260058403, -0.0318496897816658, -0.20293308794498444, 0.01944085583090782, -0.17888787388801575, 0.08027850836515427, 0.054420094937086105, -0.032772794365882874, -0.06007266789674759, 0.11660999059677124, -0.016279831528663635, -0.016187535598874092, 0.09754526615142822, 0.07972341775894165, 0.03067714162170887, -0.0042203753255307674, 0.2944585084915161, 0.08784013986587524, -0.005417276173830032, 0.12047932296991348, -0.04310755804181099, 0.04901959374547005, 0.06485507637262344, -0.010246021673083305, 0.09229063242673874, 0.13078096508979797, -0.13169685006141663, 0.06130676716566086, -0.04509063437581062, 0.06081965193152428, -0.06860946118831635, -0.057627804577350616, -0.0031689016614109278, -0.17175979912281036, -0.02698664925992489, -0.12969398498535156, -0.035686980932950974, -0.05165553838014603, -0.01871715486049652, -0.04267052188515663, -0.0815240815281868, 0.07305045425891876, 0.016740677878260612, -0.011716675013303757, -0.032485321164131165, -0.0013671622145920992, 0.11459416151046753, 0.036014117300510406, 0.10366247594356537, 0.030717726796865463, 0.05255957320332527, 0.012486676685512066, -0.02912578172981739, -0.21117129921913147, 0.019314123317599297, 0.14856097102165222, 0.0021089359652251005, -0.23817893862724304, 0.040701404213905334, -0.13107432425022125, -0.08699343353509903, -0.22387157380580902, 0.19573302567005157, 0.11003771424293518, -0.056352611631155014, 0.09867972135543823, -0.0008085722220130265, 0.02461381070315838, -0.1619117110967636, -0.10887070000171661, 0.14383681118488312, -0.13809970021247864, -0.19528576731681824, -0.023322854191064835, 0.024687252938747406, -0.0704466700553894, 0.03268751874566078, -0.1296660155057907, -0.05229831486940384, 0.028891917318105698, -0.060097821056842804, 0.11849382519721985, 0.0013676107628270984, 0.020323095843195915, 0.14825989305973053, 0.062228504568338394, 0.018360259011387825, -0.09117408841848373, 0.048563241958618164, 0.10976290702819824, -0.02251299098134041, -0.0725061446428299, 0.12928186357021332, 0.13853690028190613, 0.1307983547449112, -0.07439211755990982, -0.07848260551691055, -0.22578968107700348, -0.22221942245960236, -0.0821680799126625, 0.04401639103889465, 0.08917975425720215, 0.03135151043534279, 0.011926782317459583, -0.02366778813302517, 0.13912039995193481, 0.05602966248989105, -0.03155125305056572, 0.1030891090631485, 0.030808374285697937, 0.06413466483354568, 0.02357369102537632, 0.043343424797058105, 0.03726965934038162, -0.0010809901868924499], [0.11038025468587875, 0.007775464095175266, 0.068572498857975, 0.08303231745958328, 0.05486983805894852, -0.01862218603491783, -0.011491852812469006, 0.04905376955866814, -0.006445946637541056, 0.09246927499771118, 0.11170601844787598, 0.18367893993854523, 0.09296580404043198, 0.09312953054904938, 0.027170248329639435, -0.043735165148973465, -0.31293466687202454, 0.26234865188598633, 0.08314010500907898, 0.05684616416692734, -0.3299601972103119, -0.12337208539247513, -0.21087290346622467, 0.0033100827131420374, -0.03943774849176407, 0.18445344269275665, -0.02571636252105236, 0.026947353035211563, -0.37610742449760437, 0.24453069269657135, 0.09869180619716644, -0.1873079538345337, -0.01410816889256239, -0.08741512894630432, 0.014911102131009102, 0.10904121398925781, 0.021971270442008972, -0.07445825636386871, -0.054701510816812515, -0.030165711417794228, 0.09809824824333191, -0.056740276515483856, 0.11252137273550034, 0.10797686874866486, 0.0012069357326254249, -0.08458764851093292, 0.09297921508550644, -0.009995251893997192, 0.0656782016158104, 0.026182003319263458, 0.05513248220086098, 0.10540113598108292, -0.16390277445316315, -0.11549853533506393, -0.12666307389736176, -0.07914067804813385, -0.1319304257631302, -0.13613411784172058, -0.016698498278856277, 0.004587382543832064, -0.04095419496297836, 0.053326863795518875, -0.011791257187724113, 0.012728751637041569, -0.08368483185768127, -0.0978408083319664, 0.07330656051635742, 0.0799645259976387, 0.05049354210495949, 0.012026296928524971, 0.0912671759724617, 0.038095228374004364, -0.09800342470407486, 0.1134011298418045, 0.08906745165586472, 0.10074210911989212, -0.05998183414340019, 0.08007243275642395, -0.002127689076587558, -0.06054583564400673, -0.036990586668252945, -0.028377452865242958, 0.13956405222415924, 0.10315216332674026, -0.07733199000358582, -0.18127639591693878, -0.0712345764040947, 0.005062509328126907, 0.047391779720783234, -0.23860427737236023, 0.1266423612833023, 0.10650589317083359, 0.10383334755897522, -0.11922433972358704, -0.020894166082143784, 0.22524793446063995, -0.14327093958854675, -0.022692300379276276, 0.062144361436367035, 0.14554326236248016, -0.02238144539296627, -0.011144828051328659, -0.08284862339496613, 0.01544383354485035, -0.036606017500162125, -0.027697540819644928, 0.12484218180179596, -0.026763176545500755, -0.0065269977785646915, 0.02835807390511036, 0.008226118050515652, 0.01896769180893898, -0.013340810313820839, -0.022900497540831566, -0.14060065150260925, 0.03304017707705498, 0.051165614277124405, -0.10744022578001022, -0.07894573360681534, 0.09532630443572998, -0.10141154378652573, -0.06316372007131577, 0.014748889952898026, 0.00399186322465539, -0.10613074898719788, -0.05911460891366005, -0.055602170526981354, 0.030304858461022377], [-0.22214272618293762, -0.3253674805164337, -0.08173687756061554, -0.2857535481452942, -0.08881393820047379, -0.006386473774909973, -0.02794184535741806, -0.02763262949883938, -0.03304423391819, -0.08446893095970154, -0.12904644012451172, -0.10633981227874756, -0.10412714630365372, -0.13073869049549103, -0.016147783026099205, 0.024651793763041496, -0.0631985068321228, -0.12216824293136597, 0.06824738532304764, 0.2153303176164627, 0.19637680053710938, 0.08008473366498947, -0.15418332815170288, -0.15516303479671478, -0.013525817543268204, 0.0028231581673026085, -0.09435863792896271, -0.29643169045448303, -0.038653235882520676, -0.038874201476573944, -0.016507063060998917, -0.16193975508213043, -0.1161867156624794, 0.07617694139480591, 0.08885905891656876, 0.15594720840454102, 0.005461613181978464, 0.08596151322126389, -0.10104511678218842, -0.10389880836009979, -0.039416003972291946, -0.0004919981001876295, -0.027914177626371384, -0.07244152575731277, 0.07953639328479767, -0.05461248382925987, -0.044220760464668274, -0.03495791554450989, -0.13663262128829956, -0.1215260848402977, 0.007898591458797455, 0.09094685316085815, 0.14912880957126617, 0.0284362081438303, -0.0035121419932693243, -0.07425041496753693, 0.0752282366156578, 0.04004932940006256, 0.09132545441389084, -0.0007166974246501923, 0.04334553703665733, 0.10335651785135269, 0.1789620965719223, 0.140691876411438, 0.1853683739900589, -0.027351556345820427, -0.22719064354896545, 0.1500721275806427, -0.052306439727544785, 0.011815974488854408, -0.12331181764602661, -0.0777464434504509, 0.05650710314512253, -0.10215289145708084, -0.17806467413902283, -0.0444464311003685, 0.15026205778121948, -0.127426877617836, 0.06180918961763382, 0.0632452666759491, 0.007618889212608337, 0.03657911345362663, 0.14982755482196808, -0.14635585248470306, -0.22050143778324127, 0.16931645572185516, 0.01665862835943699, -0.007866543717682362, 0.06634456664323807, -0.20634444057941437, 0.027059094980359077, 0.002618676982820034, 0.03403323143720627, 0.1714833825826645, -0.04141567274928093, -0.006474557798355818, 0.00232805497944355, 0.033546753227710724, 0.02466404438018799, -0.13952390849590302, -0.08727998286485672, 0.06982002407312393, 0.23708684742450714, 0.10261859744787216, -0.21928441524505615, 0.00634929770603776, 0.08207882195711136, 0.19288691878318787, -0.06284639984369278, 0.048713937401771545, 0.07287193834781647, -0.1322866827249527, 0.1333816945552826, -0.128682941198349, 0.02353571355342865, -0.050611697137355804, -0.029721833765506744, 0.10710454732179642, 0.06203573942184448, 0.01342904381453991, 0.01554659940302372, -0.004328247159719467, 0.08447213470935822, 0.058985721319913864, 0.08312768489122391, 0.0719122439622879, 0.06665389984846115, 0.016699058935046196], [-0.031008988618850708, 0.08642836660146713, 0.168227419257164, 0.18991993367671967, 0.15839742124080658, 0.16150465607643127, 0.16316170990467072, 0.13474531471729279, 0.11932790279388428, 0.16831062734127045, 0.08446698635816574, 0.08496362715959549, 0.005932412575930357, -0.016695648431777954, -0.027860483154654503, -0.019746484234929085, 0.05840751901268959, -0.05686558037996292, 0.0018043741583824158, -0.051400765776634216, 0.08340244740247726, 0.14327242970466614, -0.23084934055805206, 0.05918259173631668, 0.218897745013237, -0.1660829335451126, -0.1321570724248886, -0.12197462469339371, 0.035243451595306396, -0.06360047310590744, -0.007809079252183437, 0.10130894929170609, -0.01536425668746233, -0.085738904774189, -0.2348819524049759, 0.1396504044532776, -0.34286031126976013, -0.08799634128808975, -0.0394132174551487, -0.025444846600294113, -0.017432784661650658, 0.022923098877072334, 0.07700273394584656, 0.13047531247138977, 0.04223935306072235, 0.1456202268600464, 0.08004298061132431, -0.011293061077594757, 0.20087112486362457, 0.09043478965759277, 0.09627648442983627, -0.09367593377828598, -0.08238062262535095, -0.17735745012760162, -0.19552913308143616, -0.14836043119430542, -0.23926150798797607, 0.010681865736842155, -0.12832899391651154, -0.1153985932469368, -0.05038608983159065, -0.20852194726467133, -0.02578655444085598, -0.07974603027105331, -0.05371679738163948, -0.006241397466510534, -0.008403470739722252, 0.009797749109566212, 0.19235409796237946, 0.19354233145713806, 0.0026692969258874655, 0.11759410798549652, 0.08944641053676605, 0.011288553476333618, 0.041323136538267136, 0.17432351410388947, 0.17115777730941772, 0.10299668461084366, 0.022250482812523842, 0.0510188527405262, -0.015885228291153908, -0.029340198263525963, 0.059681013226509094, -0.025616981089115143, 0.10754590481519699, 0.08751903474330902, 0.060114361345767975, 0.08708567172288895, -0.08240311592817307, -0.21901267766952515, 0.05146874487400055, 0.005897411610931158, -0.011120789684355259, -0.0642763301730156, 0.07987242937088013, -0.08954619616270065, 0.05738694593310356, 0.06048411875963211, -0.013003448955714703, 0.08155746757984161, -0.14400628209114075, -0.010725381784141064, -0.1462642103433609, 0.14123046398162842, -0.01839735358953476, 0.02221185527741909, 0.12344656884670258, 0.06583892554044724, -0.011833813041448593, -0.05777815356850624, 0.06864625960588455, 0.09523665904998779, 0.03340722247958183, 0.003250098554417491, -0.07938693463802338, -0.05060824006795883, 0.04160695895552635, 0.0009424905874766409, -0.02393781580030918, -0.053553178906440735, 0.10040154308080673, 0.019953731447458267, 0.03479708358645439, -0.022768652066588402, 0.0295270923525095, 0.015742121264338493, 0.04529625177383423, -0.019616596400737762], [-0.015896618366241455, 0.01188683696091175, 0.17897401750087738, 0.11845429986715317, 0.11188672482967377, 0.16739220917224884, 0.12624476850032806, 0.07043658941984177, 0.21170710027217865, 0.12763768434524536, 0.17729143798351288, 0.11135883629322052, 0.05295741185545921, -0.23275506496429443, 0.07827300578355789, -0.19924207031726837, 0.0017615212127566338, -0.0950251892209053, 0.1164209395647049, -0.015083776786923409, 0.11735090613365173, 0.0043026902712881565, 0.0713203027844429, -0.07717858254909515, 0.1093348041176796, -0.16253748536109924, 0.05827874690294266, 0.19564668834209442, -0.270778626203537, -0.1661386340856552, -0.008883978240191936, 0.03223107382655144, 0.12818534672260284, 0.0467977412045002, 0.08147232234477997, 0.04982581362128258, 0.06695166230201721, -0.02618231065571308, -0.07632945477962494, 0.11011885851621628, -0.06527625769376755, 0.10675852745771408, -0.0780550017952919, -0.182498037815094, 0.04726731777191162, 0.19716191291809082, 0.003235142445191741, -0.04089302942156792, 0.025223970413208008, -0.03597543388605118, -0.0069662462919950485, -0.010712037794291973, 0.11647221446037292, -0.10369642078876495, -0.19375081360340118, -0.005363353993743658, -0.011130781844258308, -0.08133237063884735, -0.06106533855199814, 0.04149330407381058, -0.10178383439779282, -0.035020612180233, -0.010679426603019238, -0.013152089901268482, 0.1075664609670639, -0.019968412816524506, 0.10788509994745255, 0.11770979315042496, 0.0873410552740097, 0.20704905688762665, -0.09052526205778122, -0.029131166636943817, 0.2032454013824463, -0.009540153667330742, 0.1520383208990097, 0.28991782665252686, 0.11140082031488419, 0.05647992715239525, 0.05521749332547188, -0.05185629427433014, 0.043408822268247604, -0.3275934159755707, 0.029754869639873505, -0.09059375524520874, -0.01515156589448452, -0.06584847718477249, -0.05276789143681526, 0.04222448915243149, 0.08982814103364944, -0.025379469618201256, -0.05522378161549568, 0.09265486896038055, -0.29976922273635864, -0.1783834993839264, -0.027745697647333145, -0.20816341042518616, -0.13896703720092773, 0.12821510434150696, 0.005703143775463104, 0.10125192999839783, -0.03856205940246582, -0.03257879614830017, 0.05003034695982933, 0.07299889624118805, 0.10715264081954956, 0.001656355569139123, -0.011064535938203335, -0.04838908463716507, -0.0018496144330129027, 0.05174168199300766, 0.16529721021652222, 0.028080010786652565, -0.025390561670064926, 0.04588295891880989, -0.11000733077526093, 0.06639908999204636, 0.12270233780145645, 0.030785420909523964, -0.06884808838367462, -0.007623150944709778, 0.0031878226436674595, 0.04904118925333023, 0.017644740641117096, -0.0642898753285408, 0.03246234357357025, -0.030972564592957497, -0.0706261396408081, -0.050283126533031464], [-0.10888081789016724, 0.14301568269729614, -0.027258073911070824, -0.06719318777322769, 0.055797673761844635, -0.008070552721619606, 0.07156182825565338, 0.046193551272153854, 0.06961490213871002, 0.17443309724330902, 0.09674065560102463, 0.19980688393115997, 0.13783347606658936, 0.031936708837747574, -0.16659672558307648, 0.16736513376235962, -0.16086570918560028, 0.2510257065296173, -0.14456991851329803, 0.21202565729618073, -0.08509398996829987, -0.10800375044345856, -0.3615570664405823, 0.19277074933052063, -0.023941347375512123, -0.09021900594234467, -0.07805075496435165, 0.20830731093883514, -0.012089135125279427, -0.08315853029489517, 0.29559552669525146, 0.21188893914222717, 0.02678154595196247, -0.19220098853111267, -0.18056336045265198, 0.19261658191680908, -0.0023536928929388523, -0.0031536344904452562, 0.0456697940826416, -0.05419561266899109, -0.02542950212955475, 0.09465795755386353, -0.14717397093772888, 0.08861975371837616, 0.035236604511737823, -0.11225274950265884, 0.010798269882798195, -0.05933673679828644, 0.030832601711153984, -0.14656907320022583, -0.07438598573207855, -0.08312026411294937, 0.0026088336016982794, -0.07885342836380005, 0.008329271338880062, 0.05921066179871559, 0.03831731155514717, 0.08922460675239563, 0.03278897702693939, 0.024845367297530174, 0.056594885885715485, 0.0001551197492517531, 0.031475841999053955, 0.07072798907756805, 0.022239364683628082, 0.019154364243149757, 0.10537778586149216, 0.04714234545826912, 0.03350419923663139, 0.14518217742443085, 0.034949447959661484, 0.09535539895296097, 0.13281022012233734, -0.04430123046040535, 0.040841519832611084, 0.12773914635181427, -0.07906430214643478, 0.011688255704939365, 0.025571439415216446, -0.008275101892650127, -0.15528637170791626, -0.14635027945041656, -0.1808704137802124, 0.0563352070748806, 0.024480443447828293, -0.07165663689374924, 0.17583473026752472, -0.2062130570411682, 0.29711630940437317, 0.09411673247814178, -0.35236483812332153, -0.20614099502563477, -0.07049163430929184, -0.09405527263879776, 0.02427796646952629, -0.07610011845827103, -0.16151122748851776, -0.033583175390958786, 0.02502548322081566, 0.008752452209591866, -0.0601043701171875, -0.0049993968568742275, 0.21879801154136658, 0.02895713783800602, 0.06238966062664986, 0.06845643371343613, 0.16244149208068848, -0.23492814600467682, 0.005105795804411173, 0.0430898517370224, 0.12561194598674774, -0.10300512611865997, 0.011556587181985378, 0.0825023502111435, -0.05210227891802788, -0.04011781886219978, -0.01515527255833149, -0.011655903421342373, -0.08263582736253738, -0.027626819908618927, 0.0712209939956665, 0.05869464576244354, 0.006011564284563065, -0.018467698246240616, -0.009407179430127144, 0.02241058647632599, 0.001594795030541718, -0.00031812131055630744], [-0.10750170052051544, 0.12685520946979523, 0.06410717964172363, 0.09873154014348984, 0.13582028448581696, -0.0035749576054513454, -0.004610168281942606, -0.11562459915876389, 0.09644050896167755, 0.045579854398965836, 0.18798604607582092, 0.15532125532627106, 0.050887465476989746, -0.020072950050234795, -0.15492361783981323, 0.13024772703647614, 0.14744633436203003, 0.046131644397974014, 0.029249019920825958, -0.03336850181221962, -0.23649047315120697, 0.027179371565580368, 0.15293367207050323, 0.1477331966161728, -0.2005942165851593, -0.03991825506091118, 0.013524217531085014, -0.06677283346652985, 0.15594755113124847, 0.1721561998128891, 0.1167725995182991, 0.10121853649616241, 0.06637276709079742, -0.19296184182167053, 0.10080280900001526, -0.10565529018640518, -0.18804332613945007, -0.07605007290840149, -0.19168461859226227, 0.14681793749332428, 0.019426384940743446, 0.038335610181093216, 0.11872347444295883, -0.04537784308195114, 0.06957858800888062, -0.09443152695894241, -0.14793722331523895, 0.13991039991378784, 0.14896751940250397, 0.06350614875555038, 0.14528672397136688, 0.16008755564689636, -0.08326723426580429, -0.03592352569103241, 0.005959621164947748, 0.02392186038196087, 0.015157094225287437, -0.09935662895441055, -0.12508459389209747, -0.12193562835454941, 0.08434872329235077, -0.07758636772632599, -0.03319602087140083, -0.05531787499785423, 0.1329725682735443, 0.06727827340364456, -0.11760459840297699, -0.06980312615633011, -0.018816638737916946, 0.07689642161130905, -0.030831217765808105, 0.11086788773536682, 0.05316167697310448, -0.04795176908373833, 0.008379016071557999, -0.003977007698267698, 0.011890329420566559, 0.04266982153058052, -0.008511190302670002, 0.03475750982761383, -0.10476230084896088, 0.10755104571580887, -0.031150156632065773, 0.25065529346466064, 0.06886661797761917, -0.015413900837302208, -0.41664502024650574, -0.06377857178449631, 0.06828738003969193, -0.26730096340179443, 0.2583153545856476, 0.2103118747472763, 0.05516057834029198, -0.0169830359518528, 0.049753762781620026, 0.004038957413285971, -0.12639831006526947, 0.030658280476927757, -0.0881204828619957, 0.23106493055820465, 0.05641801282763481, -0.14126262068748474, -0.2050950974225998, -0.16151687502861023, 0.11168026924133301, 0.045799218118190765, 0.08149518072605133, 0.10891766101121902, 0.08000972121953964, 0.07921481877565384, 0.06998365372419357, 0.13844017684459686, 0.028864821419119835, 0.04894018545746803, -0.02915624901652336, -0.030074693262577057, 0.030722683295607567, 0.12597890198230743, 0.03722396120429039, -0.04256067052483559, 0.15539328753948212, 0.07612033933401108, 0.05584381893277168, 0.07734061777591705, -0.020231224596500397, -0.012088648043572903, -0.038434743881225586, 0.0018196385353803635], [0.013728479854762554, 0.24046839773654938, 0.32097604870796204, 0.15457451343536377, 0.094453826546669, -0.020854400470852852, -0.26213279366493225, -0.08986083418130875, 0.038778916001319885, -0.03882193937897682, 0.08885040134191513, 0.09265071153640747, 0.0399228110909462, -0.051423896104097366, -0.08871512860059738, -0.2562485337257385, -0.06662227213382721, 0.053071994334459305, 0.05434510484337807, -0.003746811533346772, -0.08787250518798828, 0.05999194085597992, 0.044897742569446564, 0.01982704922556877, 0.0680994912981987, 0.0028071654960513115, -0.04401338845491409, -0.1667824685573578, -0.1927458494901657, -0.1080194041132927, -0.029143599793314934, -0.0748051330447197, -0.1813380867242813, -0.09266144782304764, -0.018933992832899094, -0.2404361516237259, -0.02338588796555996, -0.004471418913453817, -0.05778730288147926, 0.13475166261196136, -0.054166730493307114, -0.17281605303287506, -0.06258615851402283, -0.07070283591747284, -0.17001107335090637, -0.17524151504039764, -0.17089295387268066, -0.028719989582896233, -0.07533083856105804, -0.01819610968232155, -0.08794805407524109, -0.00611015735194087, -0.15839585661888123, 0.10336162149906158, -0.0005410901503637433, 0.0379251129925251, -0.17517651617527008, -0.21662531793117523, -0.052070971578359604, -0.029532887041568756, -0.09543797373771667, -0.11541008949279785, 0.0046407380141317844, -0.190907284617424, -0.23659713566303253, -0.1098797544836998, 0.09467525035142899, 0.021152643486857414, -0.02172207273542881, -0.060331717133522034, -0.26628655195236206, -0.13069292902946472, 0.08074058592319489, -0.1587325930595398, -0.2263025939464569, -0.2179459035396576, -0.07543778419494629, -0.027254916727542877, -0.04824787378311157, 0.06598612666130066, -0.02844461426138878, -0.018294960260391235, 0.10219459235668182, 0.0578339509665966, 0.058931346982717514, 0.1246151402592659, -0.13847896456718445, 0.1431964635848999, 0.143867626786232, -0.2427474409341812, -0.18414537608623505, 0.030018707737326622, -0.09459281712770462, 0.030229058116674423, -0.052623409777879715, -0.12325608730316162, 0.07414475083351135, -0.24814441800117493, -0.060922738164663315, 0.23145253956317902, -0.2387838065624237, -0.03907934948801994, -0.3111230432987213, -0.29459071159362793, -0.18831996619701385, -0.09073864668607712, -0.24702973663806915, -0.21873196959495544, 0.06214785575866699, -0.0658053383231163, 0.11259259283542633, -0.09475049376487732, -0.17398390173912048, 0.17670786380767822, 0.014507143758237362, -0.018325556069612503, -0.022897854447364807, 0.042205385863780975, 0.04810725897550583, -0.06561069190502167, -0.054761677980422974, -0.015695124864578247, -0.07163029164075851, -0.05833439528942108, -0.03257543593645096, -0.0313691683113575, 0.009784750640392303, 0.003341693663969636], [-0.20362138748168945, -0.26331546902656555, 0.0265065748244524, -0.25180670619010925, -0.26343071460723877, -0.04918071627616882, -0.2010825276374817, -0.15777580440044403, -0.24584616720676422, -0.2100178450345993, -0.22900688648223877, -0.24276985228061676, -0.0835198163986206, 0.34994909167289734, -0.2783588171005249, -0.3337675929069519, 0.19090431928634644, -0.18442220985889435, 0.02718120627105236, -0.12142547219991684, -0.08565875142812729, 0.039088886231184006, 0.03109266236424446, 0.22314558923244476, 0.07519707083702087, 0.025889378041028976, 0.07336131483316422, -0.6295031905174255, 0.1383311003446579, 0.11382324993610382, -0.08930431306362152, 0.02217148058116436, -0.13002973794937134, -0.008270280435681343, -0.14912211894989014, -0.1437412053346634, -0.010833514854311943, -0.18778568506240845, -0.03627784922719002, -0.04293838515877724, -0.08679020404815674, 0.05583888292312622, -0.029902258887887, -0.0120537793263793, 0.0428040511906147, -0.1009918749332428, -0.0644790381193161, -0.11196380853652954, -0.006858584471046925, 0.025109954178333282, 0.005725247785449028, -0.028512826189398766, -0.023525185883045197, 0.05731755495071411, -0.08174347877502441, 0.021317312493920326, 0.055473070591688156, -0.05357756465673447, -0.03363808989524841, 0.07940416783094406, -0.017787642776966095, -0.0424288772046566, -0.005355662666261196, -0.01645740121603012, -0.046626996248960495, -0.027744725346565247, 0.015423025004565716, 0.01714140921831131, 0.046711720526218414, 0.045661162585020065, -0.024163318797945976, 0.08536755293607712, 0.0044516646303236485, -0.00023836710897739977, 0.1775810867547989, 0.08784372359514236, -0.0024218931794166565, 0.07774338126182556, 0.0241725891828537, -0.04588470235466957, 0.24349310994148254, 0.08394584059715271, 0.002693990943953395, 0.1007370725274086, 0.06229513883590698, 0.05290631204843521, 0.005230941344052553, -0.036840762943029404, 0.04571622610092163, 0.10403039306402206, -0.03275763615965843, 0.10167564451694489, 0.09796161949634552, 0.02297591045498848, 0.06283408403396606, 0.016671687364578247, 0.012301377020776272, -0.08047764003276825, -0.08554280549287796, -0.04975367337465286, -0.02712252549827099, -0.06371396780014038, -0.03199535235762596, -0.2074255496263504, -0.10178443044424057, -0.056083157658576965, -0.10969768464565277, 0.2679961025714874, 0.036607351154088974, 0.0470907986164093, -0.04998951777815819, 0.038872141391038895, -0.002866072114557028, 0.0033072936348617077, -0.0714908093214035, 0.16818317770957947, -0.01134518999606371, 0.10705065727233887, 0.0689685121178627, -0.04599570855498314, 0.13705430924892426, 0.006647165399044752, 0.09324990957975388, 0.061495792120695114, -0.002373235300183296, 0.10503529012203217, 0.07441728562116623, 0.05940160155296326], [0.041678376495838165, 0.009411507286131382, 0.10071392357349396, -0.02826153300702572, 0.18058253824710846, 0.15141238272190094, 0.24198821187019348, 0.17747868597507477, 0.20017322897911072, 0.19542109966278076, 0.10081807523965836, 0.09671839326620102, 0.06217107176780701, 0.06767488270998001, 0.052093878388404846, -0.40668272972106934, 0.01109499204903841, 0.08969222009181976, -0.2481539249420166, -0.014154043979942799, -0.0014363102382048965, 0.031344011425971985, 0.12415546923875809, 0.08238854259252548, -0.371049165725708, 0.11357125639915466, -0.1424543708562851, -0.142258420586586, 0.27214595675468445, -0.2593902349472046, -0.0032151909545063972, 0.1132500022649765, -0.20843477547168732, 0.09518353641033173, 0.17776477336883545, 0.028396105393767357, -0.1965320110321045, 0.230307474732399, -0.141222283244133, 0.04313036426901817, 0.08308716118335724, -0.07942766696214676, 0.024288253858685493, 0.019231146201491356, -0.02376660332083702, 0.0594930425286293, -0.011567758396267891, -0.009465578943490982, 0.09574107080698013, 0.03893940895795822, 0.033538322895765305, 0.057737525552511215, -0.04669249430298805, -0.07018601894378662, -0.14452840387821198, -0.023987816646695137, -0.014215163886547089, -0.11110647767782211, -0.04841090738773346, -0.016033397987484932, -0.020120816305279732, -0.08543359488248825, -0.03954428434371948, -0.102015420794487, 0.05320556461811066, 0.049208518117666245, -0.031042717397212982, 0.03556698188185692, 0.14762341976165771, -0.001709961099550128, 0.06478898972272873, -0.1782952845096588, -0.0019750893115997314, 0.03520026057958603, -0.0676347017288208, 0.08944790065288544, -0.014983311295509338, 0.17822003364562988, -0.034118130803108215, 0.045937858521938324, -0.04642245173454285, -0.06868752092123032, 0.01134977675974369, -0.03654913976788521, 0.06297148019075394, -0.05493297055363655, 0.04486421123147011, -0.020057618618011475, 0.042532145977020264, 0.08063068240880966, 0.016558263450860977, -0.08697976917028427, 0.07585661113262177, 0.03351134434342384, 0.038839712738990784, 0.00033457137760706246, -0.012239490635693073, 0.009323853999376297, -0.04967363551259041, -0.04711737483739853, 0.0028208827134221792, 0.0027745370753109455, -0.01973871886730194, 0.09675700962543488, 0.1500033736228943, -0.04654733091592789, -0.21126434206962585, 0.12393787503242493, 0.014240903779864311, -0.01958192139863968, -0.029639704152941704, 0.037772975862026215, -0.03851175308227539, -0.042416129261255264, -0.20898008346557617, -0.05134379118680954, 0.05739522725343704, -0.04433142766356468, -0.07220187038183212, 0.004594616591930389, 0.049909841269254684, -0.011620559729635715, 0.03619156777858734, 0.04836379364132881, -0.037383899092674255, -0.005460935179144144, 0.04878576099872589, 0.06765498965978622], [-0.1814976930618286, -0.125894233584404, -0.10864413529634476, -0.07825779169797897, 0.01516442745923996, 0.19780638813972473, 0.2224469929933548, 0.3811168670654297, 0.1899019032716751, 0.23304325342178345, 0.29065242409706116, 0.14898815751075745, 0.13585788011550903, -0.22764921188354492, -0.10472923517227173, 0.05950557813048363, 0.07647766917943954, 0.0197770856320858, 0.16644418239593506, 0.21189121901988983, 0.05719485133886337, -0.0008432446047663689, -0.15711499750614166, -0.1408565640449524, -0.1751430481672287, -0.19243791699409485, 0.13518026471138, -0.06284385919570923, 0.08416646718978882, -0.02321542426943779, 0.22364521026611328, -0.028234189376235008, 0.08503256738185883, 0.06884495913982391, -0.0324309878051281, -0.04185604304075241, -0.04528164491057396, -0.04279591888189316, -0.012356887571513653, -0.008388709276914597, 0.02813597582280636, 0.08479437232017517, -0.036577582359313965, 0.10154299437999725, 0.018834957852959633, 0.04952996224164963, 0.04293322190642357, -0.014364547096192837, -0.02206305041909218, 0.05211056396365166, 0.03588785231113434, 0.09430186450481415, 0.018421048298478127, -0.04339989274740219, -0.06604403257369995, 0.05638418719172478, 0.05127638950943947, -0.13436073064804077, -0.07450946420431137, -0.23195114731788635, -0.1545727699995041, -0.13457639515399933, -0.007061063311994076, -0.15494804084300995, -0.185000479221344, 0.09640198200941086, 0.05975450575351715, 0.029873088002204895, 0.14357632398605347, 0.054423898458480835, -0.08807268738746643, 0.10043522715568542, 0.05592184513807297, -0.05378491431474686, -0.054321933537721634, -0.0846414789557457, 0.20147931575775146, 0.018383726477622986, 0.054158177226781845, -0.1240377202630043, 0.020294874906539917, 0.1182321086525917, -0.017824286594986916, 0.023009659722447395, 0.060545239597558975, 0.005568141583353281, -0.12412307411432266, 0.26825571060180664, -0.021040502935647964, 0.049864526838064194, 0.14291365444660187, -0.24139459431171417, -0.03954615443944931, 0.027063122019171715, -0.13274405896663666, -0.12104170024394989, -0.07905756682157516, 0.027714751660823822, -0.04505954682826996, -0.0034716040827333927, -0.021973779425024986, 0.030657023191452026, 0.21570909023284912, 0.10519083589315414, -0.060478728264570236, -0.11472630500793457, 0.03425929695367813, 0.08767179399728775, -0.0010408058296889067, 0.05580907687544823, -0.10970047116279602, 0.03636712580919266, 0.020847033709287643, -0.10643485188484192, -0.22539614140987396, -0.04441448301076889, -0.014104265719652176, 0.02506037801504135, -0.07498688995838165, 0.045852549374103546, -0.06803304702043533, 0.042227283120155334, -0.07434511929750443, -0.09127271920442581, 0.04898040369153023, 0.018043475225567818, 0.0101676806807518, 0.054682642221450806], [-0.1583610475063324, -0.12323261052370071, -0.15566766262054443, 0.006365342531353235, 0.17198911309242249, 0.04140680655837059, -0.05899910256266594, -0.004998980090022087, -0.3166944682598114, -0.1270304173231125, -0.17694345116615295, -0.1672097146511078, -0.05515115708112717, -0.005918790120631456, 0.04335276409983635, 0.0669868215918541, 0.11209738999605179, -0.05963543429970741, 0.1024153083562851, 0.14107832312583923, 0.11990997195243835, 0.050826992839574814, -0.06658974289894104, -0.023299233987927437, -0.0054515390656888485, 0.05891542136669159, -0.03205602243542671, 0.07255160063505173, 0.049980346113443375, -0.0033443819265812635, 0.07627318799495697, -0.11149849742650986, -0.17848460376262665, -0.02338520810008049, -0.08744312822818756, -0.12251195311546326, -0.019530264660716057, -0.0595308355987072, -0.08726766705513, -0.050168439745903015, 0.13223671913146973, -0.026027290150523186, -0.0008981896098703146, -0.008037460036575794, 0.0382385179400444, 0.11147367209196091, 0.15126101672649384, -0.07601211220026016, -0.0011156797409057617, 0.016757991164922714, -0.03261387348175049, -0.041361790150403976, 0.005948111414909363, -0.07332895696163177, -0.05348082259297371, 0.06558391451835632, -0.07803712040185928, 0.08003337681293488, -0.053861163556575775, -0.046458400785923004, 0.06776871532201767, 0.07471849769353867, 0.13380524516105652, 0.10717728734016418, 0.13789290189743042, 0.029157942160964012, 0.11393283307552338, 0.030835675075650215, 0.00784793309867382, 0.10229229927062988, 0.08923903107643127, 0.13618488609790802, 0.17071305215358734, 0.07079025357961655, 0.029372572898864746, 0.1566314846277237, 0.05389295145869255, 0.011563918553292751, -0.0820096880197525, 0.12183724343776703, -0.0027166977524757385, 0.09879816323518753, 0.07965601980686188, -0.20218756794929504, 0.1727486103773117, -0.012499376200139523, 0.21437309682369232, 0.1591404527425766, -0.053127314895391464, 0.18828657269477844, 0.27292802929878235, -0.09685509651899338, 0.05463606119155884, 0.05719748139381409, 0.08871914446353912, -0.17936041951179504, -0.010350972414016724, 0.06849092990159988, -0.259080708026886, -0.25010862946510315, -0.29074662923812866, -0.12675908207893372, 0.08444047719240189, 0.10033905506134033, -0.0026113882195204496, 0.20714637637138367, 0.031197505071759224, 0.1247045248746872, -0.04851295053958893, -0.02589728869497776, -0.015417804010212421, 0.057107895612716675, 0.05634450167417526, 0.05323436111211777, 0.003072913270443678, 0.037342727184295654, 0.12723824381828308, 0.06174007058143616, 0.01506225485354662, 0.07302868366241455, -0.00627710809931159, 0.05832074582576752, 0.06371185183525085, 0.021362368017435074, 0.02738104574382305, 0.05691925436258316, 0.044719818979501724, -0.05346493050456047], [0.12457405030727386, 0.2947199046611786, 0.1948682814836502, 0.1139594167470932, 0.03268443048000336, -0.16286742687225342, -0.127616748213768, -0.03585510328412056, 0.1501568704843521, 0.12238597869873047, 0.10687839239835739, 0.09840396791696548, 0.11017110198736191, 0.07283607125282288, 0.07262957841157913, 0.14761072397232056, 0.06295668333768845, -0.17775291204452515, -0.21681781113147736, -0.1498854011297226, -0.11794255673885345, -0.03976809233427048, -0.016372857615351677, -0.04997316375374794, -0.12236016243696213, -0.01602203957736492, 0.05292006582021713, 0.18395927548408508, 0.11737218499183655, 0.025438634678721428, 0.06377846002578735, 0.012694725766777992, -0.05292757600545883, -0.03146510198712349, 0.09933310002088547, 0.07189304381608963, 0.0938025638461113, 0.1510273963212967, 0.09063030034303665, -0.04516158252954483, 0.08225108683109283, 0.12432923167943954, 0.10785707831382751, -0.025096220895648003, 0.051847122609615326, 0.02982345223426819, 0.044185008853673935, 0.0059173270128667355, -0.0068071866407990456, 0.03324398398399353, 0.007971077226102352, 0.021484753116965294, -0.16928642988204956, -0.1261473298072815, -0.14332237839698792, -0.013007932342588902, -0.051761310547590256, -0.02587401494383812, -0.009913437068462372, -0.03598111867904663, 0.00911297183483839, -0.10409610718488693, -0.016835935413837433, -0.020829422399401665, -0.06678702682256699, -0.12337856739759445, -0.00582866370677948, -0.024467142298817635, 0.03855177387595177, 0.07998879998922348, 0.03720301017165184, -0.030684128403663635, -0.02579214796423912, 0.012526112608611584, -0.030232705175876617, 0.040230125188827515, 0.08436448872089386, 0.06774769723415375, 0.09478690475225449, 0.018261529505252838, -0.30234554409980774, -0.03318410739302635, -0.1272827833890915, -0.31246837973594666, 0.007043937221169472, -0.1001424565911293, -0.011094296351075172, -0.013790286146104336, -0.09059447795152664, -0.05212511494755745, 0.008973054587841034, 0.07336939871311188, 0.17537543177604675, 0.11959204077720642, 0.12039510160684586, 0.1541338860988617, 0.014268318191170692, 0.031865306198596954, -0.0602039098739624, -0.03073805570602417, -0.05817184969782829, -0.017941199243068695, -0.20164157450199127, -0.14742203056812286, -0.10383597761392593, -0.013264784589409828, 0.08940014243125916, 0.015446492470800877, 0.015448274090886116, 0.025199253112077713, -0.09780013561248779, 0.09326747059822083, -0.008149873465299606, -0.10565346479415894, -0.13825981318950653, 0.05125195160508156, 0.15741951763629913, 0.06381434202194214, 0.0798405259847641, 0.004239726345986128, -0.008443308994174004, -0.0203073862940073, -0.029683876782655716, -0.029939735308289528, 0.04459129273891449, 0.05330907925963402, 0.09483969956636429, 0.003513461211696267], [0.3013206422328949, 0.0813072994351387, -0.03842994198203087, 0.23033660650253296, -0.046397190541028976, 0.110502228140831, 0.2285652607679367, 0.19484595954418182, 0.24047408998012543, 0.262961208820343, 0.209414541721344, 0.23597197234630585, 0.09928838163614273, 0.2121870070695877, -0.3386005163192749, -0.06790415197610855, -0.14841708540916443, 0.1556285172700882, 0.09392757713794708, -0.08151544630527496, -0.06029292196035385, 0.03627783805131912, 0.0235589649528265, -0.0576644092798233, 0.014418636448681355, -0.013845870271325111, -0.012052677571773529, 0.06934089958667755, -0.2790254056453705, 0.023494571447372437, -0.0991547703742981, 0.08946441859006882, 0.012400544248521328, 0.043589528650045395, 0.024304307997226715, -0.0878814309835434, -0.110440194606781, -0.1706775575876236, -0.03908281773328781, 0.11892635375261307, 0.16641663014888763, 0.12822489440441132, 0.09840749204158783, -0.0424274280667305, 0.04822198674082756, -0.014920481480658054, -0.1064368337392807, -0.07125236093997955, 0.019320009276270866, 0.03533706068992615, 0.026092803105711937, 0.03416207432746887, -0.002423233585432172, -0.10840190201997757, 0.04854282736778259, 0.10653997957706451, 0.02370133250951767, 0.020626597106456757, -0.052675001323223114, -0.18030595779418945, -0.13325168192386627, -0.03855594992637634, 0.04153667390346527, -0.15463009476661682, -0.049501724541187286, 0.06224057450890541, 0.04019669443368912, -0.14419734477996826, -0.09026432037353516, -0.08586637675762177, -0.044824231415987015, -0.011811736971139908, -0.055960763245821, -0.06611083447933197, 0.07093004882335663, 0.01912340149283409, -0.014039115980267525, -0.06689027696847916, 0.055157359689474106, -0.042025286704301834, 0.0965452715754509, 0.1478378176689148, -0.061266615986824036, -0.11662496626377106, -0.02298714779317379, 0.006129496265202761, -0.06292472034692764, 0.1794266700744629, -0.08862429112195969, -0.07187997549772263, -0.12507590651512146, -0.13077089190483093, 0.27398398518562317, 0.01845237798988819, 0.06066659837961197, -0.013466119766235352, 0.02634269930422306, 0.0862848162651062, -0.2547973394393921, -0.18053996562957764, -0.026211779564619064, -0.03449074551463127, 0.019898073747754097, -0.1547222137451172, 0.11321926862001419, -0.17709565162658691, -0.18686814606189728, 0.0135588264092803, -0.037940993905067444, 0.024385638535022736, 0.16883879899978638, -0.08916806429624557, 0.0007977231289260089, 0.059827130287885666, -0.09151144325733185, 0.055069345980882645, -0.0016207067528739572, -0.07149175554513931, 0.0008970608469098806, 0.007752229459583759, -0.025734009221196175, -0.016521144658327103, 0.02167503349483013, 0.044740356504917145, 0.029469553381204605, 0.027139654383063316, -0.0568150132894516, -0.032631002366542816], [0.1682792603969574, 0.22533270716667175, 0.28257861733436584, 0.378041535615921, 0.27900341153144836, 0.2119150459766388, 0.09124499559402466, 0.042708780616521835, -0.04632539302110672, -0.16750255227088928, -0.23988214135169983, -0.2588560879230499, -0.17975278198719025, -0.15895424783229828, 0.01293181348592043, -0.07521667331457138, -0.19908340275287628, 0.07120059430599213, -0.006917415652424097, 0.041196469217538834, 0.06258958578109741, 0.013293769210577011, 0.08187777549028397, 0.08533456921577454, 0.09911888092756271, 0.12395825982093811, -0.15031693875789642, -0.261037677526474, -0.1496821492910385, -0.11354514211416245, -0.13256196677684784, 0.04505440965294838, 0.09945613145828247, -0.03022800013422966, -0.016013942658901215, 0.047876499593257904, 0.029458733275532722, -0.08492276072502136, 0.04337448254227638, -0.062154531478881836, -0.05606326088309288, 0.06721772253513336, -0.1707393378019333, -0.013864919543266296, 0.12207555025815964, -0.02915402688086033, 0.009644717909395695, -0.04631322622299194, -0.085634246468544, 0.06390063464641571, -0.21755248308181763, 0.07129111886024475, -0.11544159799814224, -0.05935143306851387, -0.10340315848588943, 0.036095742136240005, -0.028285909444093704, -0.1655290126800537, -0.15163792669773102, 0.04631651192903519, -0.062395382672548294, -0.21040058135986328, -0.01663842797279358, -0.011632419191300869, -0.13963747024536133, -0.1264808177947998, -0.018126405775547028, -0.09816410392522812, -0.04462872073054314, -0.08165857195854187, 0.03570714592933655, 0.03878975659608841, -0.007100741378962994, -0.1728682965040207, -0.05284553021192551, 0.1265610307455063, -0.06714688241481781, -0.15229418873786926, -0.07976881414651871, -0.05173872783780098, 0.0060262964107096195, 0.020192131400108337, -0.016311973333358765, 0.02503751404583454, -0.05620690435171127, 0.0946766808629036, 0.009254262782633305, 0.03743794932961464, -0.15436036884784698, -0.14952851831912994, 0.20594987273216248, 0.006674313452094793, 0.025067852810025215, 0.13927258551120758, 0.046134307980537415, 0.08544879406690598, 0.06530700623989105, 0.1217130497097969, 0.09224580228328705, 0.023007601499557495, -0.2858908176422119, 0.010148960165679455, 0.05097769573330879, -0.35652559995651245, -0.08720025420188904, 0.08431331813335419, 0.14196589589118958, 0.15561169385910034, -0.062066081911325455, -0.005108461249619722, 0.13909606635570526, 0.09624295681715012, -0.06062547490000725, 0.008267493918538094, -0.005094421561807394, -0.04378705471754074, -0.02611699514091015, 0.0409085787832737, 0.04732372611761093, -0.0875592827796936, -0.00027297012275084853, 0.004805141128599644, 0.03181331977248192, -0.007716582156717777, -0.029583128169178963, -0.053335752338171005, -0.013892409391701221, 0.03802720084786415], [-0.21880176663398743, -0.10059037804603577, -0.026015348732471466, -0.07927121222019196, -0.11122972518205643, -0.020123152062296867, -0.2195463329553604, -0.21405814588069916, -0.09244687855243683, -0.12649978697299957, 0.0004634052747860551, -0.052461519837379456, -0.00012858536501880735, 0.06445644050836563, -0.014346136711537838, 0.06421910971403122, -0.031144870445132256, 0.008134949952363968, -0.08425245434045792, 0.16897079348564148, 0.2695690393447876, -0.07267038524150848, -0.18426766991615295, -0.01823996938765049, -0.06785179674625397, 0.2277747243642807, 0.08379799127578735, 0.07268057018518448, -0.01421479694545269, 0.06642613559961319, 0.07113686949014664, 0.008566465228796005, 0.04275420308113098, 0.028246058151125908, -0.09810061007738113, -0.05693376809358597, -0.015478966757655144, -0.008451362140476704, -0.0058044129982590675, -0.007868805900216103, -0.11097586154937744, 0.06221672520041466, 0.09390236437320709, -0.010023221373558044, -0.05218029394745827, -0.04700838029384613, -0.07989033311605453, -0.0880744457244873, -0.07580467313528061, -0.04107872024178505, 0.03825901821255684, 0.05129034072160721, 0.06879225373268127, 0.07725914567708969, 0.04662873223423958, -0.010464327409863472, -0.0019109157146885991, -0.009016323834657669, 0.03480546921491623, -0.029329728335142136, 0.02633783593773842, 0.015088518150150776, -0.05626702308654785, 0.04209493100643158, 0.06640851497650146, 0.037943221628665924, -0.0912054032087326, -0.057548508048057556, -0.02881942130625248, 0.001974228536710143, -0.08450845628976822, -0.06024681776762009, 0.01927671581506729, -0.0316641665995121, 0.06026303395628929, 0.1066957488656044, -0.1767440140247345, 0.12979350984096527, 0.03896971046924591, 0.11059673875570297, 0.0411536879837513, 0.03617408126592636, 0.09639137238264084, -0.07838651537895203, -0.11845174431800842, 0.18583625555038452, 0.16788043081760406, 0.061042193323373795, 0.10609129816293716, 0.023555025458335876, 0.1363932341337204, 0.03647061064839363, 0.10272247344255447, -0.0025807786732912064, -0.017665313556790352, 0.019853536039590836, 0.02886570245027542, -0.030936000868678093, 0.05597170442342758, -0.06228682026267052, -0.15995588898658752, 0.0979519784450531, 0.1297089010477066, -0.04879999905824661, -0.03638274967670441, -0.011477112770080566, -0.02934051677584648, 0.10858999192714691, 0.030705053359270096, 0.039821427315473557, -0.048529598861932755, -0.005907292477786541, 0.08615260571241379, 0.14711110293865204, 0.04262978583574295, 0.006873004604130983, 0.09541940689086914, 0.13613279163837433, 0.0886562392115593, 0.036895547062158585, 0.09758634865283966, -0.01060914620757103, 0.10335095226764679, -0.04870779067277908, 0.07300597429275513, 0.0940556451678276, 0.05747859925031662, 0.14378173649311066], [-0.06456564366817474, -0.11398337036371231, -0.08870409429073334, 0.0989561527967453, 0.1130799725651741, 0.0651012733578682, 0.11963535100221634, 0.026973601430654526, -0.02421475388109684, -0.11944374442100525, 0.0785495862364769, -0.06870799511671066, 0.08481575548648834, 0.14054752886295319, -0.041951727122068405, 0.02979658544063568, -0.04497315734624863, 0.10926207154989243, 0.10013704001903534, -0.021232392638921738, 0.12294077128171921, 0.028828149661421776, 0.24043205380439758, 0.22000353038311005, -0.03046267479658127, -0.4219123125076294, 0.19488175213336945, 0.12696655094623566, 0.09243348240852356, 0.11168268322944641, 0.15382534265518188, 0.19910626113414764, 0.07316872477531433, -0.08341160416603088, 0.18443037569522858, 0.04285990446805954, -0.03352590650320053, -0.13092398643493652, 0.025524716824293137, -0.000533701095264405, 0.028729751706123352, -0.044702451676130295, 0.189846932888031, 0.09618429839611053, 0.07734276354312897, 0.1342460811138153, -0.038956183940172195, 0.05780090019106865, -0.07079675793647766, 0.11664785444736481, 0.05690143257379532, 0.06065233424305916, -0.08120559900999069, -0.011347468942403793, 0.011792355217039585, 0.01359531469643116, 0.020361896604299545, -0.012365409173071384, 0.01683994196355343, -0.1376679688692093, 0.11142773926258087, 0.03825085610151291, -0.01770566776394844, 0.16707688570022583, 0.07383937388658524, -0.10803253203630447, -0.04962599650025368, -0.08788634091615677, 0.01464440580457449, 0.07971199601888657, 0.0771825984120369, -0.03800436109304428, -0.06563954055309296, 0.00342250382527709, 0.06045595556497574, 0.03357899934053421, -0.042383573949337006, 0.004837376996874809, -0.1640060544013977, -0.10089699923992157, 0.07678680121898651, 0.07394393533468246, 0.14245352149009705, -0.09033903479576111, -0.002616310026496649, 0.1433420330286026, -0.07465476542711258, -0.02134653367102146, -0.08831023424863815, -0.38058602809906006, -0.11345034092664719, -0.08242493122816086, 0.03411892428994179, -0.0853770524263382, 0.009360636584460735, 0.020774416625499725, 0.12278460711240768, 0.07084938883781433, 0.1747140735387802, 0.0295175239443779, 0.1636972725391388, 0.08076028525829315, -0.018022477626800537, 0.09388513118028641, 0.01994132064282894, -0.03257089480757713, 0.09508447349071503, 0.2974986135959625, -0.08151690661907196, 0.04411609470844269, 0.09383457154035568, -0.03973895311355591, -0.021790605038404465, 0.006360598374158144, -0.0919680967926979, 0.03977804630994797, -0.03526784107089043, -0.041919197887182236, -0.029642801731824875, -0.03536556661128998, -0.013932900503277779, -0.05746887996792793, 0.00029174439259804785, -0.03576189652085304, 0.0655554011464119, -0.007602060679346323, -0.08046504855155945, 0.13252472877502441], [0.037962306290864944, 0.36516043543815613, -0.02762163057923317, 0.18618150055408478, 0.13036572933197021, -0.021702496334910393, -0.12154019623994827, -0.17313800752162933, -0.045536309480667114, -0.11437023431062698, -0.02417730912566185, 