{"arch": "mlp", "activation": "relu", "layers": [{"w": [[0.29371607303619385, 0.15746651589870453, -0.04451573267579079, 0.15950115025043488, 0.29625043272972107, 0.2606545388698578, 0.07556720823049545, -0.05209183320403099, -0.05666734278202057, -0.13063320517539978, -0.1510828286409378, -0.09687058627605438, -0.14589284360408783, -0.27440375089645386, -0.6015656590461731, 0.10299611836671829, 0.1406644582748413, 0.19307748973369598, 0.016927441582083702, -0.024667268618941307, -0.045190125703811646, 0.15034699440002441, -0.026323260739445686, 0.034319594502449036, 0.026485368609428406, -0.08025165647268295, 0.16907531023025513, -0.1526375561952591, -0.11372387409210205, 0.16736717522144318, -0.04367396980524063, 0.1545962244272232, 0.14600498974323273, -0.12876980006694794, -0.17072637379169464, 0.023457562550902367, 0.006986744701862335, -0.1250758171081543, -0.26068463921546936, -0.010612797923386097, 0.10002175718545914, 0.0038075388874858618, 0.042326394468545914, 0.10151554644107819, 0.06305968016386032, 0.0055977045558393, 0.07827845215797424, 0.026295408606529236, 0.07567394524812698, 0.04506528005003929, 0.06053164601325989, 0.08460914343595505, -0.09075155854225159, -0.10241714119911194, 0.09947846829891205, -0.11825024336576462, 0.09339816868305206, -0.14489245414733887, 0.11635565012693405, 0.13065001368522644, 0.18179470300674438, -0.034040868282318115, 0.03287072107195854, 0.144481360912323, -0.006755322217941284, 0.041734691709280014, -0.14218805730342865, -0.006845824886113405, 0.12716437876224518, -0.014307850040495396, -0.049180254340171814, 0.14570029079914093, 0.2081272006034851, 0.04931045323610306, 0.25380468368530273, 0.13603699207305908, 0.16122302412986755, 0.02551671676337719, -0.04737846553325653, -0.05473124980926514, -0.1710686832666397, 0.12986402213573456, 0.04854818060994148, -0.24151699244976044, -0.005833755247294903, 0.06696739047765732, 0.10706090927124023, 0.006078808568418026, 0.12017674744129181, -0.033101778477430344, -0.023606829345226288, -0.026920706033706665, -0.15460649132728577, 0.01480122935026884, -0.2532733380794525, -0.18178528547286987, 0.056193020194768906, 0.08676639944314957, 0.013617067597806454, 0.0074232532642781734, 0.1062295138835907, 0.09771322458982468, -0.1739477515220642, 0.02403004840016365, 0.03733109310269356, 0.10726749151945114, -0.012586862780153751, -0.031246768310666084, -0.004870163276791573, 0.013271072879433632, 0.09300953149795532, 0.009291937574744225, -0.13659673929214478, 0.12746165692806244, 0.12068633735179901, -0.01607341878116131, 0.020271355286240578, 0.001486720866523683, -0.010842842049896717, -0.013284248299896717, 0.11429508030414581, 0.008459684439003468, 0.0059153675101697445, 0.016672365367412567, -0.03364044055342674, -0.008660025894641876, 0.0007640398689545691, -0.02739204652607441], [-0.1063913106918335, 0.04724673926830292, -0.11740934103727341, 0.01893904060125351, -0.01838652603328228, -0.022633280605077744, 0.09474502503871918, -0.017082739621400833, -0.047524597495794296, -0.09625934809446335, -0.0373503640294075, 0.13309602439403534, -0.023287689313292503, 0.08164218068122864, 0.11710379272699356, 0.10538571327924728, 0.020955391228199005, -0.06493519991636276, -0.028431467711925507, -0.03850489854812622, -0.1761694699525833, 0.08065411448478699, 0.0044496795162558556, -0.026193710044026375, 0.14757482707500458, -0.09474270790815353, 0.24048294126987457, -0.015383818186819553, -0.057205382734537125, -0.22747845947742462, 0.07016239315271378, -0.1193380132317543, -0.16507814824581146, -0.01833232305943966, -0.03269344940781593, -0.16094695031642914, -0.1946547031402588, 0.054013609886169434, -0.124264657497406, 0.1106029599905014, 0.039621155709028244, 0.10175985842943192, 0.22198966145515442, -0.08081338554620743, -0.0460825078189373, -0.14980553090572357, -0.14223559200763702, 0.12286097556352615, 0.10493402183055878, 0.10706883668899536, 0.028641177341341972, 0.005871656350791454, -0.04391110688447952, 0.0016034625004976988, 0.13832557201385498, 0.011431082151830196, -0.08163768798112869, -0.042958587408065796, -0.05309087783098221, -0.09362808614969254, 0.013947872444987297, 0.11240307986736298, 0.15438947081565857, 0.0470539852976799, -0.017504489049315453, -0.11671141535043716, -0.14790217578411102, -0.2744413912296295, 0.11879292875528336, -0.04912380874156952, 0.036392178386449814, -0.1450444757938385, -0.031085902824997902, 0.1777796745300293, -0.04999034106731415, 0.0520518459379673, 0.12194152176380157, 0.16170339286327362, -0.10181325674057007, 0.003956363536417484, 0.07940150797367096, 0.05134032666683197, 0.07476077228784561, -0.03444055840373039, 0.08326597511768341, -0.08170294761657715, 0.13067089021205902, 0.16664646565914154, -0.094989113509655, -0.19316142797470093, 0.18849430978298187, 0.09272145479917526, 0.16766324639320374, 0.14804229140281677, 0.26137876510620117, 0.052000224590301514, -0.08531081676483154, -0.2088511437177658, -0.25333333015441895, 0.10665835440158844, -0.11414525657892227, -0.05676602944731712, -0.10547778755426407, -0.12745951116085052, 0.0003887671628035605, 0.08425648510456085, 0.06626129150390625, 0.003191479714587331, 0.03964253515005112, -0.06248137354850769, -0.4197230041027069, 0.09954608976840973, 0.0030003415886312723, 0.13417866826057434, -0.01859358884394169, -0.009159334003925323, 0.03882903605699539, -0.07780376821756363, 0.07665332406759262, 0.00665231142193079, 0.0196066927164793, -0.008305567316710949, -0.03542150929570198, 0.05509117245674133, 0.18415848910808563, 0.005866342689841986, 0.0814906507730484, -0.0443122461438179], [-0.11754395067691803, 0.21383357048034668, 0.07365216314792633, -0.32041776180267334, 0.10431148111820221, 0.2858222723007202, 0.22493842244148254, 0.1196293756365776, 0.006572613958269358, 0.08820238709449768, 0.05631939321756363, 0.10020816326141357, -0.015263773500919342, 0.0894261822104454, 0.09516345709562302, 0.10629331320524216, -0.3314049541950226, 0.25192439556121826, -0.6513149738311768, -0.1225954070687294, 0.18378768861293793, -0.17695458233356476, 0.033575527369976044, 0.04005332291126251, 0.12228189408779144, -0.30046454071998596, -0.08200878649950027, 0.01601766049861908, -0.007137498818337917, 0.2930057942867279, -0.5752371549606323, 0.12672196328639984, 0.11412318050861359, -0.040638554841279984, 0.07863372564315796, 0.0774771198630333, 0.09911105036735535, -0.06535259634256363, -0.005437982734292746, -0.18608684837818146, 0.06071646511554718, -0.04514250159263611, 0.15516556799411774, -0.04201338440179825, -0.0725364089012146, 0.013253239914774895, -0.056942809373140335, 0.00297861872240901, 0.08396851271390915, 0.12705184519290924, 0.046368055045604706, 0.11089757829904556, 0.02009515091776848, -0.0834372490644455, -0.02254522778093815, -0.005292026326060295, -0.16848523914813995, -0.014439992606639862, 0.13712364435195923, 0.03218257427215576, 0.11664116382598877, 0.05487864464521408, 0.03715044632554054, -0.01707957312464714, 0.12564417719841003, -0.019383559003472328, -0.005688619799911976, -0.05255602300167084, -0.09576188027858734, -0.015820102766156197, -0.10162989795207977, 0.10259734094142914, 0.09952642023563385, 0.1385432928800583, -0.30654817819595337, -0.05131978914141655, -0.044608596712350845, -0.07489968836307526, -0.031092539429664612, -0.03217519819736481, -0.06023499369621277, -0.061827223747968674, 0.4074822664260864, 0.09223458170890808, 0.038067109882831573, 0.15168815851211548, 0.02954590506851673, -0.013341456651687622, -0.254533588886261, -0.3149564564228058, -0.022747041657567024, 0.17037726938724518, 0.01069964375346899, -0.05175716429948807, 0.07604824006557465, -0.05961575359106064, -0.06462855637073517, 0.11004770547151566, -0.025391176342964172, 0.2788754105567932, -0.36060014367103577, 0.1691204011440277, 0.1609971970319748, -0.02258339896798134, 0.009481982327997684, -0.032612256705760956, 0.09123022109270096, 0.19871513545513153, 0.04782124608755112, 0.08292733877897263, -0.12074128538370132, -0.03940146788954735, -0.07212114334106445, -0.08061408251523972, 0.05227896571159363, 0.042139939963817596, 0.004311461467295885, -0.027889443561434746, -0.005133953411132097, 0.10089991241693497, -0.013732902705669403, 0.04979025572538376, 0.034632839262485504, -0.002467951038852334, 0.05577657371759415, 0.03224070370197296, 0.013755391351878643, 0.0765296071767807], [-0.09833459556102753, -0.06515394151210785, -0.10837875306606293, -0.4343017339706421, -0.04486742615699768, 0.02737705409526825, -0.4521683156490326, 0.02051372081041336, 0.004351569339632988, -0.15061534941196442, -0.2817417085170746, -0.06271420419216156, -0.13655875623226166, -0.44144779443740845, -0.16095568239688873, -0.12644992768764496, -0.16616792976856232, 0.09378181397914886, 0.2139595001935959, 0.23682735860347748, 0.04886676371097565, -0.20588602125644684, 0.08216798305511475, 0.3437240421772003, 0.09148853272199631, -0.06370444595813751, 0.23652328550815582, 0.12384767085313797, 0.17099303007125854, 0.015246957540512085, -0.0992610827088356, -0.4508557915687561, -0.09086188673973083, -0.09025032818317413, 0.11501091718673706, 0.027640363201498985, -0.18211697041988373, -0.010719949379563332, 0.11647713929414749, -0.05949528142809868, -0.058923810720443726, -0.11397071182727814, -0.1520734578371048, -0.15782880783081055, 0.013619630597531796, -0.07707060873508453, -0.027415703982114792, 0.003729654708877206, -0.046215515583753586, -0.013769458048045635, 0.010312862694263458, -0.025759411975741386, -0.00615008594468236, -0.1266021728515625, 0.000439572730101645, -0.22000175714492798, -0.03325565904378891, -0.08753857761621475, -0.029523534700274467, 0.03950703516602516, 0.02804715372622013, 0.061550676822662354, 0.02414780855178833, -0.008086294867098331, 0.04474208876490593, -0.04687176272273064, 0.10249500721693039, 0.07787271589040756, 0.15179669857025146, 0.09750895947217941, -0.16489045321941376, 0.06520238518714905, 0.13752934336662292, 0.13307425379753113, -0.11697476357221603, -0.057471614331007004, -0.24627216160297394, -0.0027126604691147804, 0.022225728258490562, -0.08345603942871094, 0.228917196393013, 0.023905029520392418, 0.08574789762496948, -0.029752260074019432, -0.13415822386741638, -0.03708610311150551, 0.13289682567119598, 0.12786634266376495, 0.01973392441868782, -0.10046081990003586, -0.0005810257862322032, -0.039607007056474686, 0.043675653636455536, 0.10011277347803116, -0.04074697941541672, 0.03247394040226936, -0.049924492835998535, -0.07837139070034027, -0.07985072582960129, 0.05033545196056366, -0.04548484459519386, 0.0397220104932785, 0.09858458489179611, 0.055085763335227966, 0.00711880112066865, 0.15228410065174103, 0.006966087967157364, -0.14817582070827484, 0.043814945966005325, -0.061923980712890625, -0.005219385027885437, -0.08424441516399384, 0.009914892725646496, -0.09442964941263199, 0.14466126263141632, 0.08993610739707947, 0.04261137917637825, 0.05060696601867676, 0.011891043744981289, 0.14664025604724884, 0.08546489477157593, -0.01855466328561306, 0.026020139455795288, 0.1281297504901886, 0.012258163653314114, 0.04280657321214676, 0.0012666353723034263, 0.015127613209187984], [-0.038083963096141815, -0.381539911031723, -0.1387093961238861, -0.2138366997241974, -0.10768274962902069, -0.11654505133628845, 0.06641434133052826, -0.2908914089202881, -0.05817002058029175, -0.1408517211675644, -0.10571984201669693, -0.055947862565517426, -0.21881017088890076, -0.06835262477397919, 0.2194398194551468, 0.09493549913167953, -0.028014549985527992, -0.011910928413271904, 0.021473849192261696, 0.05593302100896835, -0.26231229305267334, -0.13815928995609283, 9.98849282041192e-06, 0.04709158465266228, -0.0018593540880829096, -0.022060008719563484, -0.051986709237098694, 0.013974190689623356, -0.11053989082574844, 0.05655766651034355, -0.07216332107782364, -0.0141338175162673, 0.013458913192152977, 0.20666024088859558, -0.06517136842012405, 0.12778332829475403, 0.07822883129119873, -0.046963468194007874, 0.026786986738443375, -0.179112508893013, -0.02164563536643982, -0.10851668566465378, -0.017220566049218178, -0.16010649502277374, -0.15275898575782776, 0.0098990797996521, 0.0003798571415245533, -0.03765852749347687, -0.14855843782424927, -0.03621813654899597, -0.11611161381006241, -0.08444810658693314, 0.0015698567731305957, 0.0229220911860466, -0.011434647254645824, 0.01358355674892664, 0.010877332650125027, 0.08656173944473267, 0.161385640501976, 0.12087315320968628, 0.12986598908901215, 0.033914949744939804, 0.049642276018857956, 0.05291195958852768, -0.008261565119028091, -0.07728835195302963, -0.07045810669660568, 0.007650283165276051, -0.26248598098754883, -0.06881736218929291, -0.23109501600265503, -0.08686055988073349, -0.036077890545129776, -0.1330278217792511, -0.05382981896400452, -0.08629456907510757, -0.0967719778418541, 0.08472298830747604, -0.02151634730398655, -0.09884566068649292, -0.0489492304623127, 0.07657422870397568, 0.02834230102598667, -0.058377884328365326, -0.148514524102211, 0.11302067339420319, -0.018465537577867508, 0.17585110664367676, 0.026300087571144104, -0.1321599781513214, 0.046251386404037476, 0.044286858290433884, -0.19923685491085052, 0.012763628736138344, 0.1386396288871765, -0.005731758661568165, 0.001871414133347571, 0.037289950996637344, 0.09087130427360535, 0.04977606236934662, 0.06621371954679489, -0.009863769635558128, 0.04911654070019722, -0.30656784772872925, -0.15510796010494232, -0.2652372717857361, -0.1831590235233307, 0.053849536925554276, -0.04089345410466194, 0.08361533284187317, -0.11925125867128372, -0.25579893589019775, 0.08832204341888428, -0.0940789207816124, 0.18902836740016937, 0.06628920137882233, 0.007274908944964409, 0.003596457652747631, 0.06044190004467964, -0.016792025417089462, -0.032138459384441376, 0.05438365787267685, -0.0593736432492733, 0.0412653312087059, 0.04253777489066124, -0.03201306238770485, 0.028290104120969772, 0.04907126724720001], [-0.06532011926174164, -0.004051473923027515, 0.08749543130397797, 0.013789082877337933, -0.04395468160510063, 0.04951072856783867, 0.03937631472945213, -0.11077240109443665, -0.000758468930143863, -0.14520347118377686, 0.07344572991132736, 0.11972063034772873, 0.18339692056179047, -0.22078390419483185, -0.1913350522518158, -0.1329905241727829, 0.08144306391477585, 0.07970093190670013, -0.5684183239936829, 0.3651638329029083, -0.12489762902259827, -0.3188380002975464, 0.5510631799697876, -0.6107856631278992, -0.6764052510261536, 0.22476941347122192, -0.3109387457370758, 0.08311855792999268, -0.07654803991317749, 0.11075158417224884, -0.2585889995098114, -0.24217328429222107, 0.35258081555366516, -0.4743536412715912, -0.39428043365478516, 0.385017067193985, -0.8218333125114441, -0.8916427493095398, 0.19698357582092285, -0.1347803771495819, -0.21092873811721802, -0.06757255643606186, -0.009095881134271622, -0.17961062490940094, -0.021315056830644608, 0.21519620716571808, -0.05655180290341377, 0.04225741699337959, 0.14979398250579834, 0.10035048425197601, 0.12197915464639664, 0.033365193754434586, -0.016336942091584206, -0.057342179119586945, -0.15658971667289734, -0.10604646056890488, -0.13197901844978333, 0.07740473002195358, -0.18168197572231293, -0.00888840202242136, -0.05862827226519585, -0.20961472392082214, -0.13362976908683777, -0.16907145082950592, -0.05328941345214844, 0.12566430866718292, 0.12512783706188202, 0.14550893008708954, 0.17355255782604218, 0.11791592836380005, -0.022777380421757698, -0.08228977769613266, 0.21403157711029053, 0.06361551582813263, 0.027561398223042488, 0.25955715775489807, -0.09414776414632797, 0.035295478999614716, 0.08227594941854477, 0.11721724271774292, 0.20872680842876434, -0.03550967946648598, -0.03423698991537094, -0.007523498497903347, -0.25141870975494385, 0.008714139461517334, 0.2829148769378662, -0.33703768253326416, -0.01049720123410225, -0.12095616012811661, 0.1986536830663681, 0.1852051466703415, -0.0002738006296567619, -0.018043948337435722, -0.20723111927509308, -0.3695869743824005, -0.24434778094291687, -0.23765990138053894, 0.2510767877101898, 0.034794170409440994, -0.11543294787406921, -0.22105079889297485, -0.12107297778129578, -0.0018108387012034655, 0.035365983843803406, 0.35940679907798767, 0.07449430227279663, -0.0063376217149198055, -0.009689117781817913, -0.027814475819468498, -0.1745816320180893, -0.015449524857103825, 0.03513839840888977, 0.010266748256981373, 0.015436939895153046, -0.0782398208975792, -0.09790549427270889, -0.03509173169732094, -0.023359140381217003, -0.09608543664216995, -0.12499023973941803, 0.0988861471414566, -0.13730363547801971, 0.07359103858470917, 0.1572767198085785, -0.10847727209329605, -0.040989652276039124, 0.06922321021556854], [0.1712600588798523, -0.06944161653518677, -0.05509629845619202, 0.02491174452006817, 0.19343580305576324, 0.13978879153728485, 0.19855041801929474, 0.15853466093540192, 0.19362543523311615, 0.027221685275435448, 0.2678012251853943, 0.18606805801391602, 0.1338736116886139, 0.23228342831134796, -0.31408172845840454, -0.37286576628685, -0.07253555953502655, -0.24461936950683594, -0.18509487807750702, 0.18743085861206055, -0.06460830569267273, 0.08857343345880508, -0.14898422360420227, 0.14167872071266174, 0.015083459205925465, 0.11775408685207367, 0.38448917865753174, -0.31996950507164, -0.08571576327085495, -0.021094217896461487, -0.14206615090370178, -0.2368459552526474, 0.09867626428604126, -0.13151130080223083, -0.16140027344226837, -0.0258649755269289, 0.005353389773517847, 0.07045578956604004, 0.053121887147426605, -0.04460688307881355, -0.06553121656179428, -0.23091869056224823, -0.05507832020521164, -0.1864137053489685, -0.1436128467321396, -0.11841977387666702, 0.05313623696565628, -0.048714134842157364, 0.04858415946364403, 0.03701432794332504, 0.003527243621647358, 0.09233666211366653, -0.042412057518959045, -0.06328810006380081, 0.002491869730874896, -0.02936258167028427, 0.19495350122451782, 0.02209954336285591, -0.02863343618810177, 0.08136098086833954, 0.01377586368471384, 0.06010345742106438, -0.03475741297006607, -0.034178171306848526, -0.0645555853843689, -0.05456741899251938, 0.07364512234926224, -0.09629090875387192, -0.11093954741954803, -0.1374008059501648, -0.09098499268293381, 0.030262673273682594, 0.0230228453874588, 0.18194064497947693, 0.11123111099004745, 0.11688355356454849, 0.04716495797038078, 0.07818970829248428, 0.10561320930719376, -0.00736166862770915, 0.00432251114398241, 0.07142682373523712, 0.10076570510864258, 0.03640923276543617, -0.025075314566493034, -0.12567871809005737, 0.08951005339622498, -0.24600589275360107, -0.17256146669387817, -0.1178876981139183, 0.028694698587059975, 0.046745724976062775, 0.05807039886713028, 0.07476363331079483, 0.0005549790221266448, 0.012942064553499222, 0.09733246266841888, -0.0680571049451828, 0.041902605444192886, 0.07597196847200394, -0.09004855155944824, 0.023418443277478218, 0.0017214969266206026, -0.17378316819667816, -0.10716819018125534, -0.08680897951126099, -0.009465857408940792, -0.0081253657117486, 0.06772759556770325, 0.08591430634260178, -0.04730033874511719, 0.053680695593357086, -0.09909150004386902, -0.07408762723207474, -0.13474741578102112, 0.15118364989757538, -0.013890703208744526, 0.00679010758176446, -0.026558710262179375, -0.019034873694181442, -0.025806386023759842, 0.06868089735507965, 0.020806100219488144, 0.06677215546369553, -0.002855395432561636, 0.08945927768945694, 0.029385436326265335, 0.11890999972820282], [0.20059213042259216, 0.1683485209941864, 0.5281223058700562, 0.24713638424873352, 0.25450313091278076, 0.39479368925094604, 0.097727470099926, 0.14574022591114044, 0.07820003479719162, -0.21472975611686707, -0.26230865716934204, -0.25937139987945557, -0.26882368326187134, -0.15913687646389008, 0.0879376232624054, 0.029031654819846153, 0.029247676953673363, -0.02042253687977791, 0.1117749884724617, 0.20410235226154327, 0.0037083220668137074, -0.10901105403900146, 0.04682697728276253, 0.0866067185997963, 0.15449152886867523, -0.123857781291008, -0.2797918915748596, 0.10325584560632706, 0.03319139406085014, 0.005716673098504543, 0.14685581624507904, -0.07273390889167786, 0.06839060038328171, 0.042745038866996765, 0.0952255129814148, -0.026137562468647957, -0.19873450696468353, 0.07316075265407562, -0.015528122894465923, 0.11950632184743881, 0.060328755527734756, 0.05782707408070564, 0.1509997844696045, 0.0878201499581337, 0.06977053731679916, -0.021864980459213257, -0.029694240540266037, 0.049551550298929214, 0.03806377947330475, -0.049625568091869354, -0.06657714396715164, -0.0618085153400898, -0.069316565990448, -0.20133230090141296, -0.120343878865242, -0.11261141300201416, -0.17620155215263367, -0.08022110164165497, -0.11807826161384583, -0.16478583216667175, -0.09076438099145889, -0.0732341781258583, -0.0336768813431263, -0.0073838611133396626, 0.01336563378572464, 0.1324937343597412, 0.040053464472293854, 0.13179250061511993, -0.0493924617767334, 0.2212403267621994, 0.09415598958730698, -0.013938144780695438, -0.13749641180038452, 0.09347338229417801, -0.021655576303601265, 0.12310808151960373, 0.005068095400929451, 0.007085585501044989, -0.41544169187545776, 0.1026267483830452, -0.012915053404867649, 0.05613557994365692, -0.16639988124370575, 0.19933165609836578, -0.019898882135748863, -0.04133550450205803, 0.15994049608707428, 0.14306098222732544, 0.0461653433740139, -0.15353935956954956, 0.006915512029081583, -0.02850216068327427, -0.04935724288225174, 0.008781427517533302, -0.19446779787540436, -0.056779101490974426, -0.011465146206319332, 0.005041444208472967, 0.17484138906002045, 0.04373567923903465, 0.044328030198812485, -0.11302115768194199, 0.11382222175598145, -0.027627240866422653, -0.07113904505968094, -0.1901247352361679, 0.04502984136343002, 0.06661146134138107, -0.019015057012438774, 0.05122512951493263, 0.09196418523788452, -0.04771449789404869, -0.039639633148908615, 0.00430516479536891, -0.07351171970367432, 0.07288604229688644, 0.06672393530607224, 0.0656774491071701, 0.012391618452966213, 0.011573686264455318, 0.08553563803434372, -0.02084526978433132, -0.052883293479681015, 0.008810044266283512, 0.023427316918969154, -0.06093804910778999, 0.000147156766615808, -0.03784468024969101], [-0.19796788692474365, -0.2218327522277832, -0.08804580569267273, 0.004304856061935425, 0.029620952904224396, 0.12459911406040192, -0.01942485198378563, -0.12899886071681976, -0.2446208894252777, -0.25887176394462585, -0.21967804431915283, -0.1911633014678955, -0.2514321804046631, 0.07302363961935043, -0.047277286648750305, 0.1700107902288437, 0.02473727986216545, 0.11789990961551666, -0.23929239809513092, -0.03983370587229729, 0.057520221918821335, 0.04840810224413872, 0.0714283436536789, -0.03718222677707672, 0.010430913418531418, 0.06654667109251022, -0.20774278044700623, 0.07171393930912018, 0.19265392422676086, 0.08878716826438904, 0.09486433118581772, -0.07334814965724945, 0.10537423938512802, 0.0370187871158123, 0.21660956740379333, 0.1833266317844391, 0.07755172252655029, 0.13813389837741852, 0.16468311846256256, 0.024532916024327278, -0.15902337431907654, -0.14739082753658295, -0.010963048785924911, -0.09492051601409912, -0.0944242924451828, 0.00882228184491396, -0.1161361113190651, -0.1029268130660057, -0.007851229049265385, -0.04024055227637291, 0.04784150421619415, -0.014295847155153751, -0.09989955276250839, 0.009049762040376663, 0.1153397187590599, 0.03810865432024002, 0.059101689606904984, -0.06903085112571716, 0.03742532804608345, 0.01964586041867733, 0.07149244844913483, -0.003585814731195569, 0.11489053815603256, 0.10543821007013321, 0.050533637404441833, 0.10278982669115067, 0.03717133775353432, 0.013674121350049973, -0.08223743736743927, 0.04484591260552406, -0.20287424325942993, -0.3089110553264618, -0.1530846506357193, -0.1398797184228897, 0.21240830421447754, 0.01999523863196373, -0.07879020273685455, -0.0312906913459301, 0.09005413949489594, -0.07614617049694061, -0.03809066489338875, -0.0002559905988164246, 0.0061980951577425, -0.39890116453170776, 0.16982091963291168, 0.008393080905079842, -0.08316809684038162, -0.05431350693106651, 0.12508250772953033, -0.04736240953207016, -0.18626199662685394, -0.13141237199306488, -0.20533734560012817, -0.12069603055715561, -0.017477283254265785, 0.1071322113275528, -0.0005603375029750168, 0.04417816177010536, 0.12442938983440399, -0.136091947555542, 0.04341824725270271, -0.0017592401709407568, -0.1118922308087349, 0.015743179246783257, 0.09961219131946564, -0.08670733869075775, -0.3293534517288208, 0.09220156073570251, 0.016525642946362495, 0.0804964005947113, 0.053782735019922256, -0.2883163094520569, 0.03465786576271057, 0.09782551974058151, 0.1464191973209381, -0.011027192696928978, 0.04315567389130592, 0.09005017578601837, 0.03185474872589111, 0.013832238502800465, 0.06009357050061226, -0.025785572826862335, -0.0036582667380571365, 0.00259873503819108, 0.07722063362598419, -0.012869014404714108, 0.02857331931591034, 0.009944531135261059], [-0.07822273671627045, 0.18943561613559723, 0.20296365022659302, 0.10172254592180252, 0.26449477672576904, 0.11254849284887314, 0.2837895154953003, 0.07478263229131699, 0.09240160137414932, 0.0826219767332077, 0.026604197919368744, 0.1140633076429367, 0.21621154248714447, -0.1731513887643814, 0.1509832739830017, 0.03746606037020683, -0.07232217490673065, -0.11440309137105942, 0.18132136762142181, 0.04391492158174515, -0.08596934378147125, 0.10171011835336685, -0.3796941339969635, 0.13720284402370453, -0.018534721806645393, -0.03823235258460045, 0.08592242002487183, -0.1758229285478592, 0.08024928718805313, 0.0917486920952797, -0.07734492421150208, -0.34917330741882324, 0.12397590279579163, -0.18800751864910126, -0.05879684165120125, 0.22028197348117828, 0.0005746289971284568, -0.20310452580451965, 0.017167454585433006, -0.08917557448148727, 0.0713215097784996, 0.05680278316140175, -0.07051105797290802, 0.04810934141278267, 0.19075165688991547, 0.07783371955156326, 0.0008610967197455466, -0.009282024577260017, 0.16457682847976685, 0.08701114356517792, 0.21455919742584229, 0.041848067194223404, -0.017170263454318047, 0.005895235575735569, -0.1984129250049591, 0.04230944812297821, -0.04720677062869072, 0.11940157413482666, 0.056639380753040314, 0.11015643179416656, 0.0044449688866734505, -0.05813167616724968, -0.0465523824095726, 0.021270809695124626, 0.10857950896024704, 0.006360771134495735, 0.06941429525613785, 0.2609306871891022, 0.07075604051351547, 0.026906058192253113, 0.03753446787595749, 0.19625915586948395, 0.23337018489837646, 0.09836941957473755, 0.0650433748960495, 0.017479082569479942, 0.180155947804451, -0.01585354655981064, -0.0049839564599096775, 0.07420208305120468, -0.0946929007768631, -0.06591438502073288, 0.08810435235500336, 0.022347504273056984, 0.11694855988025665, 0.08402612805366516, 0.13204382359981537, 0.010293887928128242, -0.18063756823539734, -0.34139931201934814, 0.10731111466884613, -0.036426689475774765, -0.06291323900222778, -0.003903566859662533, -0.07629254460334778, -0.007691888138651848, 0.029039019718766212, 0.040063176304101944, 0.16175776720046997, 0.3032168745994568, 0.056249912828207016, -0.14368054270744324, -0.041187919676303864, -0.2209385186433792, -0.10323189944028854, -0.04231332987546921, 0.2102144956588745, 0.021783946081995964, -0.08223339915275574, 0.009247745387256145, 0.07503864914178848, -0.059985943138599396, 0.03349631279706955, 0.05565343797206879, -0.052505381405353546, 0.03727462887763977, 0.007167038973420858, 0.08218001574277878, 0.0671892911195755, 0.09205523133277893, -0.02001759596168995, -0.0014983364380896091, -0.10668405890464783, 0.0010448349639773369, 0.055963657796382904, 0.0028771546203643084, -0.014780492521822453, 0.10438866168260574], [-0.1661938577890396, -0.17969286441802979, -0.15672758221626282, -0.1726864129304886, -0.17327117919921875, -0.1839083880186081, -0.14578306674957275, -0.039784301072359085, -0.0028167448472231627, -0.11343210190534592, 0.04544810578227043, 0.006317339837551117, -0.056013721972703934, -0.012864538468420506, -0.18989689648151398, -0.07780363410711288, 0.06958026438951492, -0.13958872854709625, 0.07104086130857468, -0.08128917217254639, 0.09153523296117783, 0.010567965917289257, -0.004682055674493313, 0.15298308432102203, 0.21474526822566986, 0.057465340942144394, -0.06207519397139549, -0.151985302567482, -0.09929210692644119, 0.22443901002407074, 0.22094237804412842, -0.14834998548030853, 0.02924128994345665, -0.02175900712609291, -0.09035457670688629, -0.003912797197699547, -0.04414675012230873, 0.014245579950511456, 0.14097818732261658, -0.04619276523590088, -0.054171375930309296, -0.05282140523195267, -0.06074303388595581, -0.07415247708559036, -0.09680894017219543, -0.015687940642237663, -0.0939147025346756, -0.053373098373413086, 0.026563217863440514, -0.03207401558756828, -0.10532615333795547, -0.20453515648841858, 0.07509975135326385, -0.035458993166685104, -0.08975305408239365, -0.03962172195315361, 0.0788956806063652, 0.03299698606133461, 0.029435811564326286, 0.03269626945257187, -0.06671634316444397, -0.0728231891989708, -0.01303816121071577, 0.09552150964736938, 0.018374299630522728, -0.08567863702774048, 0.11154945194721222, 0.06592929363250732, -0.018404528498649597, 0.07433678954839706, -0.0796554759144783, 0.14885103702545166, 0.11023011058568954, 0.15180103480815887, 0.0016163374530151486, 0.120278500020504, 0.009182287380099297, -0.021115077659487724, 0.03405662253499031, 0.0008854914922267199, 0.08657331764698029, 0.07340973615646362, -0.12516902387142181, 0.16366560757160187, 0.0055295261554419994, 0.18340906500816345, 0.09459158033132553, -0.040964312851428986, -0.09640718996524811, 0.23985961079597473, -0.08352728933095932, -0.05253269523382187, -0.030816448852419853, 0.005063001066446304, 0.08456268161535263, -0.05511370673775673, 0.08551130443811417, -0.012224104255437851, 0.04731042683124542, 0.05457012355327606, -0.03254915028810501, -0.02972591482102871, -0.030768249183893204, -0.05472080409526825, 0.02568008564412594, 0.20339129865169525, 0.0667620375752449, -0.08894162625074387, -0.0546121671795845, 0.06324535608291626, -0.4045465588569641, 0.0020834640599787235, 0.05398641899228096, 0.15366482734680176, 0.12741826474666595, -0.020346054807305336, 0.0188869908452034, -0.013561798259615898, 0.08731427788734436, -0.014360654167830944, -0.04474897310137749, -0.009781762026250362, 0.004360742401331663, 0.11270783096551895, 0.024104904383420944, 0.051891934126615524, 0.07067518681287766, -0.008273488841950893], [0.3325920104980469, 0.010689739137887955, 0.16551479697227478, -0.010944615118205547, 0.12540973722934723, 0.26667648553848267, 0.15895456075668335, 0.24549749493598938, 0.24102917313575745, 0.052638940513134, 0.15124526619911194, 0.23779241740703583, 0.21761628985404968, -0.0798700824379921, -0.017804373055696487, -0.062190860509872437, -0.11673310399055481, -0.23368361592292786, 0.0708681046962738, -0.045146457850933075, -0.05879242345690727, -0.18155387043952942, -0.06413497775793076, 0.12274622917175293, 0.07732691615819931, -0.13711653649806976, -0.168697327375412, 0.005032143089920282, 0.08553844690322876, -0.06021163985133171, -0.21997210383415222, 0.31833788752555847, -0.11317350715398788, -0.15007738769054413, -0.13343121111392975, -0.15264713764190674, 0.08545119315385818, -0.048617828637361526, -0.23889166116714478, 0.20087388157844543, 0.1698831170797348, -0.07848884165287018, 0.10013287514448166, 0.18003858625888824, 0.2276841253042221, -0.21998955309391022, -0.22899697721004486, 0.05232836678624153, 0.20727543532848358, 0.013002376072108746, -0.008548997342586517, 0.17795798182487488, 0.07881642132997513, 0.0005723489448428154, -0.07337567955255508, -0.17173492908477783, -0.16652949154376984, 0.11864184588193893, -0.0531606525182724, 0.09805743396282196, 0.08626963198184967, -0.043068721890449524, 0.023545436561107635, -0.09310328215360641, 0.05786813050508499, 0.0604967400431633, 0.10428766906261444, 0.1734895259141922, 0.1438809633255005, -0.1885136216878891, 0.14130771160125732, 0.26931777596473694, 0.16125161945819855, 0.32610785961151123, 0.020797409117221832, 0.24953143298625946, 0.21954360604286194, 0.07553065568208694, 0.1064949557185173, 0.04385221749544144, 0.073339082300663, -0.09349093586206436, -0.03555956110358238, 0.19332915544509888, 0.014244786463677883, -0.07637453079223633, 0.13206306099891663, 0.08137377351522446, -0.16099807620048523, -0.017257656902074814, -0.05251571536064148, -0.03652610629796982, -0.07398409396409988, -0.126090407371521, 0.03726383298635483, -0.14009717106819153, -0.04328809306025505, -0.03910372778773308, -0.1301591843366623, 0.29026827216148376, 0.08425802737474442, 0.03115127980709076, -0.13868577778339386, 0.26053035259246826, -0.06780987977981567, -0.015692535787820816, -0.049384862184524536, -0.17427562177181244, -0.016375767067074776, 0.0014446463901549578, -0.15679270029067993, -0.27735888957977295, 0.04717802256345749, 0.1485489308834076, -0.11906559020280838, 0.06616128236055374, 0.0458838976919651, -0.0322134830057621, -0.11956164985895157, -0.019435839727520943, -0.0009646971011534333, -0.03810117393732071, 0.06626514345407486, 0.051662761718034744, -0.03190724179148674, -0.03485158458352089, -0.05918358638882637, -0.07795972377061844], [0.4108046293258667, 0.19134840369224548, 0.24945130944252014, 0.24762986600399017, 0.4577425420284271, 0.19396692514419556, 0.1276829093694687, -0.07259229570627213, -0.1674475073814392, -0.12830857932567596, -0.12339186668395996, -0.07007762044668198, -0.036816928535699844, 0.10178254544734955, -0.08393586426973343, 0.03750890865921974, 0.1434539258480072, 0.0940205454826355, 0.07684788107872009, -0.018915563821792603, -0.03693278133869171, -0.022659139707684517, -0.11344911903142929, -0.06175742670893669, -0.0195911955088377, 0.18517416715621948, -0.07007480412721634, 0.002583079971373081, -0.0022812315728515387, -0.05491902306675911, -0.05823177844285965, -0.00785877276211977, 0.06458136439323425, -0.0003242540406063199, -0.1355704516172409, -0.09830920398235321, 0.1209123507142067, 0.09580757468938828, 0.12077121436595917, 0.1064484566450119, 0.08302164822816849, 0.07815089076757431, 0.128615140914917, 0.0892866849899292, 0.042831096798181534, 0.11798416823148727, -0.11418700218200684, 0.02868754416704178, 0.056780681014060974, 0.09091362357139587, 0.05100642517209053, 0.05362426117062569, -0.027779823169112206, -0.07166247069835663, 0.029601387679576874, -0.005390956997871399, -0.13927653431892395, -0.08831124752759933, 0.07905023545026779, 0.034300122410058975, -0.04600728675723076, 0.04542917013168335, 0.08007942140102386, -0.007315464783459902, 0.004972313065081835, 0.06775464862585068, 0.03560852259397507, 0.006090174429118633, -0.0037757190875709057, -0.01089315302670002, 0.0516500361263752, 0.0833248645067215, -0.1128113642334938, 0.04032174497842789, 0.0032200529240071774, 0.07720968127250671, -0.019315361976623535, 0.007725874427706003, -0.10540217906236649, 0.11792341619729996, -0.057369790971279144, 0.0645630955696106, -0.0747814029455185, -0.02915790304541588, -0.15558454394340515, -0.05450894683599472, -0.06598585098981857, 0.12646159529685974, 0.13929398357868195, 0.07275176048278809, 0.03772449865937233, 0.024683857336640358, -0.08783966302871704, -0.016081130132079124, 0.056637074798345566, 0.11974164843559265, 0.2063845545053482, 0.04322819039225578, 0.1075737476348877, 0.028056016191840172, -0.04113444313406944, 0.03972851485013962, -0.0016086520627140999, 0.04680667072534561, 0.03408659249544144, -0.143375426530838, 0.018963785842061043, -0.015131058171391487, 0.07121327519416809, -0.0007997890934348106, 0.11080244928598404, 0.053530383855104446, -0.08901112526655197, -0.15394504368305206, 0.16615237295627594, 0.03324393555521965, -0.024583004415035248, -0.0015772951301187277, 0.02521563321352005, 0.003111944766715169, 0.09237254410982132, 0.04027212783694267, 0.08554060012102127, 0.0629880428314209, 0.018474040552973747, 0.018857695162296295, 0.05406373739242554, 0.0691211000084877], [0.20062045753002167, 0.13542649149894714, -0.20950470864772797, 0.26251929998397827, 0.20052191615104675, 0.21885326504707336, 0.11187367141246796, 0.05817519500851631, -0.19049400091171265, 0.18833893537521362, 0.08734080195426941, 0.035974495112895966, 0.06219499930739403, 0.10364938527345657, -0.1565811038017273, 0.0005055937799625099, -0.12354337424039841, 0.08064350485801697, -0.16245277225971222, -0.047886766493320465, 0.19861455261707306, -0.1669788807630539, -0.4570024609565735, 0.28500181436538696, -0.2018948346376419, -0.03384219482541084, 0.24981480836868286, 0.07094224542379379, -0.026453984901309013, 0.01858637109398842, 0.22264224290847778, -0.25157907605171204, 0.06873105466365814, 0.15815478563308716, 0.09914086759090424, -0.46521615982055664, 0.3671315014362335, 0.03869565576314926, -0.2975708544254303, 0.015057685784995556, 0.12208855152130127, 0.010042455978691578, 0.19580812752246857, 0.08191285282373428, -0.09356538951396942, 0.09007854759693146, 0.08432654291391373, -0.0026154308579862118, -0.11420445144176483, 0.01608988642692566, 0.06221935153007507, -0.11475284397602081, -0.0048383125104010105, -0.015971316024661064, 0.08247881382703781, 0.054325319826602936, -0.010272289626300335, 0.003839799202978611, -0.11708871275186539, -0.03740757703781128, -0.1715817004442215, -0.12100189924240112, -0.06311555951833725, -0.17282982170581818, 0.011683598160743713, 0.04405957832932472, 0.06188201904296875, 0.19408513605594635, 0.1741139441728592, 0.1902642399072647, 0.09995914995670319, 0.03717566281557083, 0.03027855046093464, 0.02317359670996666, -0.05197557061910629, -0.030738867819309235, -0.023380981758236885, -0.054585233330726624, -0.00875439029186964, 0.06230765953660011, 0.0684124082326889, 0.07564867287874222, -0.05916331708431244, 0.11027669161558151, -0.021701840683817863, -0.31180858612060547, -0.20076487958431244, -0.04127359762787819, 0.02222861535847187, -0.04704439640045166, -0.05296457186341286, -0.036785274744033813, 0.022513411939144135, -0.2232930064201355, 0.03423716127872467, 0.06422368437051773, 0.06795475631952286, 0.029379788786172867, -0.00360226072371006, 0.2399725615978241, -0.08548010140657425, -0.17950063943862915, -0.04960881173610687, 0.11700451374053955, 0.23049315810203552, -0.27500391006469727, -0.12471070885658264, 0.05555450916290283, -0.02767874114215374, 0.03848312795162201, -0.11024204641580582, -0.02462044171988964, -0.1632104516029358, 0.00988420844078064, 0.04484141990542412, 0.03555331006646156, 0.040499527007341385, -0.1069740280508995, -0.011014804244041443, 0.037247370928525925, 0.028247907757759094, -0.10445401817560196, 0.006133208516985178, -0.10100618004798889, -0.06580178439617157, 0.10822635143995285, 0.08147378265857697, -0.031328234821558], [-0.02438545599579811, -0.1473824828863144, -0.07907341420650482, 0.15196925401687622, 0.37976470589637756, 0.21741777658462524, 0.22671157121658325, 0.11920540779829025, 0.0268264040350914, 0.11437486112117767, 0.04452254995703697, 0.037564221769571304, -0.01837901584804058, -0.12427179515361786, -0.3140237331390381, -0.31558525562286377, -0.07045131921768188, -0.13061214983463287, 0.08301929384469986, 0.2879980504512787, 0.11590345948934555, 0.15808776021003723, 0.0642293393611908, 0.04612288624048233, 0.08581673353910446, -0.1649482697248459, 0.10982935130596161, -0.04305833578109741, 0.10854917019605637, -0.012490250170230865, 0.0830729529261589, -0.005236250814050436, 0.049734100699424744, 0.0938798263669014, 0.12042388319969177, 0.11921405047178268, 0.03595336526632309, -0.024467386305332184, -0.264455109834671, -0.09862051159143448, -0.08509980887174606, -0.19089704751968384, 0.17268206179141998, -0.15358762443065643, 0.06373341381549835, 0.21950994431972504, 0.05398249998688698, 0.09171266108751297, -0.037345707416534424, -0.03017508238554001, 0.034030981361866, 0.061756450682878494, 0.11964387446641922, 0.025491075590252876, -0.10136239230632782, -0.02862556278705597, 0.12186761945486069, 0.17232388257980347, 0.026179688051342964, 0.13213162124156952, 0.15159261226654053, 0.12115918844938278, 0.017575684934854507, 0.045826803892850876, 0.13504934310913086, 0.13823935389518738, 0.04760349541902542, 0.0853344276547432, 0.20438340306282043, 0.11264877766370773, 0.11818508803844452, 0.2263835370540619, -0.08886340260505676, 0.005453803576529026, -0.21308061480522156, 0.18907742202281952, 0.24419762194156647, -0.08583243936300278, 0.054997045546770096, -0.06871455907821655, -0.13480523228645325, 0.04177524894475937, 0.1168137788772583, -0.08265820890665054, 0.03945130854845047, -0.17023737728595734, -0.07453898340463638, -0.14136533439159393, -0.11941852420568466, -0.20619800686836243, -0.1936909407377243, -0.20890915393829346, -0.03052455559372902, -0.19318997859954834, -0.005179155617952347, -0.22735749185085297, 0.005413054022938013, 0.14209794998168945, 0.1621646136045456, 0.26578328013420105, 0.26810628175735474, 0.21845833957195282, 0.2457951307296753, -0.08686766773462296, -0.14305587112903595, 0.047794029116630554, 0.23197992146015167, -0.055373188108205795, 0.039189159870147705, 0.025249743834137917, 0.12785086035728455, 0.007541245315223932, 0.0050263190641999245, -0.0797199234366417, -0.12684482336044312, 0.02972595766186714, 0.023689204826951027, 0.050157397985458374, -0.011772873811423779, -0.04241340234875679, 0.04630852863192558, -0.04047572985291481, -0.02129615657031536, -0.020166389644145966, 0.05478798225522041, 0.015134722925722599, -0.035790521651506424, 0.04816494509577751], [0.008867137134075165, 0.2275775969028473, 0.13165538012981415, 0.32660505175590515, 0.1337483674287796, -0.08371485024690628, 0.04093072935938835, 0.08760760724544525, 0.1592969000339508, 0.0700947567820549, 0.05348167568445206, 0.047800227999687195, 0.08216603845357895, 0.08549297600984573, 0.042048368602991104, -0.0505586639046669, 0.09246386587619781, 0.0015732699539512396, -0.16888278722763062, -0.12670445442199707, -0.1498693972826004, 0.17747056484222412, -0.20080149173736572, -0.1938857138156891, 0.22285042703151703, 0.06687785685062408, 0.1030224859714508, 0.216328963637352, 0.07921618968248367, -0.00625630933791399, -0.42435789108276367, -0.12150556594133377, -0.11262674629688263, -0.36441367864608765, 0.09046610444784164, -0.6899288296699524, 0.025323553010821342, -0.12409976869821548, -0.2210187315940857, -0.07265818864107132, 0.021268393844366074, -0.035016924142837524, -0.10580845922231674, 0.014116485603153706, 0.11860188841819763, 0.08340698480606079, 0.026738040149211884, 0.07947632670402527, 0.08424647152423859, 0.07683882117271423, 0.10619521141052246, 0.1034739539027214, 0.06030471995472908, -0.024219471961259842, -0.041861969977617264, -0.27239295840263367, -0.11511557549238205, -0.08227774500846863, -0.10222872346639633, -0.20691554248332977, -0.08807823807001114, -0.04560389369726181, -0.07003609836101532, -0.026109807193279266, 0.030784394592046738, 0.01805063709616661, -0.015912961214780807, 0.08979477733373642, 0.11929704993963242, 0.15315943956375122, 0.0633084699511528, 0.004381244070827961, 0.18452167510986328, 0.14077213406562805, 0.09009839594364166, 0.17294563353061676, 0.19339939951896667, 0.11125154048204422, -0.029537800699472427, 0.04633115604519844, 0.044920194894075394, 0.031323984265327454, -0.007677470799535513, 0.15270140767097473, 0.20221030712127686, 0.011435819789767265, -0.04336664080619812, -0.12775856256484985, -0.03036416508257389, 0.11310519278049469, -0.027791429311037064, 0.06519076973199844, 0.15681110322475433, -0.15592016279697418, 0.13655564188957214, -0.05373107269406319, 0.02677260711789131, 0.14480353891849518, 0.0903661847114563, 0.027469072490930557, -0.0735577642917633, -0.14932669699192047, -0.31395992636680603, -0.3294495642185211, -0.16855405271053314, 0.059607893228530884, -0.007971023209393024, 0.028621358796954155, -0.024180099368095398, 0.05845952033996582, -0.18148377537727356, 0.13646435737609863, -0.0633566677570343, -0.03278432413935661, -0.03057727962732315, -0.038768935948610306, 0.03136325255036354, -0.06386453658342361, 0.07711895555257797, -0.07932860404253006, -0.0448882095515728, 0.04714721441268921, 0.06474734842777252, 0.20500655472278595, 0.017115658149123192, 0.03216155990958214, 0.06860413402318954, -0.018540773540735245], [-0.4233347177505493, -0.367291122674942, -0.5349607467651367, -0.07452567666769028, 0.01916845142841339, 0.022541647776961327, -0.008064784109592438, 0.05420559272170067, 0.05903584510087967, -0.12365981936454773, -0.11012151092290878, -0.019518017768859863, -0.07786791771650314, 0.10459717363119125, -0.06386402994394302, 0.007276864722371101, 0.09931225329637527, 0.12978322803974152, 0.059048689901828766, -0.07534093409776688, -0.10136006772518158, 0.0380580872297287, 0.11035732924938202, 0.09412429481744766, -0.24622254073619843, 0.08372649550437927, 0.08493229001760483, 0.19140346348285675, 0.15922628343105316, -0.11978904902935028, 0.11167144030332565, 0.04128491133451462, 0.0419464148581028, -0.023868445307016373, -0.026978546753525734, 0.0476367212831974, 0.1174822449684143, 0.1326146274805069, -0.14730481803417206, -0.09729884564876556, 0.013393569737672806, -0.04082725942134857, -0.19572745263576508, -0.15839818120002747, -0.0019396274583414197, -0.0840023010969162, -0.024690795689821243, 0.0295335091650486, 0.03282303735613823, -0.02579057589173317, -0.012229601852595806, -0.006075320299714804, -0.10515181720256805, 0.05850829556584358, 0.05610785260796547, -0.006508053280413151, 0.12993821501731873, 0.028348777443170547, 0.1716848462820053, -0.042675476521253586, 0.21305574476718903, 0.11557444930076599, 0.07471048831939697, -0.022424720227718353, 0.14775362610816956, -0.004345540888607502, 0.054927706718444824, 0.07188146561384201, -0.04003138095140457, 0.03722453489899635, 0.26536208391189575, 0.003606284037232399, -0.2636897563934326, 0.09318530559539795, 0.026568742468953133, 0.06571017950773239, 0.09023489058017731, -0.004554575774818659, 0.08114995807409286, 0.14305590093135834, 0.08439679443836212, -0.1051555797457695, -0.1402142494916916, -0.003701690584421158, -0.13211578130722046, -0.23169980943202972, -0.180939182639122, 0.07727893441915512, 0.2007191926240921, -0.267319917678833, 0.24130047857761383, 0.07901313900947571, -0.028177542611956596, 0.03501083701848984, 0.10929002612829208, -0.04906757175922394, 0.055307719856500626, 0.17737248539924622, 0.05697711929678917, -0.059014759957790375, -0.04242182895541191, -0.015945782884955406, 0.011651392094790936, 0.0735069215297699, 0.08514107763767242, -0.06479153037071228, -0.3923303782939911, -0.10128743201494217, 0.03579193726181984, -0.08796724677085876, -0.31867876648902893, -0.1248459443449974, 0.16950225830078125, 0.026329228654503822, 0.02311493083834648, -0.008128616958856583, -0.0030438057146966457, 0.02852974459528923, 0.061798010021448135, 0.04094961658120155, 0.05502288043498993, 0.11761904507875443, 0.057457324117422104, 0.017533330246806145, 0.07412780076265335, 0.05538143962621689, -0.05117078870534897, 0.008257701061666012], [0.49345171451568604, 0.3061087727546692, 0.25051528215408325, 0.22142715752124786, 0.2088371068239212, 0.08236280083656311, 0.0897185280919075, 0.05273560434579849, -0.15569332242012024, -0.23203697800636292, -0.183415025472641, -0.17072436213493347, -0.1671372950077057, 0.07626665383577347, 0.025539198890328407, 0.08769357204437256, -0.23918569087982178, -0.0958312600851059, -0.004477192647755146, 0.0680747926235199, 0.11835002899169922, -0.12723959982395172, -0.06297454237937927, 0.09451743215322495, 0.0037026710342615843, 0.08856353163719177, 0.06384582817554474, 0.10350561887025833, -0.035177405923604965, 0.02720855548977852, -0.4520300328731537, -0.092519611120224, 0.03243415430188179, -0.08963534235954285, 0.09087950736284256, -0.17979779839515686, 0.04265457019209862, -0.10634510964155197, 0.05042281374335289, 0.23052790760993958, 0.1644509732723236, 0.059624090790748596, 0.04596087336540222, -0.031882092356681824, 0.10531032830476761, -0.028247656300663948, -0.00685524009168148, 0.16290436685085297, 0.13288284838199615, 0.19351789355278015, 0.12620574235916138, -0.006691131740808487, 0.0013715135864913464, -0.16419504582881927, -0.11813495308160782, -0.15378661453723907, -0.23599305748939514, -0.10639066994190216, -0.10336702316999435, -0.05645640566945076, -0.04625311493873596, 0.0394204705953598, -0.006613798905164003, -0.16671492159366608, 0.03351181745529175, -0.18870988488197327, -0.19693522155284882, -0.20199531316757202, -0.06259448081254959, 0.048715025186538696, -0.0802968293428421, 0.015448508784174919, -0.027213094756007195, -0.13348136842250824, -0.10890842974185944, 0.009935415349900723, 0.015538879670202732, 0.01567385531961918, -0.12615308165550232, 0.05890185758471489, 0.09716568142175674, -0.03161102533340454, -0.1555086374282837, 0.14852778613567352, 0.07091452926397324, -0.04774774983525276, 0.091578409075737, 0.13681766390800476, 0.0945797860622406, -0.2048938125371933, 0.05501112714409828, 0.0010423619532957673, 0.08448563516139984, 0.06475554406642914, -0.057742249220609665, 0.08628861606121063, 0.09106955677270889, -0.020586654543876648, 0.0020367924589663744, 0.14109255373477936, -0.017835497856140137, 0.04694165661931038, 0.018175210803747177, 0.06394638121128082, -0.45903465151786804, -0.3820590078830719, 0.03982831910252571, 0.022070741280913353, 0.023306479677557945, -0.0678255632519722, 0.1436796933412552, 0.10553120076656342, -0.048062048852443695, 0.01924954727292061, -0.08247005194425583, 0.008124595507979393, 0.03208785131573677, 0.05118868127465248, 0.012640155851840973, -0.04527970775961876, 0.07034091651439667, 0.026257658377289772, 0.03674674034118652, 0.03654355928301811, 0.03381340950727463, 0.02737947180867195, -0.007966317236423492, 0.015881089493632317], [-0.49031862616539, -0.19925053417682648, 0.03360604867339134, -0.2491043657064438, -0.3649241030216217, 0.08535631746053696, 0.050772882997989655, 0.0115983746945858, 0.11117695271968842, 0.22034990787506104, 0.2839796245098114, 0.2643183767795563, 0.2646390199661255, 0.017009373754262924, 0.10172241181135178, 0.020375171676278114, 0.05439305678009987, 0.11053492873907089, 0.06761985272169113, -0.14525893330574036, -0.02623269148170948, -0.0456572026014328, 0.044347383081912994, 0.08623380959033966, 0.04770815372467041, 0.06930481642484665, 0.17794033885002136, 0.018545465543866158, 0.05033141002058983, 0.07921713590621948, 0.15321870148181915, 0.10488847643136978, 0.05653827264904976, 0.17823994159698486, 0.12520483136177063, 0.12584292888641357, 0.12714113295078278, 0.024726813659071922, 0.09805642813444138, 0.1807606816291809, 0.12940911948680878, 0.20232239365577698, 0.06670387089252472, -0.004048964474350214, 0.20208261907100677, -0.02151244319975376, -0.014164825901389122, 0.017335128039121628, 0.022217290475964546, 0.07184471189975739, 0.02994328737258911, 0.02641035057604313, 0.15059925615787506, 0.08193724602460861, 0.019038265570998192, 0.06782612204551697, -0.01578148640692234, 0.11385300010442734, 0.036116741597652435, 0.06083167344331741, -0.05550101026892662, 0.14556995034217834, -0.013139186426997185, -0.019188284873962402, 0.19256821274757385, 0.07804331183433533, -0.018623504787683487, 0.07102926075458527, 0.26479098200798035, -0.04218779131770134, 0.06616752594709396, -0.0032182899303734303, 0.04746890813112259, 0.10267972201108932, 0.11303653568029404, 0.16317903995513916, 0.115870401263237, 0.08957448601722717, -0.07446591556072235, -0.04412340745329857, 0.053856369107961655, -0.1388048529624939, -0.03063087910413742, -0.1348785012960434, -0.12756909430027008, -0.14199085533618927, -0.08338263630867004, -0.22505824267864227, -0.15679267048835754, 0.1363646388053894, 0.01057988777756691, -0.012454434297978878, 0.145895317196846, 0.055905066430568695, 0.08201634138822556, 0.17516696453094482, 0.21882639825344086, 0.08508408814668655, 0.04950955882668495, 0.14193479716777802, 0.03663661330938339, 0.11702659726142883, -0.08735806494951248, 0.041617654263973236, 0.03909895196557045, 0.09336195886135101, 0.010416734963655472, 0.24801331758499146, 0.0009566385997459292, -0.03383786976337433, -0.426314115524292, -0.4300065040588379, -0.09968099743127823, 0.15434390306472778, 0.07669954001903534, -0.01294245757162571, 0.00044972109026275575, 0.033998869359493256, -0.05515648424625397, -0.03955656290054321, 0.03710711747407913, 0.0029135695658624172, -0.011177696287631989, 0.06269419938325882, 0.005977442488074303, 0.01491575874388218, 0.04982228949666023, 0.03454408794641495], [-0.03212538734078407, 0.06181199476122856, -0.16269131004810333, 0.11781153827905655, 0.2268865406513214, 0.015182393603026867, -0.12981392443180084, -0.049294814467430115, -0.25260093808174133, -0.17256711423397064, -0.2763530910015106, -0.25716856122016907, -0.26863905787467957, 0.10567674785852432, 0.1291486918926239, 0.005405108444392681, -0.012974521145224571, -0.27098968625068665, 0.10957645624876022, 0.09447925537824631, -0.06521337479352951, -0.05671495199203491, -0.016949506476521492, -0.029742570593953133, -0.05396326631307602, -0.048727456480264664, 0.07203950732946396, 0.11464341729879379, 0.09104112535715103, 0.0795590877532959, 0.08197742700576782, -0.008396496064960957, 0.26255837082862854, 0.0095512168481946, -0.026455450803041458, 0.06473254412412643, 0.10864968597888947, 0.1284731924533844, 0.13825787603855133, -0.03826497122645378, 0.009649344719946384, -0.020992685109376907, 0.06153346598148346, -0.10449033975601196, -0.02386094629764557, 0.03377455100417137, -0.09596191346645355, -0.08218782395124435, -0.21333618462085724, -0.21211545169353485, -0.21069319546222687, -0.1879407912492752, 0.08053690940141678, 0.11810459196567535, 0.1282021701335907, 0.06288928538560867, 0.06419294327497482, 0.07608907669782639, 0.07845264673233032, 0.10967428237199783, 0.122726209461689, 0.08646828681230545, -0.07602889835834503, 0.07707291841506958, 0.028335176408290863, 0.14084312319755554, 0.04911340773105621, 0.014603819698095322, 0.1111123338341713, -0.10945867747068405, -0.1769196093082428, 0.19818471372127533, 0.011635607108473778, 0.021131359040737152, 0.08799225091934204, 0.18128034472465515, -0.07618167996406555, -0.015304137952625751, 0.11370515078306198, -0.04492812231183052, 0.03111536055803299, 0.017683811485767365, 0.03993810713291168, 0.044381286948919296, -0.03848878666758537, -0.2242681384086609, -0.06811174005270004, -0.04014138504862785, -0.09964600205421448, -0.07071191072463989, -0.04705708101391792, -0.042743146419525146, -0.022467568516731262, -0.06868815422058105, 0.16414926946163177, 0.08865330368280411, 0.009314781986176968, 0.1991087794303894, 0.11793900281190872, -0.012695797719061375, -0.013528195209801197, -0.0324246846139431, -0.08741221576929092, -0.18126186728477478, -0.07228259742259979, -0.047710467129945755, 0.06101958826184273, 0.15254342555999756, -0.07439211755990982, -0.07848260551691055, 0.05127628147602081, -0.38931912183761597, -0.10323086380958557, 0.08917449414730072, 0.1382649838924408, 0.12040479481220245, 0.0726851150393486, 0.040861595422029495, 0.05701979994773865, 0.15895375609397888, 0.06267523765563965, 0.03728421777486801, 0.0728362575173378, 0.0453655831515789, -0.009372363798320293, 0.027637533843517303, 0.01593284122645855, 0.038743048906326294], [0.09237953275442123, 0.02404131554067135, -0.037388984113931656, 0.1050131618976593, 0.055528674274683, -0.058548543602228165, 0.12184972316026688, -0.18303129076957703, -0.09725993871688843, 0.09213259816169739, 0.16926559805870056, 0.17939691245555878, 0.2600787580013275, -0.09144607931375504, 0.12033514678478241, 0.01668626256287098, -1.0857685804367065, 0.48075300455093384, 0.028768999502062798, -0.5296673774719238, 0.11505615711212158, 0.10948097705841064, 0.08025988191366196, -0.11358896642923355, -0.0285663940012455, -0.04428175091743469, 0.15004374086856842, -0.22026115655899048, -0.4291178286075592, 0.6426479816436768, -0.09023381769657135, -0.6208564043045044, 0.35549038648605347, -0.2267247438430786, 0.011603161692619324, -0.04294053837656975, -0.1434192806482315, -0.07860542833805084, -0.08967188745737076, -0.04398518428206444, 0.06522461771965027, 0.048963550478219986, 0.1301187127828598, 0.09838077425956726, -0.07201194018125534, -0.03801301121711731, 0.030968723818659782, 0.03388300910592079, -0.018407821655273438, -0.04597141966223717, 0.007279404439032078, -0.016749083995819092, 0.06316839158535004, -0.09652382880449295, -0.06448360532522202, -0.019852377474308014, -0.1598910242319107, -0.1021750420331955, -0.02819720096886158, -0.059840839356184006, -0.07448206841945648, -0.04217323288321495, -0.001402805675752461, 0.07492372393608093, -0.1430652141571045, -0.07463020086288452, -0.02419353649020195, 0.05362548306584358, -0.059516675770282745, -0.03862401470541954, -0.22766251862049103, -0.057634152472019196, -0.10710708796977997, -0.017055122181773186, -0.0622190423309803, -0.16362038254737854, -0.08850248157978058, -0.1449282318353653, 0.008344822563230991, -0.06943456083536148, 0.05308179184794426, 0.0393192395567894, 0.12901031970977783, 0.10420016944408417, 0.1525142639875412, -0.2664138674736023, -0.0016089598648250103, -0.010780713520944118, -0.0625079944729805, 0.05308561027050018, 0.11797540634870529, 0.011704674921929836, -0.02579823136329651, 0.0053167082369327545, 0.07286075502634048, -0.0164576955139637, -0.05010012164711952, -0.12784938514232635, -0.05743522197008133, 0.044965073466300964, -0.029453281313180923, -0.06017148122191429, 0.00833966489881277, 0.12196199595928192, -0.048097413033246994, 0.024107884615659714, -0.08722850680351257, 0.003291100962087512, -0.0065269977785646915, 0.02835807390511036, 0.07785654067993164, 0.09195397794246674, 0.02586265280842781, -0.07269448041915894, -0.08468528091907501, 0.007692330051213503, -0.07679077982902527, -0.09382384270429611, 0.06071696802973747, 0.04125513881444931, -0.09903815388679504, 0.03502102941274643, 0.008071170188486576, 0.03581883758306503, -0.022755656391382217, 0.00791112519800663, -0.0036151681561022997, 0.01352387573570013], [-0.21017394959926605, 0.18659274280071259, 0.24017226696014404, -0.041094280779361725, -0.033806703984737396, 0.26312485337257385, 0.19277344644069672, 0.12942025065422058, 0.12341580539941788, -0.007663578726351261, -0.0729614645242691, 0.06021289527416229, -0.06431256979703903, 0.01770559884607792, 0.13432778418064117, -0.4578203856945038, -0.1881762593984604, -0.16970959305763245, -0.041012465953826904, 0.10587925463914871, 0.17444613575935364, -0.15714465081691742, 0.013152225874364376, 0.13437321782112122, 0.08281899988651276, 0.08066265285015106, -0.15967361629009247, 0.30544549226760864, -0.20722563564777374, -0.30461385846138, -0.0814071074128151, 0.22151383757591248, -0.08180978149175644, 0.1995665282011032, -0.052428923547267914, 0.05573529005050659, 0.036189910024404526, 0.24724800884723663, 0.034077100455760956, -0.010374750941991806, 0.0841691642999649, -0.044848617166280746, 0.022182168439030647, -0.07649330049753189, 0.17620636522769928, -0.005279709585011005, 0.1098388284444809, -0.0241119135171175, -0.004379318095743656, 0.06088051199913025, 0.00587855838239193, -0.0027567767538130283, 0.0824236124753952, -0.11920858919620514, 0.09271278232336044, 0.0009087936487048864, 0.188765749335289, 0.04572426527738571, -0.0820189043879509, 0.0033220683690160513, -0.17448854446411133, 0.04359525814652443, -0.05037866532802582, 0.03660034015774727, 0.09914670884609222, -0.05401388183236122, -0.036802105605602264, 0.011693446896970272, -0.08310221135616302, 0.04594505578279495, -0.14424242079257965, 0.07771485298871994, 0.23529554903507233, -0.027811389416456223, 0.014504872262477875, 0.16141973435878754, 0.33565619587898254, 0.02162591554224491, 0.05032568424940109, -0.028393052518367767, 0.009558343328535557, 0.03126758337020874, -0.19930508732795715, -0.1377667635679245, -0.1419747918844223, 0.04734000563621521, -0.16200844943523407, -0.002724902704358101, 0.11517582833766937, -0.1172931119799614, 0.17462152242660522, -0.05793203413486481, -0.49028003215789795, 0.006116862874478102, 0.128072127699852, 0.05325869098305702, 0.061896879225969315, -0.11434575170278549, 0.1574975550174713, -0.1219736710190773, 0.0025349489878863096, 0.22461842000484467, 0.15109287202358246, 0.27198290824890137, -0.08489634096622467, -0.33071169257164, 0.09223202615976334, 0.21330730617046356, -0.06284639984369278, 0.048713937401771545, 0.10955829918384552, -0.13119302690029144, -0.028629230335354805, -0.003047801088541746, -0.04704223573207855, -0.10971221327781677, 0.17315472662448883, -0.08854730427265167, 0.06058182939887047, -0.03214992210268974, 0.08404836058616638, -0.007294053211808205, -0.05282473564147949, 0.056120168417692184, -0.04273232817649841, 0.03593192994594574, -0.002422888297587633, -0.019319476559758186], [-0.7402181625366211, 0.20898471772670746, 0.112714983522892, 0.1296246349811554, 0.14573048055171967, 0.38027119636535645, 0.28998416662216187, 0.29274338483810425, 0.2726781666278839, 0.14323744177818298, 0.12036330252885818, 0.1216028705239296, -0.002326040528714657, -0.04214153066277504, -0.09454081207513809, -0.021087631583213806, 0.12023961544036865, 0.15086108446121216, 0.06417972594499588, -0.038874153047800064, -0.0013812794350087643, 0.06926160305738449, -0.06876015663146973, -0.0508931502699852, -0.09978336095809937, -0.07927650213241577, -0.020915444940328598, -0.1038784310221672, -0.0031436567660421133, -0.007806550711393356, -0.040018241852521896, 0.10057386755943298, 0.047180335968732834, -0.06309615820646286, -0.05485131964087486, -0.08829454332590103, -0.10483195632696152, -0.1759158968925476, -0.0934232845902443, 0.06207176297903061, 0.12460201978683472, 0.023901328444480896, -0.05396243557333946, 0.13196565210819244, 0.09029581397771835, 0.11538908630609512, 0.07146500796079636, 0.0003341891570016742, -0.0395776592195034, -0.06917732954025269, -0.03550046309828758, -0.09588106721639633, -0.19912000000476837, -0.1481989324092865, -0.22739863395690918, -0.0629192367196083, -0.13143083453178406, -0.07251927256584167, -0.22496560215950012, -0.18760932981967926, 0.004106375854462385, -0.22821445763111115, -0.03289541229605675, -0.08727765083312988, -0.13780009746551514, -0.007267040200531483, 0.18103012442588806, 0.02014053240418434, 0.02452309988439083, -0.012980743311345577, 0.07942014932632446, 0.15655338764190674, 0.02807997167110443, 0.13353943824768066, 0.13087929785251617, 0.06920488178730011, 0.09139503538608551, 0.02920740470290184, -0.00497789029031992, 0.10135398060083389, 0.06992674618959427, 0.019710274413228035, 0.1251913458108902, 0.08852670341730118, -0.03377683460712433, 0.13205721974372864, 0.0612407810986042, 0.014368523843586445, -0.0329129584133625, -0.2524687945842743, 0.10098845511674881, -0.15953108668327332, -0.17259597778320312, 0.03891543298959732, 0.0798836350440979, -0.028131065890192986, 0.05039779469370842, 0.11037799715995789, -0.15159021317958832, -0.127089723944664, -0.10208290815353394, -0.063835509121418, -0.06743653118610382, -0.24217240512371063, 0.09591355174779892, 0.09792564809322357, -0.032980646938085556, -0.028210438787937164, -0.011833813041448593, -0.05777815356850624, 0.19820378720760345, 0.02720295824110508, 0.09056062996387482, 0.0001263363374164328, -0.13767290115356445, -0.10141535848379135, 0.0930371955037117, -0.028439637273550034, -0.028189200907945633, -0.01865467056632042, 0.06380192935466766, -0.007504459470510483, 0.014553247950971127, -0.011658653616905212, -0.007560998201370239, 0.0314256027340889, 0.0007708987686783075, 0.02208033949136734], [-0.023979857563972473, 0.14853622019290924, 0.2564353942871094, 0.1384604573249817, 0.03604522719979286, -0.014837541617453098, 0.21264660358428955, -0.0024874741211533546, 0.11944172531366348, 0.056990548968315125, 0.1478889286518097, 0.10781590640544891, 0.044471655040979385, -0.08208873867988586, -0.03756609186530113, -0.20076435804367065, 0.01752881333231926, 0.11771514266729355, 0.05192713066935539, -0.987521767616272, 0.139634907245636, 0.13211174309253693, 0.20666640996932983, -0.09844411164522171, 0.0856967642903328, 0.057883370667696, 0.0007129085715860128, 0.11426232755184174, 0.11784952878952026, -0.0980837494134903, -0.07265476882457733, -0.34715479612350464, 0.5357309579849243, -0.15482448041439056, -0.15004649758338928, 0.18442986905574799, 0.10138849914073944, -0.09438419342041016, -0.054058440029621124, -0.024795735254883766, -0.019177820533514023, 0.043973248451948166, 0.05884997919201851, -0.008513352833688259, -0.022830508649349213, 0.11515817791223526, -0.03720082715153694, 0.05791734904050827, -0.03706926852464676, -0.006342098116874695, 0.0039298152551054955, 0.07397790998220444, 0.059378333389759064, 0.12332191318273544, 0.02422293834388256, -0.03782304748892784, -0.07195496559143066, -0.0464673675596714, -0.026433182880282402, -0.18630342185497284, 0.0256918016821146, 0.0527406707406044, -0.06975516676902771, -0.03259332478046417, 0.10566864162683487, 0.010155264288187027, -0.026097385212779045, -0.20248131453990936, 0.005724899470806122, -0.12045387923717499, -0.06791432201862335, 0.17577169835567474, 0.23911511898040771, 0.0514247864484787, 0.25689661502838135, 0.17607422173023224, 0.17796391248703003, 0.09956174343824387, 0.02488659881055355, -0.01740179769694805, -0.009441711939871311, -0.18872840702533722, 0.04485074803233147, -0.07387229800224304, 0.08857602626085281, -0.07452548295259476, -0.031871404498815536, -0.04423884302377701, 0.03080093301832676, -0.09348051249980927, -0.1038902997970581, -0.11789198219776154, 0.07458841800689697, -0.09126012027263641, -0.26861414313316345, -0.17623090744018555, -0.0007607651059515774, -0.0017914839554578066, 0.05825930833816528, 0.14692290127277374, 0.04035095497965813, -0.025997787714004517, 0.11373832821846008, 0.14080607891082764, 0.09873109310865402, -0.005504217464476824, 0.10949140787124634, 0.12043409794569016, -0.0018496144330129027, 0.05174168199300766, 0.14249621331691742, 0.05543136969208717, 0.0609610341489315, -0.0054586282931268215, -0.21829412877559662, -0.0140182850882411, 0.12255728989839554, 0.04308118298649788, -0.0470195896923542, 0.036689143627882004, -0.06495887041091919, 0.09424428641796112, -0.06542205810546875, -0.05354437232017517, 0.046517789363861084, -0.0365968681871891, -0.025740688666701317, -0.0025628823786973953], [0.14733199775218964, 0.15111219882965088, -0.5223553776741028, -0.0252473596483469, 0.200990229845047, 0.10266999155282974, 0.2662462592124939, 0.01678851805627346, 0.036478009074926376, -0.2322547733783722, -0.032415490597486496, 0.03158077597618103, -0.005924156866967678, -0.003637384856119752, -0.41426703333854675, 0.048176109790802, -0.13156168162822723, 0.20564672350883484, -0.6549736857414246, 0.24008627235889435, 0.14696547389030457, -0.13337619602680206, -0.26850444078445435, 0.1331171691417694, 0.08251208066940308, -0.1885688751935959, -0.05521222949028015, 0.35273537039756775, -0.1574098914861679, -0.28695517778396606, 0.06276213377714157, 0.37196600437164307, 0.11150414496660233, -0.5224714279174805, -0.3992117941379547, 0.009602037258446217, 0.09723339974880219, -0.14709679782390594, 0.11966361850500107, -0.08968160301446915, 0.017638448625802994, -0.015148318372666836, -0.010599927045404911, 0.09178891032934189, -0.038560621440410614, 0.11769317090511322, -0.009978310205042362, 0.0875854641199112, -0.009894376620650291, -0.02263535186648369, -0.04299600049853325, -0.1581835001707077, 0.1518934965133667, 0.04462987557053566, 0.006573479622602463, -0.16608306765556335, 0.018602043390274048, -0.03871094807982445, -0.012506889179348946, -0.2096845656633377, -0.06423462927341461, 0.008965316228568554, -0.12341348826885223, -0.10711947083473206, 0.04268467053771019, 0.10224087536334991, -0.20856967568397522, 0.0553615503013134, 0.06605925410985947, 0.012326765805482864, 0.2263963222503662, -0.012046958319842815, 0.22493422031402588, 0.09773195534944534, 0.005030371714383364, 0.04443402215838432, 0.06320640444755554, 0.08559142053127289, 0.06391212344169617, 0.047740839421749115, -0.13723239302635193, -0.06607133150100708, -0.10099863260984421, -0.37516194581985474, 0.05750267207622528, -0.13907097280025482, 0.26227664947509766, 0.1352538913488388, 0.013104555197060108, 0.043303150683641434, -0.03187314793467522, -0.05481720715761185, 0.12543191015720367, -0.14222508668899536, 0.05890088155865669, -0.1614246666431427, -0.08152899891138077, -0.2631176710128784, 0.03589499741792679, -0.02781607210636139, -0.09390375763177872, -0.007902863435447216, 0.02922482043504715, 0.1478545218706131, 0.028864862397313118, 0.047587450593709946, -0.26147881150245667, -0.21670864522457123, 0.005105795804411173, 0.0430898517370224, -0.19238373637199402, 0.0030484399758279324, 0.03830435499548912, -0.02144206501543522, 0.046254657208919525, -0.011073611676692963, 0.03633527085185051, -0.03808242082595825, -0.11883531510829926, -0.0866856649518013, -0.02459469437599182, 0.10889375954866409, 0.03235283121466637, 0.03817780315876007, -0.0017245650524273515, 0.11432135105133057, -0.0146739911288023, -0.04256993159651756], [-0.16891460120677948, -0.005298061296343803, -0.02515139803290367, 0.05063679814338684, 0.16654302179813385, -0.0360034815967083, -0.30575188994407654, -0.17358407378196716, -0.09001776576042175, 0.029580116271972656, -0.05912860855460167, 0.08412111550569534, -0.09303437918424606, -0.20724906027317047, -0.09146802127361298, -0.0007032873691059649, 0.11358319967985153, 0.10137564688920975, 0.16342639923095703, 0.14516012370586395, -0.0283066313713789, 0.24067555367946625, 0.18887679278850555, -0.08104244619607925, -0.16027066111564636, -0.39207905530929565, -0.06957440078258514, 0.19471757113933563, 0.17802707850933075, 0.09095633029937744, -0.04104463383555412, -0.03496307134628296, -0.018916187807917595, -0.1785430908203125, -0.07683133333921432, -0.37883004546165466, 0.014448631554841995, -0.08096825331449509, 0.286789208650589, 0.06743068248033524, 0.029699821025133133, 0.00445249117910862, -0.08476652204990387, 0.04396764934062958, 0.0627048909664154, -0.015231819823384285, -0.030369965359568596, 0.0849045068025589, 0.14656031131744385, 0.08548060804605484, 0.0991036668419838, 0.08273842930793762, -0.08537044376134872, -0.11659783124923706, -0.02880193665623665, 0.018902577459812164, -0.19121834635734558, -0.0820738673210144, -0.27150291204452515, -0.05824729800224304, -0.02747408300638199, 0.0266532301902771, 0.1800549477338791, -0.047388218343257904, 0.08127083629369736, 0.053189538419246674, 0.01508565153926611, 0.08319886773824692, -0.01853763312101364, 0.07130933552980423, 0.248094379901886, 0.1641339361667633, 0.2954990863800049, 0.13432157039642334, 0.1495334804058075, 0.13091306388378143, 0.16242215037345886, 0.14319652318954468, 0.002812932478263974, 0.11246976256370544, 0.002555823652073741, 0.041303545236587524, -0.010772096924483776, -0.15986651182174683, 0.16333606839179993, 0.005639928858727217, 0.05900638923048973, 0.0378107950091362, 0.041915152221918106, -0.08769958466291428, 0.20469212532043457, 0.1564989984035492, -0.034991953521966934, 0.06312517821788788, 0.1400790512561798, -0.038544412702322006, 0.05022507533431053, -0.11188943684101105, -0.03155332803726196, -0.04432695731520653, -0.21131916344165802, -0.24524728953838348, -0.08805941790342331, -0.007893791422247887, -0.033706530928611755, 0.3146017789840698, 0.05004227161407471, 0.11744529008865356, 0.08000972121953964, 0.07921481877565384, 0.0696348026394844, 0.15927182137966156, 0.049300625920295715, 0.063679538667202, 0.03283243998885155, -0.06924200057983398, 0.031769756227731705, 0.07899285107851028, 0.05822167545557022, 0.0028359941206872463, 0.1756606549024582, -0.009001574479043484, 0.09229835867881775, 0.1434624195098877, 0.08816689252853394, -0.027053596451878548, 0.10216590762138367, 0.02920612506568432], [0.244900181889534, 0.21228529512882233, 0.18573957681655884, 0.22688400745391846, 0.3708290755748749, 0.011869987472891808, -0.23034663498401642, -0.1515854150056839, 0.014047441072762012, -0.040544748306274414, -0.05378050357103348, -0.012694221921265125, -0.03219824284315109, -0.21139732003211975, -0.2023460566997528, -0.03391396254301071, -0.018163517117500305, 0.038412246853113174, 0.07445389032363892, -0.17617273330688477, -0.3788388669490814, 0.18053682148456573, 0.06281176209449768, 0.035974036902189255, 0.030033105984330177, 0.020067675039172173, -0.26769039034843445, -0.23691049218177795, -0.19357509911060333, -0.0851467102766037, 0.11972171813249588, -0.0888897180557251, -0.40216976404190063, -0.19346927106380463, -0.03585727885365486, -0.12258922308683395, -0.1893276423215866, -0.1660085767507553, -0.1010848805308342, -0.01933811791241169, -0.13789425790309906, -0.12310878187417984, -0.006772324908524752, -0.13863502442836761, -0.16873480379581451, -0.15626440942287445, -0.15068641304969788, -0.2810833156108856, 0.17543426156044006, 0.1522006094455719, 0.07452600449323654, -0.04010767862200737, 0.0247403122484684, 0.20596586167812347, 0.0030036717653274536, -0.2784248888492584, 0.12631461024284363, -0.11959700286388397, -0.2253594845533371, -0.2104373723268509, 0.21806120872497559, 0.22349700331687927, -0.2469201534986496, -0.186726912856102, -0.0017814228776842356, 0.05481346696615219, -0.20164476335048676, -0.14941059052944183, -0.11151933670043945, 0.1599491387605667, -0.018552402034401894, 0.016407310962677002, -0.1400838941335678, -0.03879204019904137, -0.15684166550636292, -0.20544014871120453, -0.02428850345313549, 0.12959355115890503, -0.02570795826613903, 0.14260856807231903, 0.0902850478887558, 0.10882072150707245, 0.09149055182933807, 0.12902821600437164, 0.10166804492473602, 0.034744326025247574, -0.08874122053384781, 0.09630964696407318, 0.021080724895000458, 0.031119758263230324, -0.10097707062959671, -0.15960344672203064, -0.19524356722831726, -0.07783447206020355, -0.026579678058624268, -0.21580514311790466, 0.1165081262588501, -0.053752508014440536, 0.03549913689494133, 0.08408815413713455, -0.12742188572883606, 0.23390226066112518, -0.16756263375282288, -0.27214351296424866, -0.29996559023857117, -0.08215317130088806, -0.3343241810798645, 0.04039827361702919, 0.06214785575866699, -0.0658053383231163, 0.05790598690509796, -0.12497647106647491, -0.12619899213314056, 0.14089903235435486, 0.06096528097987175, 0.05846014618873596, 0.03833314776420593, 0.018750105053186417, 0.007975825108587742, 0.032727908343076706, -0.08245869725942612, -0.04101966693997383, -0.11131742596626282, -0.06603527069091797, -0.031280528753995895, -0.06301669776439667, 0.023393385112285614, -0.03802577406167984], [0.04451689124107361, 0.15711942315101624, 0.07816074043512344, -0.17865720391273499, 0.13916681706905365, 0.1265629082918167, 0.021911881864070892, -0.05224861577153206, 0.11047801375389099, 0.05449020862579346, 0.054347917437553406, 0.16017791628837585, -0.004113661125302315, 0.24315209686756134, -0.17067870497703552, 0.050765350461006165, 0.18620027601718903, -0.13774776458740234, -0.02200740948319435, -0.05241498723626137, -0.21622858941555023, -0.26649606227874756, -0.1431240737438202, 0.23193791508674622, 0.2935994565486908, -0.14204414188861847, 0.3146481215953827, 0.1770327240228653, 0.1949363648891449, -0.18736441433429718, -0.025568820536136627, -0.17781466245651245, -0.21189306676387787, 0.10920456796884537, -0.06520123779773712, 0.11808568984270096, 0.11702518165111542, 0.05326355993747711, 0.15134184062480927, -0.0840424969792366, 0.037218812853097916, -0.017145181074738503, -0.007273639086633921, 0.14044108986854553, 0.20299631357192993, 0.004027302842587233, 0.06053471565246582, 0.04906776174902916, -0.26165059208869934, 0.06801914423704147, 0.1197090595960617, 0.12567371129989624, 0.08094700425863266, -0.08764731138944626, -0.09962846338748932, -0.029629996046423912, -0.17948707938194275, -0.021090805530548096, 0.09537049382925034, 0.1418514847755432, -0.14470992982387543, -0.0283719003200531, 0.0033925853203982115, -0.001063165720552206, 0.14436043798923492, 0.04391871392726898, -0.13249996304512024, -0.18441863358020782, 0.17541778087615967, 0.040261391550302505, 0.12089166045188904, -0.034116871654987335, 0.09480393677949905, 0.03531905636191368, -0.20276668667793274, -0.12139187753200531, 0.1087544858455658, 0.019274741411209106, -0.04365060478448868, -0.14737409353256226, 0.15937605500221252, -0.05571029335260391, -0.2118045687675476, -0.08511748164892197, -0.013144389726221561, -0.10696941614151001, -0.1106165200471878, 0.000515566673129797, -0.09740197658538818, -0.43509089946746826, 0.06799738109111786, 0.2834874391555786, 0.2349189817905426, -0.11983168125152588, 0.1630740612745285, 0.20510053634643555, -0.04211887717247009, -0.0022421996109187603, 0.09595394134521484, 0.18296687304973602, 0.08463628590106964, -0.0557987205684185, -0.2658151090145111, -0.18595558404922485, -0.22848325967788696, -0.02047014608979225, 0.0020897253416478634, 0.14279623329639435, 0.036607351154088974, 0.0470907986164093, -0.17935611307621002, -0.06475836038589478, -0.027676265686750412, -0.12025958299636841, 0.05972320958971977, 0.06565652787685394, 0.09091651439666748, 0.04752510413527489, 0.0023822288494557142, 0.09090694785118103, 0.0237860307097435, -0.0533166378736496, 0.07455570995807648, -0.041445259004831314, -0.0912250503897667, 0.05733785778284073, 0.05532488599419594, -0.04964567720890045], [-0.15592123568058014, 0.029699891805648804, 0.24792040884494781, -0.05179469659924507, 0.15195810794830322, 0.2756354510784149, 0.2566891610622406, 0.08728215843439102, 0.19913731515407562, 0.1046043410897255, 0.0097877262160182, 0.056497182697057724, -0.044896941632032394, -0.015726957470178604, 0.024432290345430374, -0.2872087359428406, -0.10894116759300232, 0.22554537653923035, -0.23120929300785065, 0.012621370144188404, 0.0964076817035675, 0.03393363952636719, 0.041759390383958817, 0.08216803520917892, -0.4651176929473877, 0.07046055048704147, 0.061431288719177246, -0.08995220810174942, 0.2704780399799347, -0.325804740190506, -0.13494254648685455, 0.12411180883646011, -0.2069169133901596, 0.22810620069503784, 0.170187845826149, -0.02965068444609642, -0.13168463110923767, 0.30332329869270325, -0.027814781293272972, -0.00506285484880209, -0.018415777012705803, 0.011164066381752491, -0.2285718321800232, 0.08966456353664398, -0.154136061668396, -0.07104835659265518, -0.10011694580316544, -0.10920949280261993, -0.0822194293141365, 0.047388046979904175, 0.07646847516298294, 0.01610453985631466, 0.05783998221158981, -0.04574981704354286, -5.920638795942068e-05, -0.06475459784269333, -0.4546019732952118, -0.17571666836738586, -0.16953475773334503, 0.09633572399616241, -0.019011009484529495, 0.05371076241135597, 0.028802448883652687, 0.02294072136282921, -0.006452747620642185, 0.18145723640918732, -0.10578853636980057, -0.22988343238830566, 0.012425958178937435, -0.0918358638882637, 0.25256359577178955, 0.07717351615428925, 0.015099561773240566, -0.031631458550691605, 0.17587189376354218, 0.18317709863185883, 0.06765468418598175, 0.07960782200098038, 0.045592933893203735, 0.018780197948217392, 0.057899244129657745, -0.007803944405168295, -0.03560972213745117, 0.03333926200866699, 0.17571428418159485, 0.00912050437182188, -0.11285185068845749, -0.01877621002495289, -0.10198786109685898, -0.058101557195186615, 0.0331573560833931, -0.20413129031658173, 0.011334281414747238, 0.07681560516357422, 0.035478685051202774, -0.04239042103290558, -0.0316622331738472, 0.11913727968931198, -0.005712316371500492, -0.0032464603427797556, 0.04403068497776985, 0.0024964665062725544, 0.0086272694170475, 0.1055070161819458, 0.11769121885299683, -0.029404213652014732, -0.2812240719795227, 0.13516151905059814, 0.014240903779864311, -0.01958192139863968, 0.004018923733383417, 0.02856016904115677, -0.06742534786462784, 0.017172304913401604, -0.2973949909210205, -0.03953440114855766, 0.05353536456823349, 0.006397920660674572, -0.08631081134080887, 0.02715432085096836, 0.10743724554777145, -0.025737812742590904, 0.07744293659925461, 0.026757793501019478, -0.05635017529129982, 0.0034992429427802563, -0.00016348222561646253, -0.037230879068374634], [0.08714186400175095, 0.012281090021133423, 0.04847339913249016, 0.0778045505285263, 0.19322581589221954, 0.1612669676542282, -0.0016937670297920704, 0.1523844450712204, 0.2902119755744934, 0.3057250678539276, 0.22453011572360992, 0.06938130408525467, 0.20949238538742065, -0.14190660417079926, 0.019086163491010666, -0.013488241471350193, 0.071234330534935, -0.10304522514343262, 0.07372897118330002, 0.18921929597854614, -0.055907391011714935, 0.06966029107570648, -0.10784850269556046, -0.26249849796295166, -0.21898172795772552, 0.10615341365337372, 0.05949500948190689, -0.03999555855989456, 0.10434115678071976, 0.12257429212331772, 0.15925446152687073, 0.060517240315675735, -0.012994044460356236, 0.07312174141407013, -0.10397525876760483, 0.0370083749294281, -0.14366871118545532, -0.0870445966720581, 0.08547557145357132, 0.08236685395240784, 0.10380538552999496, 0.06053752452135086, -0.0410802885890007, 0.06587286293506622, -0.00311208120547235, 0.04024261236190796, 0.04145340621471405, 0.050554580986499786, -0.011076145805418491, 0.0061468807980418205, 0.042986296117305756, 0.054364051669836044, 0.07555223256349564, -0.01665659062564373, -0.03744246065616608, -0.03352457657456398, -0.010164710693061352, -0.16709651052951813, -0.057661864906549454, -0.028244316577911377, -0.1943744719028473, -0.1873965859413147, -0.001947868848219514, -0.08073432743549347, 0.043034691363573074, -0.13184893131256104, -0.16217827796936035, 0.02857416868209839, 0.07342808693647385, 0.032360710203647614, -0.06092755123972893, -0.010057201609015465, 0.03175397217273712, 0.05516953766345978, 0.014952542260289192, -0.037123292684555054, 0.02243240550160408, 0.11058308929204941, 0.11282425373792648, -0.1745138168334961, 0.10668032616376877, 0.08274892717599869, 0.04866648092865944, 0.19109301269054413, 0.06923184543848038, -0.08614800125360489, -0.09161196649074554, 0.1642419546842575, -0.05693680793046951, 0.001965239876881242, -0.036353807896375656, -0.27047181129455566, -0.061603154987096786, -0.057374678552150726, -0.14225782454013824, -0.01944187842309475, 0.08231271803379059, -0.002574611222371459, 0.06993350386619568, -0.017356662079691887, -0.017502309754490852, -0.1338759809732437, 0.19227829575538635, 0.0791812390089035, -0.2411821335554123, 0.05287424847483635, 0.08426498621702194, 0.1048787534236908, -0.0010408058296889067, 0.05580907687544823, -0.30463796854019165, 0.07814298570156097, 0.05544101446866989, -0.1322747766971588, -0.15920990705490112, 0.009363041259348392, -0.04812358692288399, 0.023055875673890114, 0.00820109061896801, 0.12012119591236115, -0.103169746696949, 0.03638142719864845, -0.09105909615755081, 0.0025655992794781923, 0.10926532000303268, -0.021806105971336365, -0.060909632593393326, 0.07599494606256485], [-0.10764802992343903, -0.01154153048992157, -0.03811757266521454, 0.31064900755882263, -0.06353190541267395, 0.027523735538125038, 0.07251166552305222, 0.09428801387548447, -0.12610164284706116, -0.07497923821210861, -0.1437906175851822, -0.16071981191635132, -0.06176314130425453, -0.0720687210559845, -0.03390837460756302, -0.01272360235452652, 0.027662361040711403, 0.10770357400178909, 0.11314121633768082, 0.14704573154449463, 0.11698431521654129, 0.06522045284509659, -0.35005635023117065, -0.1444043517112732, 0.28830817341804504, 0.1662469208240509, -0.033137671649456024, -0.045801300555467606, 0.07118462771177292, -0.10836079716682434, 0.07971226423978806, 0.08540884405374527, 0.10172659158706665, -0.05516807362437248, -0.10251972824335098, 0.3040601313114166, -0.33814528584480286, -0.11030983179807663, -0.22697721421718597, 0.0475541353225708, -0.04541214555501938, 0.1171506717801094, -0.01652115397155285, 0.07575781643390656, -0.04819786548614502, 0.14306002855300903, 0.20103642344474792, 0.09353319555521011, 0.11370310187339783, 0.11762820929288864, 0.028849221765995026, 0.019280778244137764, -0.07896223664283752, -0.21612240374088287, -0.056063082069158554, -0.03194594755768776, -0.2222927063703537, -0.24182064831256866, -0.15660302340984344, 0.03663473203778267, 0.04083869233727455, -0.1379614919424057, 0.05865335464477539, 0.009039552882313728, 0.05811049044132233, -0.08207337558269501, 0.08532512933015823, -0.18841907382011414, 0.04657500609755516, 0.012080433778464794, 0.03276800364255905, 0.11635958403348923, 0.10129080712795258, 0.21935150027275085, 0.23827412724494934, 0.17774666845798492, 0.14982669055461884, 0.015335611067712307, -0.03343688324093819, 0.0771237462759018, -0.04085492342710495, -0.04162980616092682, 0.013464899733662605, -0.23178498446941376, 0.09214024245738983, -0.002684512874111533, 0.13887284696102142, 0.19685053825378418, 0.07895591109991074, 0.13651899993419647, 0.14477728307247162, -0.1679718941450119, 0.0897873044013977, 0.060209814459085464, 0.1194324716925621, -0.18003986775875092, -0.2765008211135864, 0.10277042537927628, -0.1018034815788269, -0.1829315423965454, -0.20945952832698822, 0.05333225056529045, 0.15448246896266937, -0.14808693528175354, -0.14798469841480255, 0.1083301529288292, 0.08559218049049377, 0.1475708931684494, -0.04851295053958893, -0.02589728869497776, -0.018260333687067032, 0.03701132908463478, 0.028804441913962364, 0.027299320325255394, 0.11297543346881866, -0.011520682834088802, -0.0242055244743824, 0.01753370836377144, -0.02801007591187954, -0.025874512270092964, -0.01498953066766262, 0.06994213163852692, 0.06358358263969421, 0.10657700151205063, 0.09132038801908493, 0.03167550638318062, 0.09913240373134613, 0.04025076702237129], [0.33525925874710083, 0.2790456712245941, 0.19197767972946167, 0.12497501820325851, 0.05604812502861023, -0.008517962880432606, -0.0709846243262291, -0.054188065230846405, 0.288056880235672, 0.1106182187795639, 0.008515902794897556, 0.09629759192466736, 0.1429544985294342, 0.11858521401882172, -0.016491182148456573, 0.17992831766605377, -0.059653401374816895, -0.0804944559931755, -0.45249250531196594, -0.30347317457199097, -0.19993843138217926, -0.08687648177146912, 0.20886121690273285, -0.06095978245139122, -0.08706442266702652, -0.07321258634328842, -0.11218686401844025, 0.12800809741020203, 0.13753600418567657, 0.04488391429185867, -0.18158087134361267, -0.08380694687366486, -0.1277962028980255, -0.07963432371616364, 0.09896550327539444, 0.05627942830324173, 0.1236528530716896, -0.02354014478623867, 0.06753282248973846, -0.1217445358633995, 0.15204933285713196, 0.21353986859321594, 0.07448328286409378, -0.110623799264431, 0.10486443340778351, -0.05566408112645149, 0.08150041103363037, -0.006462292745709419, -0.0677989199757576, 0.09522294253110886, 0.06297232210636139, -0.03353168070316315, -0.04543868079781532, 0.02589716948568821, -0.14754796028137207, 0.059150587767362595, -0.0717759057879448, -0.004848795477300882, 0.03210014849901199, 0.052445463836193085, 0.07800065726041794, -0.03486698493361473, -0.029033735394477844, -0.008644098415970802, 0.026955731213092804, -0.03449178859591484, 0.028799137100577354, 0.06551680713891983, 0.010461628437042236, 0.07708460837602615, 0.05222348868846893, 0.00036027960595674813, 0.11079726368188858, -0.03905544430017471, 0.0076090372167527676, 0.16255296766757965, 0.10706464946269989, 0.10907020419836044, 0.08794382959604263, 0.005537536460906267, -0.15466544032096863, -0.060602013021707535, -0.07347294688224792, -0.07589614391326904, 0.08253508061170578, -0.11330380290746689, 0.10705723613500595, -0.07777795195579529, -0.08279674500226974, -0.3011508584022522, 0.017668217420578003, -0.037827908992767334, 0.06910420209169388, -0.07081533223390579, 0.13402102887630463, 0.1525261104106903, 0.14919346570968628, 0.0654769316315651, -0.10437366366386414, -0.14800524711608887, 0.07236330211162567, -0.04243068769574165, -0.14083445072174072, 0.007819429971277714, 0.05350520834326744, -0.28114375472068787, -0.0800120010972023, -0.06092628836631775, 0.015448274090886116, 0.025199253112077713, -0.11135422438383102, 0.07494392991065979, -0.03684116154909134, -0.05011102184653282, -0.11494918167591095, 0.08459696173667908, 0.07952437549829483, 0.12303243577480316, 0.01739645004272461, 0.06422016024589539, -0.06622717529535294, -0.014455142430961132, -0.04037060961127281, -0.004907186143100262, 0.06746309995651245, 0.018555661663413048, 0.06503412127494812, -0.05028517171740532], [-0.03202255070209503, -0.21824629604816437, -0.3089864253997803, 0.11233898997306824, 0.013187618926167488, 0.24039873480796814, 0.23573964834213257, 0.1165272518992424, 0.19630056619644165, -0.09561722725629807, -0.04976093769073486, 0.07753622531890869, -0.20607024431228638, -0.007610034663230181, -0.9480207562446594, -0.13056278228759766, -0.05158405750989914, 0.10000799596309662, 0.18568316102027893, 0.09081991761922836, -0.02383839711546898, 0.061478741466999054, 0.004243603907525539, -0.13488110899925232, -0.004284254275262356, 0.2663852274417877, 0.20583179593086243, 0.5703759789466858, -0.018542928621172905, -0.0035874780733138323, -0.20631249248981476, 0.00890584010630846, 0.028102539479732513, -0.04951111227273941, -0.07025311887264252, -0.2391631156206131, 0.014451654627919197, -0.24696408212184906, 0.015166002325713634, 0.021857867017388344, 0.1715964376926422, 0.0696529969573021, -0.070770263671875, -0.057420000433921814, 0.014202367514371872, -0.043635960668325424, 0.05964247137308121, -0.013632337562739849, 0.10663420706987381, 0.07222925126552582, 0.010915528051555157, 0.1126462072134018, 0.06861502677202225, 0.12706145644187927, 0.0993025153875351, -0.03186768293380737, -0.0007540887454524636, 0.1788201630115509, -0.015939053148031235, 0.1046551764011383, 0.009707203134894371, -0.006752057000994682, 0.01156996376812458, 0.03983483463525772, 0.020387282595038414, -0.0390523299574852, 0.0868837982416153, 0.09223322570323944, -0.015258053317666054, -0.04587659612298012, 0.004191075451672077, -0.22022275626659393, -0.040627263486385345, -0.03867850452661514, -0.14233848452568054, -0.11466048657894135, 0.010018670931458473, -0.03721731901168823, 0.09114476293325424, -0.015570506453514099, 0.1222086101770401, 0.2554566264152527, -0.22172164916992188, -0.0024728691205382347, 0.15124328434467316, -0.04193352535367012, 0.07241149246692657, 0.09677183628082275, -0.4028223156929016, -0.5441668629646301, -0.203347846865654, -0.4270351231098175, -0.1186986044049263, -0.03428765758872032, 0.10353253781795502, -0.0253932885825634, -0.013743448071181774, 0.02163899876177311, -0.00193024892359972, 0.000501912843901664, 0.07729031145572662, 0.11713984608650208, 0.19215121865272522, 0.13571183383464813, 0.17176565527915955, -0.11586060374975204, 0.016590213403105736, -0.010188666172325611, -0.037940993905067444, 0.024385638535022736, -0.06389575451612473, 0.007809932343661785, 0.011506877839565277, 0.07806248962879181, -0.06884647160768509, -0.013718932867050171, 0.06677455455064774, 0.008560573682188988, -0.027988720685243607, 0.027167124673724174, 0.09215756505727768, -0.013205285184085369, -0.009772934019565582, 0.06265804171562195, 0.010034647770226002, -0.006348993629217148, -0.03956091031432152, -0.08141262084245682], [0.2269357442855835, 0.23695595562458038, 0.37961795926094055, 0.2966907024383545, 0.018331877887248993, 0.15730459988117218, 0.1219625249505043, -0.024292301386594772, 0.008742664940655231, -0.13670307397842407, -0.19865018129348755, -0.11841847002506256, -0.26690831780433655, -0.007378872949630022, -0.2163769155740738, -0.03318636491894722, -0.027579372748732567, 0.0369337722659111, -0.2546287477016449, 0.0999380350112915, -0.014071667566895485, -0.029341893270611763, 0.22761887311935425, -0.11348728090524673, 0.19379256665706635, 0.2092527598142624, -0.17543092370033264, -0.04148666188120842, -0.06147635355591774, -0.11447028815746307, 0.10899339616298676, -0.3426267206668854, 0.0055981772020459175, 0.013472607359290123, 0.14225296676158905, 0.03947877511382103, -0.3457956612110138, -0.030575430020689964, -0.022864650934934616, 0.13120663166046143, 0.01352616585791111, -0.008158761076629162, -0.1225142851471901, -0.013799920678138733, 0.10835598409175873, 0.08337913453578949, 0.07829266041517258, 0.009982944466173649, 0.062406253069639206, 0.0950794443488121, 0.02429307997226715, 0.03716925531625748, -0.3796103894710541, -0.06175776571035385, -0.09333840012550354, -0.10600359737873077, 0.003745791269466281, -0.0240328386425972, -0.22816430032253265, -0.19581834971904755, 0.004284340422600508, -0.2517460882663727, -0.05866209417581558, -0.10353279858827591, -0.15041731297969818, -0.07259779423475266, -0.1623614877462387, -0.11430464684963226, -0.08522084355354309, 0.13504277169704437, 0.12659431993961334, -0.10014618188142776, 0.06702708452939987, 0.04303042218089104, 0.10275430977344513, 0.08318004012107849, -0.021969716995954514, -0.13017049431800842, -0.09312418103218079, -0.014552967622876167, -0.029082387685775757, -0.12691240012645721, 0.04916435852646828, 0.11366091668605804, -0.056170616298913956, -0.05940868705511093, 0.04631351679563522, 0.2406947910785675, -0.0690111592411995, -0.043256163597106934, 0.18335029482841492, 0.11007747799158096, 0.06330356001853943, -0.06838840991258621, 0.06387031078338623, 0.06270783394575119, -0.2797863781452179, 0.07105933874845505, 0.12343821674585342, 0.21807843446731567, -0.05768148973584175, 0.04306579381227493, 0.09328120201826096, -0.08612470328807831, -0.5257959365844727, -0.3311595022678375, 0.10762631893157959, -0.04344750568270683, -0.062066081911325455, -0.005108461249619722, 0.09984590858221054, 0.16361603140830994, -0.1510239988565445, 0.04951119422912598, -0.05378549173474312, -0.025197790935635567, -0.009084160439670086, 0.042401399463415146, 0.01844955049455166, -0.08567783981561661, -0.06445300579071045, -0.025626739487051964, -0.002930199960246682, 0.011589579284191132, 0.0347396619617939, -0.04292887821793556, 0.052472811192274094, 0.07276654988527298], [-0.2121376395225525, 0.0012211506254971027, 0.09040623158216476, -0.029924072325229645, -0.13752762973308563, -0.14279770851135254, -0.002834530547261238, -0.05743658170104027, -0.07312910258769989, -0.12400615960359573, 0.048347026109695435, -0.0561741404235363, 0.04975759983062744, 0.09444098174571991, -0.05678275600075722, 0.06947772204875946, -0.010934397578239441, -0.29207995533943176, 0.017408298328518867, 0.050986919552087784, 0.14335942268371582, -0.06892740726470947, -0.1177673265337944, -0.11968140304088593, -0.07418549805879593, 0.32100191712379456, 0.23459701240062714, 0.0018994812853634357, -0.029916590079665184, -0.020979344844818115, -0.003530804766342044, 0.027837973088026047, -0.05939828231930733, 0.059901293367147446, 0.022967597469687462, -0.10910715162754059, -0.05217032879590988, -0.1014256477355957, -0.07044417411088943, 0.1374286413192749, -0.06381533294916153, 0.10190986841917038, 0.10840365290641785, 0.053061891347169876, -0.0016596217174082994, 0.007407818455249071, 0.020372139289975166, 0.11851434409618378, -0.22897639870643616, -0.025642098858952522, 0.13662748038768768, 0.030111661180853844, 0.019689075648784637, -0.17430894076824188, -0.23814024031162262, -0.11288256198167801, 0.10414610058069229, 0.03711242601275444, 0.02818523906171322, 0.10627396404743195, -0.0018526427447795868, 0.13638068735599518, 0.10278993844985962, 0.11435258388519287, 0.16936294734477997, 0.1190023422241211, -0.20282787084579468, 0.06899598240852356, 0.05342797935009003, 0.12390533834695816, -0.21750493347644806, 0.1565973460674286, -0.0806632712483406, -0.01877754181623459, 0.07791996002197266, 0.03273097798228264, -0.06975110620260239, -0.0023594351951032877, 0.11933926492929459, 0.015021519735455513, 0.10606691241264343, 0.011913247406482697, 0.0025440144818276167, -0.3241957426071167, -0.18136943876743317, 0.10450123250484467, 0.08325789868831635, 0.10015511512756348, 0.17406205832958221, 0.03481012210249901, 0.20610801875591278, -0.056013062596321106, 0.2294384241104126, -0.16124477982521057, 0.045325323939323425, -0.007698856759816408, -0.09628002345561981, -0.031081268563866615, 0.12950800359249115, -0.44378378987312317, -0.029969654977321625, 0.1591319739818573, 0.08825910091400146, -0.11174161732196808, -0.22139647603034973, 0.005290960893034935, -0.06068370118737221, 0.14289551973342896, 0.030705053359270096, 0.039821427315473557, 0.09010762721300125, 0.013806091621518135, 0.1653531789779663, 0.047711558640003204, 0.10393664240837097, 0.015543929301202297, 0.056700270622968674, 0.11577118188142776, 0.07558795064687729, -0.029596557840704918, 0.06052280217409134, 0.030514681711792946, 0.13020741939544678, -0.005286599509418011, 0.12976281344890594, 0.1445924937725067, 0.06398255378007889, 0.1731797307729721], [0.05875151976943016, 0.005039594601839781, -0.15338896214962006, -0.09037304669618607, 0.15128080546855927, 0.14242830872535706, -0.16400586068630219, 0.13009299337863922, 0.09245111793279648, 0.01190777588635683, 0.09737469255924225, -0.10540889948606491, -0.18329967558383942, 0.007118824403733015, -0.03526243939995766, -0.03042721003293991, -0.01739056035876274, 0.07794161140918732, 0.2573632597923279, -0.16135375201702118, 0.257796049118042, -0.20808538794517517, 0.32258570194244385, 0.27225959300994873, -0.06090785935521126, -0.886330783367157, 0.15805457532405853, 0.22214676439762115, -0.08780442178249359, 0.07171640545129776, -0.1480163335800171, 0.3663890063762665, 0.2436428666114807, -0.29772433638572693, 0.16334792971611023, 0.13784489035606384, -0.0031577779445797205, -0.4093494713306427, 0.2110673189163208, 0.04933519661426544, 0.11121462285518646, -0.07908935099840164, -0.018088210374116898, -0.029626863077282906, 0.03327258676290512, 0.04893653839826584, -0.2960217595100403, 0.04294779896736145, 0.12941773235797882, 0.1584147810935974, 0.1040744036436081, 0.13032266497612, 0.05892907455563545, 0.039638761430978775, -0.028310619294643402, -0.1353047490119934, -0.1301926225423813, 0.025157205760478973, -0.2495277225971222, -0.09936407953500748, -0.10756535083055496, -0.05089270696043968, 0.04630187898874283, 0.010396693833172321, 0.10387936979532242, -0.08431361615657806, -0.04286377876996994, 0.15705323219299316, 0.08255419880151749, 0.15586374700069427, 0.16735023260116577, 0.07522838562726974, 0.06514859199523926, -0.057244930416345596, 0.0008864277042448521, -0.01680723950266838, -0.004229809623211622, 0.047913290560245514, -0.011813797987997532, 0.08566732704639435, 0.0826941728591919, -0.03284908086061478, 0.043742746114730835, 0.07734720408916473, 0.05960942432284355, 0.17825965583324432, 0.03746405988931656, 0.12727631628513336, -0.26338860392570496, -0.3859931230545044, -0.1523422747850418, -0.2982916831970215, -0.01038325298577547, -0.18507084250450134, 0.11875970661640167, -0.03463968262076378, -0.15393882989883423, -0.0983433797955513, 0.5154592394828796, -0.04153236001729965, 0.30268406867980957, -0.029522962868213654, -0.11000794917345047, 0.05883794277906418, -0.1017550602555275, -0.2650393843650818, 0.07195708900690079, 0.4263186752796173, -0.08151690661907196, 0.04411609470844269, 0.10418330132961273, -0.04683075100183487, -0.06074784696102142, 9.656324255047366e-05, 0.011109755374491215, -0.009418711066246033, 0.03217925876379013, -0.12392670661211014, -0.030481787398457527, 0.0017733549466356635, 0.031137701123952866, -0.06920517235994339, -0.033141668885946274, 0.0018248127307742834, 0.08242332935333252, 0.09456968307495117, -0.12641915678977966, -0.0013494291342794895], [0.09143123775720596, 0.38534945249557495, 0.03817323222756386, 0.4033365249633789, 0.08393929898738861, 0.08905284106731415, -0.02184383198618889, 0.10223860293626785, 0.10948890447616577, 0.05783466622233391, 0.027913304045796394, 0.14797088503837585, 0.10364464670419693, 0.09845228493213654, -0.29684847593307495, 0.11822617799043655, -0.18027696013450623, 0.09379812330007553, 0.0985473096370697, -0.1265270709991455, 0.19496478140354156, -0.0011405642144382, 0.18151640892028809, 0.05583943799138069, -0.10837281495332718, 